{"learner":{"attributes":{"best_iteration":"0","best_score":"0.04048815047442606","scikit_learn":"{\"_estimator_type\": \"classifier\"}"},"feature_names":["bowler_type_encoded","pitch_type_encoded","match_phase_encoded","over","ball","is_wide","is_noball","format_encoded","temperature","humidity","cloud_cover","wind_speed","precipitation","balls_faced_so_far","runs_scored_so_far","strike_rate_so_far","wickets_fallen_before","bowler_career_dismissals_of_kohli","bowler_career_balls_to_kohli","kohli_last5_avg","kohli_last5_sr"],"feature_types":["int","int","int","int","int","int","int","int","float","float","float","float","float","int","int","float","int","int","int","float","float"],"gradient_booster":{"model":{"gbtree_model_param":{"num_parallel_tree":"1","num_trees":"31"},"iteration_indptr":[0,1,2,3,4,5,6,7,8,9,10,11,12,13,14,15,16,17,18,19,20,21,22,23,24,25,26,27,28,29,30,31],"tree_info":[0,0,0,0,0,0,0,0,0,0,0,0,0,0,0,0,0,0,0,0,0,0,0,0,0,0,0,0,0,0,0],"trees":[{"base_weights":[-6.6147014E-2,1.3124126E-1,-9.9783905E-2,-6.985247E-2,1.0992202E0,3.0076656E-1,-2.5451833E-1,1.157029E0,-9.344263E-2,-9.570482E-1,4.4283846E-1,-2.9699567E-1,1.7000852E0,8.420717E-1,1.5712212E0,-9.884059E-2,1.182017E0,-9.7163126E-2,5.1985323E-1,2.1267587E-1,-4.279681E-1,6.548805E-2,9.412899E-2,1.0501354E0,-9.6747965E-2,1.7330714E0,9.200941E-1,-8.6666666E-2,8.859283E-2,3.5751868E-2,-3.5007156E-3,-6.0292758E-2,2.4959652E-2,-3.5260525E-2,-1.0697519E-3,5.4888953E-2,-8.62069E-2,5.5881318E-2,8.903643E-2,-8.9189194E-2,6.630074E-2],"categories":[],"categories_nodes":[],"categories_segments":[],"categories_sizes":[],"default_left":[0,0,0,0,0,0,0,0,0,0,0,0,0,0,0,0,0,0,0,0,0,0,0,0,0,0,0,0,0,0,0,0,0,0,0,0,0,0,0,0,0],"id":0,"left_children":[1,3,-1,5,7,9,11,13,-1,15,17,19,21,23,25,-1,27,-1,29,31,33,-1,-1,35,-1,37,39,-1,-1,-1,-1,-1,-1,-1,-1,-1,-1,-1,-1,-1,-1],"loss_changes":[1.8991146E3,8.806662E2,0E0,2.5649942E2,1.356889E2,2.2316354E2,2.0817024E2,9.833832E1,0E0,2.7896472E2,2.0694258E2,1.6355904E2,1.3343811E0,2.5402402E2,3.3060303E1,0E0,7.454706E1,0E0,1.2512784E2,2.0435031E2,2.1962332E2,0E0,0E0,5.5605743E1,0E0,5.701477E0,7.6558716E1,0E0,0E0,0E0,0E0,0E0,0E0,0E0,0E0,0E0,0E0,0E0,0E0,0E0,0E0],"parents":[2147483647,0,0,1,1,3,3,4,4,5,5,6,6,7,7,9,9,10,10,11,11,12,12,13,13,14,14,16,16,18,18,19,19,20,20,23,23,25,25,26,26],"right_children":[2,4,-1,6,8,10,12,14,-1,16,18,20,22,24,26,-1,28,-1,30,32,34,-1,-1,36,-1,38,40,-1,-1,-1,-1,-1,-1,-1,-1,-1,-1,-1,-1,-1,-1],"split_conditions":[8E0,3.9E1,-9.9783905E-2,2.3E1,1.26E2,1E0,1.22E2,1.05E2,-9.344263E-2,2E1,1E0,5E0,1.02E2,1E2,6.2333332E1,-9.884059E-2,8.8002686E1,-9.7163126E-2,5.36E1,2E0,2.6E1,6.548805E-2,9.412899E-2,3.51E2,-9.6747965E-2,3E0,5E0,-8.6666666E-2,8.859283E-2,3.5751868E-2,-3.5007156E-3,-6.0292758E-2,2.4959652E-2,-3.5260525E-2,-1.0697519E-3,5.4888953E-2,-8.62069E-2,5.5881318E-2,8.903643E-2,-8.9189194E-2,6.630074E-2],"split_indices":[0,3,0,18,13,4,14,14,0,18,14,14,13,13,19,0,20,0,19,4,3,0,0,18,0,0,0,0,0,0,0,0,0,0,0,0,0,0,0,0,0],"split_type":[0,0,0,0,0,0,0,0,0,0,0,0,0,0,0,0,0,0,0,0,0,0,0,0,0,0,0,0,0,0,0,0,0,0,0,0,0,0,0,0,0],"sum_hessian":[4.9846084E3,4.5228584E3,4.6175E2,3.7456438E3,7.772146E2,1.2454445E3,2.5001995E3,7.629646E2,1.425E1,1.2581566E2,1.1196288E3,2.447851E3,5.234848E1,4.3512372E2,3.2784088E2,8.525E1,4.0565655E1,3.425E1,1.0853788E3,5.0030807E2,1.9475428E3,1.9282827E1,3.3065655E1,4.0537372E2,2.975E1,2.612424E2,6.659848E1,6.5E0,3.4065655E1,8.1536615E2,2.7001263E2,8.353283E1,4.1677524E2,1.157505E3,7.9003784E2,3.9912372E2,6.25E0,2.0532827E1,2.4070958E2,8.25E0,5.834848E1],"tree_param":{"num_deleted":"0","num_feature":"21","num_nodes":"41","size_leaf_vector":"1"}},{"base_weights":[-4.5412995E-2,1.4292373E-1,-9.504685E-2,-5.195922E-2,1.0732485E0,1.7567009E-1,-4.8530045E-1,1.1171181E0,-9.3999885E-2,3.4751818E-1,-3.041975E-1,-8.825624E-1,-8.91362E-2,5.3836E-1,1.2847393E0,1.9206561E-1,1.0858827E0,-9.814499E-2,-1.05924234E-1,-4.0274915E-1,-9.861741E-2,-5.5478764E-1,5.000363E-1,9.706048E-1,-9.557664E-2,1.3308151E0,-9.174671E-2,2.2237023E-2,-3.765653E-2,5.722974E-2,-8.4419064E-2,1.8114088E-2,-3.0390987E-2,-5.6951097E-3,-9.7604565E-2,1.732628E-2,-7.941627E-2,4.3866996E-2,-9.645646E-2,5.8351297E-2,-8.9168794E-2,2.7644427E-3,6.999095E-2],"categories":[],"categories_nodes":[],"categories_segments":[],"categories_sizes":[],"default_left":[0,0,0,0,0,0,0,0,0,0,0,0,0,0,0,0,0,0,0,0,0,0,0,0,0,0,0,0,0,0,0,0,0,0,0,0,0,0,0,0,0,0,0],"id":1,"left_children":[1,3,-1,5,7,9,11,13,-1,15,17,19,21,23,25,27,29,-1,31,33,-1,35,37,39,-1,41,-1,-1,-1,-1,-1,-1,-1,-1,-1,-1,-1,-1,-1,-1,-1,-1,-1],"loss_changes":[1.7638434E3,8.3086896E2,0E0,3.739068E2,1.0493152E2,2.0505602E2,2.0536508E2,7.5241516E1,0E0,2.09891E2,2.154944E2,3.3996515E2,1.7989676E2,1.8982314E2,8.95802E1,3.6175427E2,5.3751312E1,0E0,1.3813713E2,2.0282935E2,0E0,3.416465E2,2.670725E2,8.405844E1,0E0,5.2553955E1,0E0,0E0,0E0,0E0,0E0,0E0,0E0,0E0,0E0,0E0,0E0,0E0,0E0,0E0,0E0,0E0,0E0],"parents":[2147483647,0,0,1,1,3,3,4,4,5,5,6,6,7,7,9,9,10,10,11,11,12,12,13,13,14,14,15,15,16,16,18,18,19,19,21,21,22,22,23,23,25,25],"right_children":[2,4,-1,6,8,10,12,14,-1,16,18,20,22,24,26,28,30,-1,32,34,-1,36,38,40,-1,42,-1,-1,-1,-1,-1,-1,-1,-1,-1,-1,-1,-1,-1,-1,-1,-1,-1],"split_conditions":[8E0,3.9E1,-9.504685E-2,8.1E1,7E0,8.5E1,8.511181E1,9.361702E1,-9.3999885E-2,8.25E1,8.8888885E1,1.48E1,1.58E1,9.081633E1,9.9E1,5.24E1,1.93E1,-9.814499E-2,3.2E1,7.885154E1,-9.861741E-2,9.456176E1,2.77E1,2.1E2,-9.557664E-2,6E0,-9.174671E-2,2.2237023E-2,-3.765653E-2,5.722974E-2,-8.4419064E-2,1.8114088E-2,-3.0390987E-2,-5.6951097E-3,-9.7604565E-2,1.732628E-2,-7.941627E-2,4.3866996E-2,-9.645646E-2,5.8351297E-2,-8.9168794E-2,2.7644427E-3,6.999095E-2],"split_indices":[0,3,0,18,0,15,20,15,0,19,15,11,11,15,19,19,11,0,14,20,0,20,11,18,0,11,0,0,0,0,0,0,0,0,0,0,0,0,0,0,0,0,0],"split_type":[0,0,0,0,0,0,0,0,0,0,0,0,0,0,0,0,0,0,0,0,0,0,0,0,0,0,0,0,0,0,0,0,0,0,0,0,0,0,0,0,0,0,0],"sum_hessian":[5.0455146E3,4.581421E3,4.640938E2,3.788712E3,7.9270917E2,2.4843206E3,1.3043914E3,7.817187E2,1.0990496E1,1.8294438E3,6.548767E2,6.506803E2,6.53711E2,1.7650342E2,6.052153E2,1.5123081E3,3.171357E2,6.897232E1,5.8590436E2,4.5272366E2,1.979566E2,3.6516324E2,2.8854776E2,1.5054582E2,2.5957607E1,5.9697174E2,8.24353E0,1.1937247E3,3.1858337E2,3.111385E2,5.997235E0,3.0326968E2,2.8263467E2,3.82489E2,7.0234665E1,1.9541402E2,1.6974924E2,2.5030817E2,3.8239613E1,1.410612E2,9.484614E0,3.0730175E1,5.662416E2],"tree_param":{"num_deleted":"0","num_feature":"21","num_nodes":"43","size_leaf_vector":"1"}},{"base_weights":[2.2857478E-2,2.0176995E-1,-9.094965E-2,9.65219E-3,9.41779E-1,2.0994012E-1,-4.093007E-1,9.673691E-1,-8.768406E-2,2.7680752E-1,-9.744393E-1,-5.80153E-1,5.886568E-1,1.5779357E-1,1.0498346E0,1.5174866E-1,7.9694146E-1,-9.559535E-2,4.5447603E-1,-9.530077E-2,-4.0338057E-1,-9.273492E-2,9.056811E-1,1.2594907E0,-9.6917644E-2,1.1058439E0,-9.20254E-2,-2.8168103E-2,1.2348371E-2,-1.565817E-2,5.116374E-2,7.5589396E-2,-9.1364704E-2,5.235966E-3,-4.0598173E-2,-8.976888E-2,5.6735884E-2,-8.43798E-2,8.2509845E-2,3.8712367E-2,6.772252E-2],"categories":[],"categories_nodes":[],"categories_segments":[],"categories_sizes":[],"default_left":[0,0,0,0,0,0,0,0,0,0,0,0,0,0,0,0,0,0,0,0,0,0,0,0,0,0,0,0,0,0,0,0,0,0,0,0,0,0,0,0,0],"id":2,"left_children":[1,3,-1,5,7,9,11,13,-1,15,17,19,21,23,25,27,29,-1,31,-1,33,-1,35,37,-1,39,-1,-1,-1,-1,-1,-1,-1,-1,-1,-1,-1,-1,-1,-1,-1],"loss_changes":[1.7042743E3,6.7014935E2,0E0,3.1418903E2,6.871039E1,2.0089078E2,2.0683284E2,6.412952E1,0E0,1.5590245E2,1.8251018E2,2.4170322E2,1.3919191E2,2.1075746E2,1.4349792E2,1.3189162E2,1.1707605E2,0E0,1.343096E2,0E0,1.8985437E2,0E0,9.966463E1,7.156704E1,0E0,6.967041E1,0E0,0E0,0E0,0E0,0E0,0E0,0E0,0E0,0E0,0E0,0E0,0E0,0E0,0E0,0E0],"parents":[2147483647,0,0,1,1,3,3,4,4,5,5,6,6,7,7,9,9,10,10,11,11,12,12,13,13,14,14,15,15,16,16,18,18,20,20,22,22,23,23,25,25],"right_children":[2,4,-1,6,8,10,12,14,-1,16,18,20,22,24,26,28,30,-1,32,-1,34,-1,36,38,-1,40,-1,-1,-1,-1,-1,-1,-1,-1,-1,-1,-1,-1,-1,-1,-1],"split_conditions":[8E0,3.7E1,-9.094965E-2,8.4210526E1,1.08666664E2,5E0,2.34E1,6.3E0,-8.768406E-2,1E2,9.4E1,8.846154E1,5.6E1,2.6E1,7E0,2.8571428E1,5E0,-9.559535E-2,9.6E1,-9.530077E-2,9.7E0,-9.273492E-2,1.1E1,4.3E1,-9.6917644E-2,9.74359E1,-9.20254E-2,-2.8168103E-2,1.2348371E-2,-1.565817E-2,5.116374E-2,7.5589396E-2,-9.1364704E-2,5.235966E-3,-4.0598173E-2,-8.976888E-2,5.6735884E-2,-8.43798E-2,8.2509845E-2,3.8712367E-2,6.772252E-2],"split_indices":[0,3,0,15,19,17,11,11,0,10,10,15,10,9,0,15,0,0,10,0,11,0,3,3,0,15,0,0,0,0,0,0,0,0,0,0,0,0,0,0,0],"split_type":[0,0,0,0,0,0,0,0,0,0,0,0,0,0,0,0,0,0,0,0,0,0,0,0,0,0,0,0,0,0,0,0,0,0,0,0,0,0,0,0,0],"sum_hessian":[5.16972E3,4.71282E3,4.569004E2,3.7422795E3,9.7054034E2,2.53221E3,1.2100695E3,9.6204803E2,8.492344E0,2.3976125E3,1.3459752E2,1.0335435E3,1.76526E2,8.920675E1,8.7284125E2,1.9339204E3,4.636921E2,8.107119E1,5.3526337E1,1.2043693E2,9.131065E2,1.9716623E1,1.5680937E2,5.873554E1,3.0471212E1,8.568545E2,1.5986784E1,2.2666994E2,1.7072505E3,7.846388E1,3.852282E2,3.6807953E1,1.6718384E1,4.0732034E2,5.0578616E2,1.172274E1,1.4508664E2,6.486755E0,5.2248783E1,3.6890958E2,4.8794492E2],"tree_param":{"num_deleted":"0","num_feature":"21","num_nodes":"41","size_leaf_vector":"1"}},{"base_weights":[1.3685524E-2,-2.1106537E-1,6.6738033E-1,-1.11227326E-1,-9.415698E-1,4.717564E-1,1.2036268E0,-5.401381E-1,5.1133715E-2,-1.4286575E0,-2.4983597E-1,5.913566E-1,-3.7415996E-1,1.3246003E0,4.4587407E-2,-9.4228774E-2,-4.351448E-1,7.7792823E-1,-4.323761E-2,-1.630518E0,2.096346E-1,-9.317916E-2,3.3503854E-1,1.6813937E-1,8.94176E-1,3.5202852E-1,-9.458735E-2,5.007642E-1,1.3903131E0,-9.19429E-2,1.002185E-1,-3.2533357E-1,-9.271338E-2,1.0442092E0,-9.293475E-2,-5.668962E-1,8.419345E-2,-7.128504E-1,-9.490822E-2,6.519078E-2,-8.6183034E-2,-4.5030513E-1,1.6088948E0,-9.3825124E-2,4.259896E-1,6.240788E-1,1.5680096E0,-9.061782E-2,8.891141E-1,-9.047524E-2,7.910371E-2,1.5835615E0,1.0197029E0,-2.050819E-2,6.148199E-2,5.8360428E-2,-9.0169705E-2,-2.9611227E-3,-7.3152676E-2,-4.7776926E-2,8.540582E-3,4.3925613E-2,-9.081162E-2,8.110252E-2,-9.5052056E-2,5.44842E-2,9.466877E-2,-9.129732E-2,3.1269267E-2,4.886345E-2,-2.2021819E-2,8.8153526E-2,6.2779196E-2,-8.3889246E-2,6.330981E-2,8.271049E-2,6.333875E-2,-8.95343E-2,6.1641615E-2],"categories":[],"categories_nodes":[],"categories_segments":[],"categories_sizes":[],"default_left":[0,0,0,0,0,0,0,0,0,0,0,0,0,0,0,0,0,0,0,0,0,0,0,0,0,0,0,0,0,0,0,0,0,0,0,0,0,0,0,0,0,0,0,0,0,0,0,0,0,0,0,0,0,0,0,0,0,0,0,0,0,0,0,0,0,0,0,0,0,0,0,0,0,0,0,0,0,0,0],"id":3,"left_children":[1,3,5,7,9,11,13,15,17,19,21,23,25,27,29,-1,31,33,35,37,39,-1,41,43,45,47,-1,49,51,-1,-1,53,-1,55,-1,57,59,61,-1,-1,-1,63,65,-1,67,69,71,-1,73,-1,-1,75,77,-1,-1,-1,-1,-1,-1,-1,-1,-1,-1,-1,-1,-1,-1,-1,-1,-1,-1,-1,-1,-1,-1,-1,-1,-1,-1],"loss_changes":[7.545907E2,2.7864813E2,1.372821E2,2.3426773E2,1.5443869E2,9.7798904E1,4.9099396E1,1.2957162E2,1.674533E2,8.942682E1,1.8094016E2,1.08193756E2,1.3300468E2,1.6488342E1,1.298112E2,0E0,1.3312283E2,1.9892613E2,1.4427571E2,5.75791E1,6.663132E1,0E0,1.4185405E2,1.8734384E2,8.866757E1,9.700544E1,0E0,6.5345825E1,1.9399658E1,0E0,0E0,1.057284E2,0E0,9.1586365E1,0E0,1.9242725E2,1.5679552E2,9.953995E1,0E0,0E0,0E0,2.6780145E2,5.91597E0,0E0,1.425954E2,1.3325507E2,6.3352966E0,0E0,6.64126E1,0E0,0E0,2.1801758E0,6.412356E1,0E0,0E0,0E0,0E0,0E0,0E0,0E0,0E0,0E0,0E0,0E0,0E0,0E0,0E0,0E0,0E0,0E0,0E0,0E0,0E0,0E0,0E0,0E0,0E0,0E0,0E0],"parents":[2147483647,0,0,1,1,2,2,3,3,4,4,5,5,6,6,7,7,8,8,9,9,10,10,11,11,12,12,13,13,14,14,16,16,17,17,18,18,19,19,20,20,22,22,23,23,24,24,25,25,27,27,28,28,31,31,33,33,35,35,36,36,37,37,41,41,42,42,44,44,45,45,46,46,48,48,51,51,52,52],"right_children":[2,4,6,8,10,12,14,16,18,20,22,24,26,28,30,-1,32,34,36,38,40,-1,42,44,46,48,-1,50,52,-1,-1,54,-1,56,-1,58,60,62,-1,-1,-1,64,66,-1,68,70,72,-1,74,-1,-1,76,78,-1,-1,-1,-1,-1,-1,-1,-1,-1,-1,-1,-1,-1,-1,-1,-1,-1,-1,-1,-1,-1,-1,-1,-1,-1,-1],"split_conditions":[3.4E1,3.2E1,1.06E2,2E0,3.36E1,9.4E1,1.25E2,5.4089638E1,1.87E1,3.2E1,2.52E1,7.2E1,3E0,1E0,1.82E2,-9.4228774E-2,4E0,2.6E1,8E0,1E0,6E1,-9.317916E-2,2.7E1,7.2E0,4.3E1,3E0,-9.458735E-2,3.24E1,3E0,-9.19429E-2,1.002185E-1,3.51E2,-9.271338E-2,1.4283798E2,-9.293475E-2,5.3E1,2.12E1,8.9E0,-9.490822E-2,6.519078E-2,-8.6183034E-2,3.42E1,4.5E1,-9.3825124E-2,9E0,5.75E1,1E0,-9.061782E-2,3.9E1,-9.047524E-2,7.910371E-2,4E0,3E0,-2.050819E-2,6.148199E-2,5.8360428E-2,-9.0169705E-2,-2.9611227E-3,-7.3152676E-2,-4.7776926E-2,8.540582E-3,4.3925613E-2,-9.081162E-2,8.110252E-2,-9.5052056E-2,5.44842E-2,9.466877E-2,-9.129732E-2,3.1269267E-2,4.886345E-2,-2.2021819E-2,8.8153526E-2,6.2779196E-2,-8.3889246E-2,6.330981E-2,8.271049E-2,6.333875E-2,-8.95343E-2,6.1641615E-2],"split_indices":[3,8,14,4,8,14,13,20,8,3,19,13,1,4,14,0,17,3,10,4,14,0,3,11,3,4,0,8,4,0,0,18,0,20,0,19,8,11,0,0,0,8,14,0,18,19,4,0,3,0,0,1,1,0,0,0,0,0,0,0,0,0,0,0,0,0,0,0,0,0,0,0,0,0,0,0,0,0,0],"split_type":[0,0,0,0,0,0,0,0,0,0,0,0,0,0,0,0,0,0,0,0,0,0,0,0,0,0,0,0,0,0,0,0,0,0,0,0,0,0,0,0,0,0,0,0,0,0,0,0,0,0,0,0,0,0,0,0,0,0,0,0,0,0,0,0,0,0,0,0,0,0,0,0,0,0,0,0,0,0,0],"sum_hessian":[5.1341597E3,3.8210854E3,1.3130741E3,3.3626626E3,4.5842285E2,9.634757E2,3.495984E2,9.2273566E2,2.439927E3,2.6837793E2,1.9004492E2,8.44392E2,1.1908371E2,3.1642865E2,3.3169754E1,6.5613014E1,8.571227E2,2.7957275E2,2.1603542E3,2.3894171E2,2.9436209E1,4.997391E1,1.4007101E2,3.5283243E2,4.9155957E2,8.106223E1,3.802148E1,2.4012064E1,2.9241656E2,1.6945765E1,1.6223991E1,7.967033E2,6.041938E1,2.5447633E2,2.5096418E1,4.221489E2,1.7382053E3,5.4780758E1,1.8416095E2,1.900539E1,1.04308195E1,8.705026E1,5.3020756E1,3.8809803E1,3.140226E2,3.522793E2,1.3928027E2,1.5644104E1,6.541813E1,7.4408674E0,1.6571196E1,1.90047E2,1.0236958E2,7.561864E2,4.0516872E1,2.4450528E2,9.971048E0,2.7016583E2,1.5198306E2,1.3289941E2,1.6053059E3,2.2513811E1,3.226695E1,3.5796864E1,5.1253395E1,2.0477436E1,3.254332E1,2.4879631E1,2.89143E2,2.645782E2,8.7701096E1,8.2887115E1,5.6393166E1,7.9373116E0,5.7480816E1,1.5194022E2,3.810678E1,6.6943235E0,9.567526E1],"tree_param":{"num_deleted":"0","num_feature":"21","num_nodes":"79","size_leaf_vector":"1"}},{"base_weights":[1.499054E-2,1.8583487E-1,-8.650852E-2,7.892929E-2,1.19998E0,1.6185892E-1,-4.8750523E-1,-8.714881E-2,1.2597615E0,5.5655885E-2,7.007783E-1,-9.148681E-1,6.283768E-1,8.7455887E-1,1.4605315E0,2.1639715E-1,-3.9961597E-1,1.024332E0,-7.205831E-1,5.473269E-1,-1.2690873E0,1.0000827E0,-8.885568E-2,1.13804E0,-9.5601566E-2,1.1921867E0,1.7558476E0,2.299444E-3,3.0548034E-2,-6.2734686E-2,-5.6697023E-3,5.5066E-2,-9.200077E-2,-5.9949644E-2,9.129207E-2,7.205378E-2,-8.9394175E-2,-9.302672E-2,-2.6448032E-2,-8.672265E-2,6.331115E-2,6.308143E-2,-7.989725E-2,-9.225612E-2,6.668433E-2,9.08282E-2,6.427133E-2],"categories":[],"categories_nodes":[],"categories_segments":[],"categories_sizes":[],"default_left":[0,0,0,0,0,0,0,0,0,0,0,0,0,0,0,0,0,0,0,0,0,0,0,0,0,0,0,0,0,0,0,0,0,0,0,0,0,0,0,0,0,0,0,0,0,0,0],"id":4,"left_children":[1,3,-1,5,7,9,11,-1,13,15,17,19,21,23,25,27,29,31,33,35,37,39,-1,41,-1,43,45,-1,-1,-1,-1,-1,-1,-1,-1,-1,-1,-1,-1,-1,-1,-1,-1,-1,-1,-1,-1],"loss_changes":[1.5197455E3,5.0325134E2,0E0,1.9741707E2,8.007507E1,2.0974036E2,2.5654535E2,0E0,3.232025E1,2.2423508E2,2.7818872E2,2.0192383E2,1.3521187E2,1.1329169E2,2.04198E1,1.5221957E2,1.955504E2,1.1048865E2,1.3918607E2,1.6216396E2,1.3605481E2,9.673312E1,0E0,4.8980835E1,0E0,6.776866E1,1.4674683E0,0E0,0E0,0E0,0E0,0E0,0E0,0E0,0E0,0E0,0E0,0E0,0E0,0E0,0E0,0E0,0E0,0E0,0E0,0E0,0E0],"parents":[2147483647,0,0,1,1,3,3,4,4,5,5,6,6,8,8,9,9,10,10,11,11,12,12,13,13,14,14,15,15,16,16,17,17,18,18,19,19,20,20,21,21,23,23,25,25,26,26],"right_children":[2,4,-1,6,8,10,12,-1,14,16,18,20,22,24,26,28,30,32,34,36,38,40,-1,42,-1,44,46,-1,-1,-1,-1,-1,-1,-1,-1,-1,-1,-1,-1,-1,-1,-1,-1,-1,-1,-1,-1],"split_conditions":[8E0,1.04E2,-8.650852E-2,2.08E2,9.1E1,8.34E1,7.3E1,-8.714881E-2,5E0,5.62E1,2.96E1,1E0,9.1E1,4.9E1,5.2E1,9.3E1,5E0,2.145E2,1.9E2,2.55E1,9.8015144E1,7.399672E1,-8.885568E-2,2.67E2,-9.5601566E-2,6E0,4E-1,2.299444E-3,3.0548034E-2,-6.2734686E-2,-5.6697023E-3,5.5066E-2,-9.200077E-2,-5.9949644E-2,9.129207E-2,7.205378E-2,-8.9394175E-2,-9.302672E-2,-2.6448032E-2,-8.672265E-2,6.331115E-2,6.308143E-2,-7.989725E-2,-9.225612E-2,6.668433E-2,9.08282E-2,6.427133E-2],"split_indices":[0,14,0,18,13,19,13,0,0,19,8,0,13,9,10,10,0,19,18,8,20,20,0,18,0,0,12,0,0,0,0,0,0,0,0,0,0,0,0,0,0,0,0,0,0,0,0],"split_type":[0,0,0,0,0,0,0,0,0,0,0,0,0,0,0,0,0,0,0,0,0,0,0,0,0,0,0,0,0,0,0,0,0,0,0,0,0,0,0,0,0,0,0,0,0,0,0],"sum_hessian":[5.095158E3,4.6416523E3,4.535059E2,4.19999E3,4.41662E2,3.664237E3,5.357534E2,8.232478E0,4.334295E2,3.061935E3,6.0230194E2,3.8752023E2,1.4823317E2,1.5033975E2,2.8308975E2,2.2633474E3,7.985876E2,4.9084668E2,1.114553E2,7.5464066E1,3.1205615E2,1.2889938E2,1.9333794E1,1.3789311E2,1.2446637E1,1.5095686E2,1.321329E2,1.5814504E3,6.8189703E2,1.99426E2,5.991616E2,4.785984E2,1.2248268E1,9.427291E1,1.7182386E1,5.4853157E1,2.0610907E1,1.726083E2,1.3944786E2,1.0943206E1,1.1795618E2,1.3244907E2,5.444047E0,6.1836834E0,1.4477318E2,1.1449382E2,1.7639086E1],"tree_param":{"num_deleted":"0","num_feature":"21","num_nodes":"47","size_leaf_vector":"1"}},{"base_weights":[8.419526E-2,2.4471341E-1,-8.343928E-2,1.19063064E-1,1.2459191E0,-3.0403724E-1,2.8284356E-1,1.545853E0,9.9724543E-1,-6.3909173E-1,3.511147E-1,3.5264778E-1,-4.512458E-1,1.1224425E0,8.406439E-2,1.1123306E0,-8.809386E-2,-3.1103316E-1,-1.5346576E0,-9.576246E-2,5.67225E-1,-9.404158E-2,3.7202296E-1,4.71681E-1,-1.3534926E0,1.5988753E0,-9.0156086E-2,-9.253969E-2,1.2135007E0,3.1792533E-2,-3.1628843E-2,-9.1076985E-2,-2.681844E-2,6.7539394E-2,-4.453834E-3,1.9555835E-2,-8.994324E-2,-3.6722124E-2,6.360437E-2,-9.01693E-2,9.390356E-2,6.264879E-2,8.809637E-2,3.263686E-2,6.9455504E-2],"categories":[],"categories_nodes":[],"categories_segments":[],"categories_sizes":[],"default_left":[0,0,0,0,0,0,0,0,0,0,0,0,0,0,0,0,0,0,0,0,0,0,0,0,0,0,0,0,0,0,0,0,0,0,0,0,0,0,0,0,0,0,0,0,0],"id":5,"left_children":[1,3,-1,5,7,9,11,13,15,17,19,21,23,25,-1,27,-1,29,31,-1,33,-1,35,37,39,41,-1,-1,43,-1,-1,-1,-1,-1,-1,-1,-1,-1,-1,-1,-1,-1,-1,-1,-1],"loss_changes":[1.4949552E3,6.1209204E2,0E0,2.9979953E2,3.8925476E1,2.6528424E2,1.599666E2,1.211145E1,9.7043335E1,2.3434775E2,2.0151825E2,1.2396207E2,2.2650148E2,8.9536E1,0E0,8.860254E1,0E0,1.7889131E2,6.0320465E1,0E0,1.9264206E2,0E0,1.1779028E2,1.3109242E2,2.0316847E2,8.3750916E-1,0E0,0E0,2.6583649E1,0E0,0E0,0E0,0E0,0E0,0E0,0E0,0E0,0E0,0E0,0E0,0E0,0E0,0E0,0E0,0E0],"parents":[2147483647,0,0,1,1,3,3,4,4,5,5,6,6,7,7,8,8,9,9,10,10,11,11,12,12,13,13,15,15,17,17,18,18,20,20,22,22,23,23,24,24,25,25,28,28],"right_children":[2,4,-1,6,8,10,12,14,16,18,20,22,24,26,-1,28,-1,30,32,-1,34,-1,36,38,40,42,-1,-1,44,-1,-1,-1,-1,-1,-1,-1,-1,-1,-1,-1,-1,-1,-1,-1,-1],"split_conditions":[8E0,4.3E1,-8.343928E-2,2E0,3.2E1,3E1,2.4E2,1.04E2,1.22E2,9.5E1,3.12E1,1E0,2.54E1,1.9E1,8.406439E-2,1E0,-8.809386E-2,4.5E1,9.9E1,-9.576246E-2,2.5E1,-9.404158E-2,3.63E1,2.31E1,1.32E2,4.7E1,-9.0156086E-2,-9.253969E-2,4.5E1,3.1792533E-2,-3.1628843E-2,-9.1076985E-2,-2.681844E-2,6.7539394E-2,-4.453834E-3,1.9555835E-2,-8.994324E-2,-3.6722124E-2,6.360437E-2,-9.01693E-2,9.390356E-2,6.264879E-2,8.809637E-2,3.263686E-2,6.9455504E-2],"split_indices":[0,3,0,4,18,3,18,14,14,18,19,13,8,13,0,0,0,15,10,0,8,0,8,8,14,3,0,0,3,0,0,0,0,0,0,0,0,0,0,0,0,0,0,0,0],"split_type":[0,0,0,0,0,0,0,0,0,0,0,0,0,0,0,0,0,0,0,0,0,0,0,0,0,0,0,0,0,0,0,0,0,0,0,0,0,0,0,0,0,0,0,0,0],"sum_hessian":[5.3103896E3,4.865704E3,4.446857E2,4.3241465E3,5.415573E2,1.2064982E3,3.1176484E3,2.4311348E2,2.9844382E2,7.982736E2,4.0822455E2,2.8474092E3,2.7023926E2,6.1168804E1,1.8194467E2,2.870669E2,1.1376925E1,5.852394E2,2.1303423E2,3.4853287E1,3.7337125E2,2.3662273E1,2.823747E3,1.3382457E2,1.3641467E2,5.299239E1,8.1764145E0,8.90677E0,2.7816013E2,1.4810916E2,4.3713022E2,1.6483913E2,4.819511E1,1.6970325E2,2.0366801E2,2.7999404E3,2.3806643E1,5.3415604E1,8.0408966E1,1.2013203E2,1.628265E1,1.9759338E1,3.323305E1,6.746021E1,2.106999E2],"tree_param":{"num_deleted":"0","num_feature":"21","num_nodes":"45","size_leaf_vector":"1"}},{"base_weights":[7.312886E-2,2.2576746E-1,-8.074912E-2,1.4153503E-1,1.1133803E0,-2.0821509E-1,2.7036345E-1,1.2249109E0,-8.671599E-2,1.8551724E-1,-6.889921E-1,3.375068E-1,-4.6686867E-1,-8.244802E-2,1.2763221E0,-9.195157E-2,2.6146302E-1,4.592416E-2,-1.3785648E0,-3.9832093E-2,4.799555E-1,-1.3644958E0,4.5849606E-1,8.1572556E-1,1.4348083E0,2.2883903E-2,-2.3833929E-2,2.5660513E-2,-5.3430688E-2,-7.954534E-2,3.9843835E-2,2.2845143E-2,-1.8242678E-2,1.6635396E-2,4.399585E-2,-3.743035E-3,-9.043177E-2,2.7134907E-3,7.8528605E-2,6.91205E-2,-9.5501244E-2,3.6611643E-2,7.731767E-2],"categories":[],"categories_nodes":[],"categories_segments":[],"categories_sizes":[],"default_left":[0,0,0,0,0,0,0,0,0,0,0,0,0,0,0,0,0,0,0,0,0,0,0,0,0,0,0,0,0,0,0,0,0,0,0,0,0,0,0,0,0,0,0],"id":6,"left_children":[1,3,-1,5,7,9,11,13,-1,15,17,19,21,-1,23,-1,25,27,29,31,33,35,37,39,41,-1,-1,-1,-1,-1,-1,-1,-1,-1,-1,-1,-1,-1,-1,-1,-1,-1,-1],"loss_changes":[1.346979E3,3.5824115E2,0E0,1.9737726E2,1.3403564E2,2.2338991E2,1.5860118E2,6.1243164E1,0E0,1.002988E2,2.6927768E2,1.5773984E2,2.2290645E2,0E0,2.7575745E1,0E0,9.0971535E1,1.3498276E2,1.2788507E2,1.3014369E2,1.25161804E2,7.7813705E1,5.94842E1,1.6193767E2,2.1724976E1,0E0,0E0,0E0,0E0,0E0,0E0,0E0,0E0,0E0,0E0,0E0,0E0,0E0,0E0,0E0,0E0,0E0,0E0],"parents":[2147483647,0,0,1,1,3,3,4,4,5,5,6,6,7,7,9,9,10,10,11,11,12,12,14,14,16,16,17,17,18,18,19,19,20,20,21,21,22,22,23,23,24,24],"right_children":[2,4,-1,6,8,10,12,14,-1,16,18,20,22,-1,24,-1,26,28,30,32,34,36,38,40,42,-1,-1,-1,-1,-1,-1,-1,-1,-1,-1,-1,-1,-1,-1,-1,-1,-1,-1],"split_conditions":[8E0,1.05E2,-8.074912E-2,1.4E1,1.26E2,5.4E1,3.21E1,9.1E1,-8.671599E-2,1E0,1E0,2E0,3.29E1,-8.244802E-2,5E0,-9.195157E-2,3.15E1,8.2608696E1,1.48E2,1E0,6E1,6.27907E1,7.7E1,2E0,1.3E1,2.2883903E-2,-2.3833929E-2,2.5660513E-2,-5.3430688E-2,-7.954534E-2,3.9843835E-2,2.2845143E-2,-1.8242678E-2,1.6635396E-2,4.399585E-2,-3.743035E-3,-9.043177E-2,2.7134907E-3,7.8528605E-2,6.91205E-2,-9.5501244E-2,3.6611643E-2,7.731767E-2],"split_indices":[0,14,0,10,13,19,8,13,0,14,17,4,8,0,0,0,8,15,19,17,13,15,14,10,10,0,0,0,0,0,0,0,0,0,0,0,0,0,0,0,0,0,0],"split_type":[0,0,0,0,0,0,0,0,0,0,0,0,0,0,0,0,0,0,0,0,0,0,0,0,0,0,0,0,0,0,0,0,0,0,0,0,0,0,0,0,0,0,0],"sum_hessian":[5.2251016E3,4.79262E3,4.3248132E2,4.37829E3,4.143303E2,1.1784247E3,3.1998652E3,3.9926297E2,1.5067327E1,6.481975E2,5.302272E2,2.933261E3,2.6660434E2,6.4708514E0,3.927921E2,2.2596954E1,6.256005E2,2.5712646E2,2.7310068E2,8.040627E2,2.1291982E3,1.3508954E2,1.315148E2,1.02129036E2,2.906631E2,4.9452448E2,1.3107603E2,1.8154898E2,7.55775E1,2.4905907E2,2.4041624E1,3.1786273E2,4.8619995E2,1.5575947E3,5.716035E2,3.490512E1,1.0018442E2,9.722389E1,3.4290913E1,8.4958885E1,1.7170145E1,4.0861046E1,2.4980203E2],"tree_param":{"num_deleted":"0","num_feature":"21","num_nodes":"43","size_leaf_vector":"1"}},{"base_weights":[-8.712586E-3,1.3661462E-1,-7.8347474E-2,-5.454133E-2,6.8121225E-1,-5.15736E-1,6.53016E-2,7.127418E-1,-8.297556E-2,5.461997E-1,-9.6547776E-1,-7.7208854E-2,5.9059286E-1,5.001251E-1,1.1095992E0,-8.833152E-2,1.07785E0,-1.433633E0,-2.5003392E-1,4.773588E-2,-1.4758699E0,7.604578E-1,-8.8053815E-2,-9.7487144E-2,6.292745E-1,8.0130404E-1,1.27078E0,-8.881679E-2,6.905969E-2,-3.8569313E-2,-9.292376E-2,9.937553E-3,-9.1077074E-2,2.112489E-2,-1.0826568E-2,-9.1564596E-2,6.7569576E-2,4.401588E-2,-8.7280765E-2,5.9708096E-2,1.8073112E-2,5.035442E-2,-9.2710845E-2,7.042619E-2,4.631926E-2],"categories":[],"categories_nodes":[],"categories_segments":[],"categories_sizes":[],"default_left":[0,0,0,0,0,0,0,0,0,0,0,0,0,0,0,0,0,0,0,0,0,0,0,0,0,0,0,0,0,0,0,0,0,0,0,0,0,0,0,0,0,0,0,0,0],"id":7,"left_children":[1,3,-1,5,7,9,11,13,-1,15,17,19,21,23,25,-1,27,29,31,33,35,37,-1,-1,39,41,43,-1,-1,-1,-1,-1,-1,-1,-1,-1,-1,-1,-1,-1,-1,-1,-1,-1,-1],"loss_changes":[1.1364677E3,4.7791888E2,0E0,1.8788542E2,8.920801E1,3.3538306E2,2.020628E2,9.880658E1,0E0,2.5917935E2,1.6473102E2,3.7118286E2,2.3143452E2,2.4440839E2,1.9354004E1,0E0,1.502857E2,8.2331665E1,1.387135E2,1.9325691E2,1.775033E2,1.6311035E2,0E0,0E0,1.1013547E2,8.0263504E1,1.1385712E1,0E0,0E0,0E0,0E0,0E0,0E0,0E0,0E0,0E0,0E0,0E0,0E0,0E0,0E0,0E0,0E0,0E0,0E0],"parents":[2147483647,0,0,1,1,3,3,4,4,5,5,6,6,7,7,9,9,10,10,11,11,12,12,13,13,14,14,16,16,17,17,18,18,19,19,20,20,21,21,24,24,25,25,26,26],"right_children":[2,4,-1,6,8,10,12,14,-1,16,18,20,22,24,26,-1,28,30,32,34,36,38,-1,-1,40,42,44,-1,-1,-1,-1,-1,-1,-1,-1,-1,-1,-1,-1,-1,-1,-1,-1,-1,-1],"split_conditions":[8E0,3.4E1,-7.8347474E-2,3.7E1,1.26E2,6.82119E1,7.675E1,4.3E1,-8.297556E-2,4.6654522E1,9.4242424E1,6.175E1,1.93E2,5.967023E1,5E0,-8.833152E-2,8E0,7.902317E1,3.2E1,2.3E1,2.34E1,3.11E1,-8.8053815E-2,-9.7487144E-2,2.6E1,1.45E1,5.9E1,-8.881679E-2,6.905969E-2,-3.8569313E-2,-9.292376E-2,9.937553E-3,-9.1077074E-2,2.112489E-2,-1.0826568E-2,-9.1564596E-2,6.7569576E-2,4.401588E-2,-8.7280765E-2,5.9708096E-2,1.8073112E-2,5.035442E-2,-9.2710845E-2,7.042619E-2,4.631926E-2],"split_indices":[0,3,0,9,13,20,19,3,0,20,20,19,18,20,0,0,14,20,9,18,11,11,0,0,18,11,18,0,0,0,0,0,0,0,0,0,0,0,0,0,0,0,0,0,0],"split_type":[0,0,0,0,0,0,0,0,0,0,0,0,0,0,0,0,0,0,0,0,0,0,0,0,0,0,0,0,0,0,0,0,0,0,0,0,0,0,0,0,0,0,0,0,0],"sum_hessian":[5.016586E3,4.589467E3,4.2711914E2,3.3977449E3,1.1917222E3,7.0012646E2,2.6976184E3,1.1765692E3,1.5152882E1,2.0823203E2,4.9189444E2,2.1226113E3,5.750071E2,7.675916E2,4.0897766E2,3.8485634E1,1.697464E2,2.9672604E2,1.9516838E2,1.9494313E3,1.7318008E2,5.3690234E2,3.810471E1,3.7732727E1,7.298589E2,1.4246062E2,2.6651706E2,1.5841037E1,1.5390535E2,1.1706308E2,1.7966296E2,1.5249344E2,4.267495E1,8.0592975E2,1.1435015E3,1.5415335E2,1.9026726E1,5.130148E2,2.3887596E1,2.3362418E2,4.9623468E2,1.32791E2,9.66962E0,1.8816777E2,7.834929E1],"tree_param":{"num_deleted":"0","num_feature":"21","num_nodes":"45","size_leaf_vector":"1"}},{"base_weights":[6.141958E-2,2.0289215E-1,-7.621449E-2,5.402406E-2,8.7318796E-1,1.6406792E-1,-7.480639E-1,6.476415E-1,1.1316538E0,-5.0204235E-1,2.5686774E-1,2.2136825E-1,-1.1978213E0,8.47489E-1,-8.171807E-1,4.174435E-1,1.2789264E0,2.1207641E-1,-1.044613E0,2.081398E-1,1.589436E0,-9.050503E-2,9.009475E-1,-4.891753E-1,-8.84616E-2,-1.07904844E-1,1.0341275E0,5.531587E-2,-9.161805E-2,1.264459E0,-9.457113E-2,1.1506593E0,1.7803771E0,-5.200565E-2,5.661877E-2,-9.0544686E-2,2.370344E-2,1.6768394E-2,-2.1190023E-2,3.9680045E-2,8.8785686E-2,6.09336E-2,-8.152573E-2,-8.502694E-2,1.0662713E-2,-9.5810026E-2,4.072433E-2,5.6619372E-2,-8.804072E-2,4.454538E-2,7.174551E-2,6.234916E-2,-8.4705904E-2,7.5338565E-2,9.984038E-2],"categories":[],"categories_nodes":[],"categories_segments":[],"categories_sizes":[],"default_left":[0,0,0,0,0,0,0,0,0,0,0,0,0,0,0,0,0,0,0,0,0,0,0,0,0,0,0,0,0,0,0,0,0,0,0,0,0,0,0,0,0,0,0,0,0,0,0,0,0,0,0,0,0,0,0],"id":8,"left_children":[1,3,-1,5,7,9,11,13,15,17,19,21,23,25,27,29,31,33,35,37,39,-1,41,43,-1,45,47,-1,-1,49,-1,51,53,-1,-1,-1,-1,-1,-1,-1,-1,-1,-1,-1,-1,-1,-1,-1,-1,-1,-1,-1,-1,-1,-1],"loss_changes":[1.157393E3,4.7256342E2,0E0,3.4228986E2,4.9440308E1,2.1090079E2,2.0426105E2,1.3592064E2,4.151062E1,1.6190118E2,1.940434E2,2.0749411E2,1.2861139E2,7.268002E1,1.113114E2,1.3893193E2,1.9235107E1,2.0974934E2,2.7700183E2,2.3241888E2,1.4223206E1,0E0,9.239592E1,1.2299252E2,0E0,1.14006905E2,9.552115E1,0E0,0E0,2.0121536E0,0E0,7.509262E1,8.7442017E-1,0E0,0E0,0E0,0E0,0E0,0E0,0E0,0E0,0E0,0E0,0E0,0E0,0E0,0E0,0E0,0E0,0E0,0E0,0E0,0E0,0E0,0E0],"parents":[2147483647,0,0,1,1,3,3,4,4,5,5,6,6,7,7,8,8,9,9,10,10,11,11,12,12,13,13,14,14,15,15,16,16,17,17,18,18,19,19,20,20,22,22,23,23,25,25,26,26,29,29,31,31,32,32],"right_children":[2,4,-1,6,8,10,12,14,16,18,20,22,24,26,28,30,32,34,36,38,40,-1,42,44,-1,46,48,-1,-1,50,-1,52,54,-1,-1,-1,-1,-1,-1,-1,-1,-1,-1,-1,-1,-1,-1,-1,-1,-1,-1,-1,-1,-1,-1],"split_conditions":[8E0,3.8E1,-7.621449E-2,3.18E1,2.97E1,1E0,8E0,2.87E1,7.399672E1,6.75E1,1.01E2,7.5E1,1.5E1,9.444444E1,1E0,4E0,4.7E1,8.844497E1,7.1E1,1.57E2,4E0,-9.050503E-2,8.301887E1,6E0,-8.84616E-2,6E0,7E0,5.531587E-2,-9.161805E-2,1.82E1,-9.457113E-2,1.2E2,1.38E2,-5.200565E-2,5.661877E-2,-9.0544686E-2,2.370344E-2,1.6768394E-2,-2.1190023E-2,3.9680045E-2,8.8785686E-2,6.09336E-2,-8.152573E-2,-8.502694E-2,1.0662713E-2,-9.5810026E-2,4.072433E-2,5.6619372E-2,-8.804072E-2,4.454538E-2,7.174551E-2,6.234916E-2,-8.4705904E-2,7.5338565E-2,9.984038E-2],"split_indices":[0,3,0,8,8,4,18,8,20,15,13,15,3,15,18,18,3,20,13,18,4,0,15,0,0,0,0,0,0,19,0,13,13,0,0,0,0,0,0,0,0,0,0,0,0,0,0,0,0,0,0,0,0,0,0],"split_type":[0,0,0,0,0,0,0,0,0,0,0,0,0,0,0,0,0,0,0,0,0,0,0,0,0,0,0,0,0,0,0,0,0,0,0,0,0,0,0,0,0,0,0,0,0,0,0,0,0,0,0,0,0,0,0],"sum_hessian":[5.156852E3,4.7352573E3,4.2159442E2,3.875595E3,8.596624E2,3.4087246E3,4.668705E2,4.6093753E2,3.9872488E2,4.162809E2,2.9924436E3,1.4811751E2,3.18753E2,4.0597174E2,5.4965782E1,6.881854E1,3.2990634E2,1.7999063E2,2.3629028E2,2.8879946E3,1.04448944E2,3.671166E1,1.1140585E2,1.4311826E2,1.7563474E2,6.641554E1,3.395562E2,1.8957174E1,3.6008606E1,5.067909E1,1.8139454E1,2.653314E2,6.4574974E1,7.6191605E1,1.03799034E2,1.5692055E2,7.9369736E1,2.40439E3,4.8360474E2,2.0808582E1,8.364036E1,9.944329E1,1.1962565E1,5.2007908E1,9.1110344E1,2.2070385E1,4.434516E1,3.2859872E2,1.0957483E1,1.7830185E1,3.2848904E1,2.571848E2,8.1465845E0,3.203679E1,3.253818E1],"tree_param":{"num_deleted":"0","num_feature":"21","num_nodes":"55","size_leaf_vector":"1"}},{"base_weights":[8.478209E-3,1.4033985E-1,-7.427461E-2,1.276219E-2,8.085486E-1,-6.4805865E-1,1.07602075E-1,5.8186644E-1,1.0736496E0,-1.4615988E0,-2.1992154E-1,2.0144224E-1,-7.1477467E-1,-9.2830345E-2,7.634639E-1,1.1604981E0,3.4174044E-2,5.398525E-2,-9.0932816E-2,-8.452234E-2,3.0130005E-1,6.499207E-1,8.733031E-2,-5.0409394E-3,-1.3622719E0,9.8312205E-1,-7.2494215E-1,9.8925745E-1,1.517633E0,-8.7367624E-2,6.606588E-2,6.937325E-2,-8.306088E-2,2.8567022E-2,-8.681627E-2,3.6582615E-2,-9.715304E-2,3.9074805E-2,-4.646941E-4,-4.9838863E-2,4.28692E-2,-8.415782E-2,3.329469E-2,1.9893346E-2,5.3739876E-2,-9.2848144E-2,6.4037174E-2,5.3606898E-2,-8.626025E-2,7.918985E-2,5.7060476E-2],"categories":[],"categories_nodes":[],"categories_segments":[],"categories_sizes":[],"default_left":[0,0,0,0,0,0,0,0,0,0,0,0,0,0,0,0,0,0,0,0,0,0,0,0,0,0,0,0,0,0,0,0,0,0,0,0,0,0,0,0,0,0,0,0,0,0,0,0,0,0,0],"id":9,"left_children":[1,3,-1,5,7,9,11,13,15,17,19,21,23,-1,25,27,29,31,-1,-1,33,35,37,39,41,43,45,47,49,-1,-1,-1,-1,-1,-1,-1,-1,-1,-1,-1,-1,-1,-1,-1,-1,-1,-1,-1,-1,-1,-1],"loss_changes":[9.8040265E2,3.8983435E2,0E0,2.4078857E2,4.343091E1,1.6763226E2,2.594202E2,1.7738455E2,3.0360107E1,8.997696E1,2.4356624E2,1.5431241E2,1.5822882E2,0E0,1.2185858E2,1.7502533E1,6.42119E1,7.695717E1,0E0,0E0,1.3028532E2,1.3105164E2,1.613669E2,1.4221193E2,1.1830136E2,1.6919403E1,1.1187841E2,4.9748688E1,6.541443E-1,0E0,0E0,0E0,0E0,0E0,0E0,0E0,0E0,0E0,0E0,0E0,0E0,0E0,0E0,0E0,0E0,0E0,0E0,0E0,0E0,0E0,0E0],"parents":[2147483647,0,0,1,1,3,3,4,4,5,5,6,6,7,7,8,8,9,9,10,10,11,11,12,12,14,14,15,15,16,16,17,17,20,20,21,21,22,22,23,23,24,24,25,25,26,26,27,27,28,28],"right_children":[2,4,-1,6,8,10,12,14,16,18,20,22,24,-1,26,28,30,32,-1,-1,34,36,38,40,42,44,46,48,50,-1,-1,-1,-1,-1,-1,-1,-1,-1,-1,-1,-1,-1,-1,-1,-1,-1,-1,-1,-1,-1,-1],"split_conditions":[8E0,3.9E1,-7.427461E-2,1E0,2.97E1,4.9E1,3.21E1,7.2E0,2.22E2,1E0,4E1,9E0,1E0,-9.2830345E-2,2.83E1,4.5E1,7E0,2.35E1,-9.0932816E-2,-8.452234E-2,1E-1,9.05E1,1.87E1,2.7E1,9.9E1,9.4E0,6E0,3.48E1,1.3E1,-8.7367624E-2,6.606588E-2,6.937325E-2,-8.306088E-2,2.8567022E-2,-8.681627E-2,3.6582615E-2,-9.715304E-2,3.9074805E-2,-4.646941E-4,-4.9838863E-2,4.28692E-2,-8.415782E-2,3.329469E-2,1.9893346E-2,5.3739876E-2,-9.2848144E-2,6.4037174E-2,5.3606898E-2,-8.626025E-2,7.918985E-2,5.7060476E-2],"split_indices":[0,3,0,4,8,18,8,11,18,1,10,18,17,0,8,3,17,8,0,0,12,19,8,3,10,11,17,8,11,0,0,0,0,0,0,0,0,0,0,0,0,0,0,0,0,0,0,0,0,0,0],"split_type":[0,0,0,0,0,0,0,0,0,0,0,0,0,0,0,0,0,0,0,0,0,0,0,0,0,0,0,0,0,0,0,0,0,0,0,0,0,0,0,0,0,0,0,0,0,0,0,0,0,0,0],"sum_hessian":[4.9746714E3,4.5720376E3,4.0263367E2,3.8399207E3,7.321171E2,4.812006E2,3.35872E3,3.9637784E2,3.357393E2,1.650883E2,3.161123E2,3.015393E3,3.4332693E2,2.6833706E1,3.6954413E2,3.0974368E2,2.5995602E1,3.163932E1,1.3344899E2,8.213661E1,2.3397568E2,6.10669E2,2.404724E3,1.6427255E2,1.7905438E2,3.2231635E2,4.7227783E1,2.1190732E2,9.783635E1,1.07537985E1,1.5241803E1,1.7907928E1,1.3731391E1,2.0723152E2,2.6744164E1,5.9270465E2,1.7964392E1,2.9295978E2,2.1117642E3,7.633553E1,8.793701E1,1.5474211E2,2.4312273E1,4.437388E1,2.7794247E2,3.0236355E1,1.6991428E1,2.0621597E2,5.6913514E0,8.048245E1,1.7353895E1],"tree_param":{"num_deleted":"0","num_feature":"21","num_nodes":"51","size_leaf_vector":"1"}},{"base_weights":[6.4871624E-2,-1.0657294E-1,5.802386E-1,-8.350118E-2,-8.656689E-2,3.8065428E-1,9.5711833E-1,-5.3507414E-2,-1.2518133E0,4.3693125E-1,-8.559727E-2,1.2370981E0,6.962806E-1,-3.0485868E-2,-8.331478E-2,4.2287275E-2,-9.360631E-2,2.0757817E-1,8.802802E-1,5.3541666E-1,1.3155242E0,-6.5120476E-1,9.9725E-1,-1.21970475E-1,2.9982907E-1,4.9381417E-1,-1.2057122E0,-7.3625326E-2,9.400402E-1,6.640571E-2,-8.774899E-2,1.4133433E0,5.922582E-1,4.631597E-2,-9.112589E-2,7.8628406E-2,1.3337939E0,-1.3687971E-2,1.2272898E-2,4.615105E-2,-9.831925E-3,-8.651942E-2,2.939458E-2,7.673376E-2,-9.481841E-2,2.6557652E-2,5.8219302E-2,8.457627E-2,6.434723E-2,-7.940614E-2,8.1267454E-2,-9.924767E-2,3.739227E-2,5.1966187E-2,8.141586E-2],"categories":[],"categories_nodes":[],"categories_segments":[],"categories_sizes":[],"default_left":[0,0,0,0,0,0,0,0,0,0,0,0,0,0,0,0,0,0,0,0,0,0,0,0,0,0,0,0,0,0,0,0,0,0,0,0,0,0,0,0,0,0,0,0,0,0,0,0,0,0,0,0,0,0,0],"id":10,"left_children":[1,3,5,7,-1,9,11,13,15,17,-1,19,21,23,-1,-1,-1,25,27,29,31,33,35,37,39,41,43,-1,45,-1,-1,47,49,-1,-1,51,53,-1,-1,-1,-1,-1,-1,-1,-1,-1,-1,-1,-1,-1,-1,-1,-1,-1,-1],"loss_changes":[4.4864636E2,1.4269562E2,9.49751E1,1.3162733E2,0E0,9.853029E1,3.113794E1,1.3603221E2,1.239207E2,8.211653E1,0E0,1.085437E1,9.357242E1,1.0926489E2,0E0,0E0,0E0,2.1691124E2,4.0139786E1,4.3730885E1,1.24808655E1,8.0104576E1,5.792038E1,1.5797484E2,2.4282787E2,9.4211334E1,1.739125E2,0E0,2.4096222E1,0E0,0E0,3.6280823E0,5.6973614E1,0E0,0E0,7.244929E1,1.0215637E1,0E0,0E0,0E0,0E0,0E0,0E0,0E0,0E0,0E0,0E0,0E0,0E0,0E0,0E0,0E0,0E0,0E0,0E0],"parents":[2147483647,0,0,1,1,2,2,3,3,5,5,6,6,7,7,8,8,9,9,11,11,12,12,13,13,17,17,18,18,19,19,20,20,21,21,22,22,23,23,24,24,25,25,26,26,28,28,31,31,32,32,35,35,36,36],"right_children":[2,4,6,8,-1,10,12,14,16,18,-1,20,22,24,-1,-1,-1,26,28,30,32,34,36,38,40,42,44,-1,46,-1,-1,48,50,-1,-1,52,54,-1,-1,-1,-1,-1,-1,-1,-1,-1,-1,-1,-1,-1,-1,-1,-1,-1,-1],"split_conditions":[3.4E1,3.3E1,4.3E1,8E-1,-8.656689E-2,7.9E1,2E0,7E0,1E0,1.55E1,-8.559727E-2,1.8E1,4.6E1,6.9E1,-8.331478E-2,4.2287275E-2,-9.360631E-2,1.04E2,1.8E1,2.9E1,5.96E1,1.9E1,8.2E1,2.5E1,1.1E1,6.2843433E1,1.88E1,-7.3625326E-2,8.130008E1,6.640571E-2,-8.774899E-2,1E0,6.7E1,4.631597E-2,-9.112589E-2,7E1,4.7E1,-1.3687971E-2,1.2272898E-2,4.615105E-2,-9.831925E-3,-8.651942E-2,2.939458E-2,7.673376E-2,-9.481841E-2,2.6557652E-2,5.8219302E-2,8.457627E-2,6.434723E-2,-7.940614E-2,8.1267454E-2,-9.924767E-2,3.739227E-2,5.1966187E-2,8.141586E-2],"split_indices":[3,3,3,12,0,9,1,17,18,11,0,13,9,9,0,0,0,18,9,9,19,9,13,3,13,20,19,0,20,0,0,10,9,0,0,10,3,0,0,0,0,0,0,0,0,0,0,0,0,0,0,0,0,0,0],"split_type":[0,0,0,0,0,0,0,0,0,0,0,0,0,0,0,0,0,0,0,0,0,0,0,0,0,0,0,0,0,0,0,0,0,0,0,0,0,0,0,0,0,0,0,0,0,0,0,0,0,0,0,0,0,0,0],"sum_hessian":[5.0759634E3,3.8094766E3,1.2664866E3,3.757176E3,5.2300728E1,8.2931573E2,4.371708E2,3.6641528E3,9.302304E1,8.0836725E2,2.094849E1,2.0904352E2,2.281273E2,3.61359E3,5.056284E1,2.1148148E1,7.187489E1,5.3372766E2,2.7463956E2,2.1802525E1,1.87241E2,4.143826E1,1.8668904E2,2.8303281E3,7.832619E2,4.4437772E2,8.9349945E1,6.217369E0,2.6842218E2,1.650897E1,5.293555E0,1.6409378E2,2.3147213E1,1.7746473E1,2.3691786E1,5.0387165E1,1.3630188E2,2.0030853E3,8.272429E2,3.4692474E2,4.3633713E2,1.7327328E1,4.270504E2,1.7739809E1,7.161014E1,9.629142E1,1.7213075E2,4.739753E1,1.1669625E2,7.2688174E0,1.5878395E1,1.1857517E1,3.8529648E1,7.04217E1,6.588017E1],"tree_param":{"num_deleted":"0","num_feature":"21","num_nodes":"55","size_leaf_vector":"1"}},{"base_weights":[5.310198E-2,1.802683E-1,-7.234002E-2,-3.3830758E-3,6.857365E-1,3.295194E-1,-1.9260174E-1,9.1982454E-1,4.505123E-1,-9.5391326E-2,4.1279653E-1,1.5755336E0,-2.3731591E-1,1.0063012E0,-4.4232628E-1,5.1999736E-1,-8.603625E-2,4.7095692E-1,-9.3627974E-2,6.179572E-2,8.6469635E-2,-1.169942E0,-1.06949985E-1,1.2738314E0,7.29062E-1,-9.563278E-2,6.479828E-2,-8.971866E-2,5.8380485E-1,-2.1534963E-2,2.8517699E-2,-9.315729E-2,-1.1575939E-2,-2.7663156E-2,6.9571226E-3,-7.961698E-2,6.725137E-2,-9.505648E-2,5.4255325E-2,-9.56422E-3,3.8012557E-2],"categories":[],"categories_nodes":[],"categories_segments":[],"categories_sizes":[],"default_left":[0,0,0,0,0,0,0,0,0,0,0,0,0,0,0,0,0,0,0,0,0,0,0,0,0,0,0,0,0,0,0,0,0,0,0,0,0,0,0,0,0],"id":11,"left_children":[1,3,-1,5,7,9,11,13,15,-1,17,19,21,23,25,27,-1,29,-1,-1,-1,31,33,35,37,-1,-1,-1,39,-1,-1,-1,-1,-1,-1,-1,-1,-1,-1,-1,-1],"loss_changes":[9.5961035E2,4.304994E2,0E0,2.1439667E2,6.763818E1,2.306086E2,1.7194385E2,7.3299255E1,9.419407E1,0E0,1.5905806E2,6.6638184E-1,2.5731976E2,4.2228516E1,9.8618866E1,8.965274E1,0E0,1.0432367E2,0E0,0E0,0E0,1.6843292E2,2.0424387E2,6.229492E1,2.7184775E2,0E0,0E0,0E0,8.0104645E1,0E0,0E0,0E0,0E0,0E0,0E0,0E0,0E0,0E0,0E0,0E0,0E0],"parents":[2147483647,0,0,1,1,3,3,4,4,5,5,6,6,7,7,8,8,10,10,11,11,12,12,13,13,14,14,15,15,17,17,21,21,22,22,23,23,24,24,28,28],"right_children":[2,4,-1,6,8,10,12,14,16,-1,18,20,22,24,26,28,-1,30,-1,-1,-1,32,34,36,38,-1,-1,-1,40,-1,-1,-1,-1,-1,-1,-1,-1,-1,-1,-1,-1],"split_conditions":[8E0,3.4E1,-7.234002E-2,2.3E1,5E1,2.5E0,2.8E0,2E-1,7E0,-9.5391326E-2,7E0,3E0,4.1E1,9.081633E1,1.04E2,5.9E1,-8.603625E-2,2.14E1,-9.3627974E-2,6.179572E-2,8.6469635E-2,1.88E1,4.1E1,2E0,3.9E1,-9.563278E-2,6.479828E-2,-8.971866E-2,3.7E1,-2.1534963E-2,2.8517699E-2,-9.315729E-2,-1.1575939E-2,-2.7663156E-2,6.9571226E-3,-7.961698E-2,6.725137E-2,-9.505648E-2,5.4255325E-2,-9.56422E-3,3.8012557E-2],"split_indices":[0,3,0,18,18,11,11,12,0,0,0,14,18,15,14,18,0,8,0,0,0,11,10,0,3,0,0,0,3,0,0,0,0,0,0,0,0,0,0,0,0],"split_type":[0,0,0,0,0,0,0,0,0,0,0,0,0,0,0,0,0,0,0,0,0,0,0,0,0,0,0,0,0,0,0,0,0,0,0,0,0,0,0,0,0],"sum_hessian":[5.028697E3,4.6364814E3,3.9221527E2,3.4015808E3,1.2349005E3,1.2324769E3,2.1691038E3,6.1748627E2,6.1741425E2,4.344203E1,1.1890349E3,5.2656807E1,2.116447E3,5.8087067E2,3.661555E1,5.9900507E2,1.8409176E1,1.1603002E3,2.873475E1,1.9233875E1,3.342293E1,2.5858423E2,1.8578628E3,2.937822E2,2.870885E2,1.9782377E1,1.6833176E1,1.5343855E1,5.8366125E2,1.1487815E2,1.045422E3,1.4815688E2,1.1042737E2,6.5987164E2,1.1979912E3,6.602839E0,2.8717935E2,3.371173E1,2.5337675E2,1.08214584E2,4.7544666E2],"tree_param":{"num_deleted":"0","num_feature":"21","num_nodes":"41","size_leaf_vector":"1"}},{"base_weights":[5.587061E-2,1.7781729E-1,-7.078707E-2,7.8951335E-1,8.159738E-2,1.0247166E0,5.047826E-1,1.13643736E-1,-8.2909055E-2,1.134063E0,5.3509486E-1,-9.724269E-2,7.707261E-1,-2.3168093E-1,2.4524763E-1,6.2296504E-1,1.3305584E0,1.3033129E0,-9.606892E-2,1.3655964E-1,1.1941063E0,-8.6186126E-2,-1.56924E-1,2.649145E-1,-9.228074E-2,5.5072803E-2,-1.0395517E-1,4.0095467E-2,7.233604E-2,7.366449E-2,4.7148E-2,-9.708355E-2,5.8702447E-2,1.5586658E-2,6.651028E-2,-4.368029E-3,-8.455516E-2,8.511246E-3,3.421388E-2],"categories":[],"categories_nodes":[],"categories_segments":[],"categories_sizes":[],"default_left":[0,0,0,0,0,0,0,0,0,0,0,0,0,0,0,0,0,0,0,0,0,0,0,0,0,0,0,0,0,0,0,0,0,0,0,0,0,0,0],"id":12,"left_children":[1,3,-1,5,7,9,11,13,-1,15,17,-1,19,21,23,25,27,29,-1,31,33,-1,35,37,-1,-1,-1,-1,-1,-1,-1,-1,-1,-1,-1,-1,-1,-1,-1],"loss_changes":[9.0483905E2,2.7396423E2,0E0,4.1854553E1,2.245468E2,1.789148E1,1.892428E2,1.7967159E2,0E0,2.7446259E1,1.2510927E2,0E0,6.982799E1,1.2143164E2,1.1818298E2,1.0580627E2,1.1274017E1,1.6787109E0,0E0,2.2973209E2,1.8342255E1,0E0,1.1085921E2,1.1251349E2,0E0,0E0,0E0,0E0,0E0,0E0,0E0,0E0,0E0,0E0,0E0,0E0,0E0,0E0,0E0],"parents":[2147483647,0,0,1,1,3,3,4,4,5,5,6,6,7,7,9,9,10,10,12,12,13,13,14,14,15,15,16,16,17,17,19,19,20,20,22,22,23,23],"right_children":[2,4,-1,6,8,10,12,14,-1,16,18,-1,20,22,24,26,28,30,-1,32,34,-1,36,38,-1,-1,-1,-1,-1,-1,-1,-1,-1,-1,-1,-1,-1,-1,-1],"split_conditions":[8E0,1E0,-7.078707E-2,3E0,3.66E2,4E0,4E0,2E0,-8.2909055E-2,1.13E1,2.77E1,-9.724269E-2,1.0617284E2,4.6E0,1E0,3.7E1,6.3960987E1,6.7E0,-9.606892E-2,3.13E1,6.7701294E1,-8.6186126E-2,7E0,8.34E1,-9.228074E-2,5.5072803E-2,-1.0395517E-1,4.0095467E-2,7.233604E-2,7.366449E-2,4.7148E-2,-9.708355E-2,5.8702447E-2,1.5586658E-2,6.651028E-2,-4.368029E-3,-8.455516E-2,8.511246E-3,3.421388E-2],"split_indices":[0,2,0,1,18,4,0,4,0,11,8,0,15,11,5,9,20,11,0,8,20,0,0,19,0,0,0,0,0,0,0,0,0,0,0,0,0,0,0],"split_type":[0,0,0,0,0,0,0,0,0,0,0,0,0,0,0,0,0,0,0,0,0,0,0,0,0,0,0,0,0,0,0,0,0,0,0,0,0,0,0],"sum_hessian":[5.039657E3,4.6548105E3,3.8484662E2,6.3170233E2,4.0231084E3,3.4451505E2,2.8718726E2,3.9512617E3,7.184673E1,2.8054517E2,6.3969883E1,2.750671E1,2.5968057E2,1.0901031E3,2.8611584E3,7.906418E1,2.0148097E2,4.9087948E1,1.4881938E1,1.0449048E2,1.5519008E2,5.0959843E1,1.0391433E3,2.835362E3,2.5796425E1,6.767283E1,1.1391356E1,3.772045E1,1.6376053E2,3.1256115E1,1.7831833E1,3.4503605E1,6.998688E1,2.1177864E1,1.340122E2,9.9508093E2,4.4062447E1,2.3142292E3,5.211328E2],"tree_param":{"num_deleted":"0","num_feature":"21","num_nodes":"39","size_leaf_vector":"1"}},{"base_weights":[-2.816133E-2,8.753588E-2,-6.935038E-2,-4.5020957E-2,7.585832E-1,-7.357129E-1,4.6688035E-2,4.4941765E-1,9.711094E-1,-8.605073E-2,-2.097326E-1,-6.464768E-2,5.43385E-1,-8.8329524E-2,6.3977975E-1,1.0582755E0,-2.0698215E-1,5.5940163E-1,-8.718027E-1,-2.8487435E-1,2.251334E-1,7.460286E-1,-8.285751E-2,-8.576103E-2,7.7432173E-1,3.392647E-1,1.1529458E0,6.59771E-2,-9.078595E-2,5.1470228E-2,-8.5324444E-2,-8.159268E-2,1.2035472E-2,-2.3176873E-3,-4.5446176E-2,2.834634E-3,4.660421E-2,-1.8992985E-2,5.2409E-2,5.4236203E-2,-8.904282E-3,6.379606E-2,-1.01763524E-1,6.300899E-2,1.9885484E-2],"categories":[],"categories_nodes":[],"categories_segments":[],"categories_sizes":[],"default_left":[0,0,0,0,0,0,0,0,0,0,0,0,0,0,0,0,0,0,0,0,0,0,0,0,0,0,0,0,0,0,0,0,0,0,0,0,0,0,0,0,0,0,0,0,0],"id":13,"left_children":[1,3,-1,5,7,9,11,13,15,-1,17,19,21,-1,23,25,27,29,31,33,35,37,-1,-1,39,41,43,-1,-1,-1,-1,-1,-1,-1,-1,-1,-1,-1,-1,-1,-1,-1,-1,-1,-1],"loss_changes":[7.5427356E2,3.9333624E2,0E0,2.3396614E2,4.7489197E1,2.2401382E2,1.8037811E2,1.27262665E2,4.451883E1,0E0,1.4480345E2,1.7013243E2,2.6756577E2,0E0,8.880415E1,2.6961578E1,7.743474E1,1.4202597E2,1.2950543E2,2.2540671E2,1.3704277E2,1.8667871E2,0E0,0E0,7.760434E1,1.0973318E2,2.8222351E1,0E0,0E0,0E0,0E0,0E0,0E0,0E0,0E0,0E0,0E0,0E0,0E0,0E0,0E0,0E0,0E0,0E0,0E0],"parents":[2147483647,0,0,1,1,3,3,4,4,5,5,6,6,7,7,8,8,10,10,11,11,12,12,14,14,15,15,16,16,17,17,18,18,19,19,20,20,21,21,24,24,25,25,26,26],"right_children":[2,4,-1,6,8,10,12,14,16,-1,18,20,22,-1,24,26,28,30,32,34,36,38,-1,-1,40,42,44,-1,-1,-1,-1,-1,-1,-1,-1,-1,-1,-1,-1,-1,-1,-1,-1,-1,-1],"split_conditions":[8E0,3.9E1,-6.935038E-2,1E0,4.3E1,5.5E1,8.34E1,6.3960987E1,1.16666664E2,-8.605073E-2,9.6E1,6.1E1,2.06E2,-8.8329524E-2,6.3E0,7.5E1,2.9E1,1.35E1,1.81E1,5.44E1,1.0357143E2,3.6E1,-8.285751E-2,-8.576103E-2,8.962177E1,8.2E0,6.26E1,6.59771E-2,-9.078595E-2,5.1470228E-2,-8.5324444E-2,-8.159268E-2,1.2035472E-2,-2.3176873E-3,-4.5446176E-2,2.834634E-3,4.660421E-2,-1.8992985E-2,5.2409E-2,5.4236203E-2,-8.904282E-3,6.379606E-2,-1.01763524E-1,6.300899E-2,1.9885484E-2],"split_indices":[0,3,0,4,3,18,19,20,15,0,18,9,18,0,11,13,9,11,11,19,15,18,0,0,20,11,19,0,0,0,0,0,0,0,0,0,0,0,0,0,0,0,0,0,0],"split_type":[0,0,0,0,0,0,0,0,0,0,0,0,0,0,0,0,0,0,0,0,0,0,0,0,0,0,0,0,0,0,0,0,0,0,0,0,0,0,0,0,0,0,0,0,0],"sum_hessian":[4.7959565E3,4.420513E3,3.7544336E2,3.692116E3,7.2839746E2,4.3194763E2,3.2601682E3,2.980026E2,4.303949E2,1.4954251E2,2.824051E2,2.6639155E3,5.962526E2,2.2919237E1,2.7508334E2,4.0083884E2,2.9556059E1,1.3071135E2,1.5169376E2,1.5136187E3,1.1502969E3,5.4658E2,4.9672646E1,1.4231365E1,2.60852E2,4.717014E1,3.536687E2,1.5257778E1,1.4298281E1,1.0870821E2,2.2003134E1,8.984573E1,6.184802E1,1.0958452E3,4.1777356E2,9.2983185E2,2.2046501E2,1.15593575E2,4.3098642E2,1.9662903E2,6.422295E1,3.415863E1,1.301151E1,3.0911032E2,4.4558395E1],"tree_param":{"num_deleted":"0","num_feature":"21","num_nodes":"45","size_leaf_vector":"1"}},{"base_weights":[6.8693034E-2,1.8105559E-1,-6.804871E-2,-1.6104237E-3,7.302673E-1,-4.8043847E-1,1.6391534E-1,5.5729634E-1,1.0467101E0,-7.0447344E-1,5.834198E-1,9.599247E-1,8.512049E-2,6.03607E-1,-8.683459E-2,1.2896881E0,7.9591465E-1,-4.2962497E-1,-1.4780942E0,1.3548702E0,-8.423105E-2,-8.449281E-2,1.1072824E0,-1.0641232E0,2.0441782E-1,-4.669958E-1,6.7555696E-1,7.658109E-1,1.4017704E0,8.6734754E-1,-8.433033E-2,-5.3950496E-2,-5.58258E-4,2.8923763E-2,-8.878096E-2,3.6475595E-2,8.9235835E-2,5.9247345E-2,-6.8514E-2,4.541848E-2,-6.326008E-2,1.3325797E-2,-3.8379017E-2,-8.7973624E-2,8.8276215E-2,3.5391368E-2,-8.1696324E-2,6.529384E-2,-7.812588E-2,6.316744E-2,7.5581506E-2,6.3596316E-2,3.0126164E-2],"categories":[],"categories_nodes":[],"categories_segments":[],"categories_sizes":[],"default_left":[0,0,0,0,0,0,0,0,0,0,0,0,0,0,0,0,0,0,0,0,0,0,0,0,0,0,0,0,0,0,0,0,0,0,0,0,0,0,0,0,0,0,0,0,0,0,0,0,0,0,0,0,0],"id":14,"left_children":[1,3,-1,5,7,9,11,13,15,17,19,21,23,25,-1,27,29,31,33,35,-1,-1,37,39,41,43,45,47,49,51,-1,-1,-1,-1,-1,-1,-1,-1,-1,-1,-1,-1,-1,-1,-1,-1,-1,-1,-1,-1,-1,-1,-1],"loss_changes":[8.058233E2,4.6652368E2,0E0,2.767383E2,6.294452E1,2.1418973E2,1.6265912E2,8.0999054E1,2.3900543E1,1.5700107E2,2.7623764E2,9.308682E1,3.24059E2,5.7196228E1,0E0,1.1031403E1,3.762169E1,1.4902028E2,1.19691986E2,3.0253036E1,0E0,0E0,4.4322266E1,8.931741E1,1.294191E2,1.3898984E2,5.275461E1,5.0499153E1,6.5448E-1,2.0539948E1,0E0,0E0,0E0,0E0,0E0,0E0,0E0,0E0,0E0,0E0,0E0,0E0,0E0,0E0,0E0,0E0,0E0,0E0,0E0,0E0,0E0,0E0,0E0],"parents":[2147483647,0,0,1,1,3,3,4,4,5,5,6,6,7,7,8,8,9,9,10,10,11,11,12,12,13,13,15,15,16,16,17,17,18,18,19,19,22,22,23,23,24,24,25,25,26,26,27,27,28,28,29,29],"right_children":[2,4,-1,6,8,10,12,14,16,18,20,22,24,26,-1,28,30,32,34,36,-1,-1,38,40,42,44,46,48,50,52,-1,-1,-1,-1,-1,-1,-1,-1,-1,-1,-1,-1,-1,-1,-1,-1,-1,-1,-1,-1,-1,-1,-1],"split_conditions":[8E0,3.5E1,-6.804871E-2,2E0,1.04E2,2.53E1,3.9E0,7.9E1,3E0,7.6E1,2.85E1,3E0,7.5E0,5.4089638E1,-8.683459E-2,5E0,1.88E1,1E0,1E0,2.8E1,-8.423105E-2,-8.449281E-2,3.63E1,4.2801346E1,5E0,7E0,2.07E1,2E0,1.17E2,3.2E1,-8.433033E-2,-5.3950496E-2,-5.58258E-4,2.8923763E-2,-8.878096E-2,3.6475595E-2,8.9235835E-2,5.9247345E-2,-6.8514E-2,4.541848E-2,-6.326008E-2,1.3325797E-2,-3.8379017E-2,-8.7973624E-2,8.8276215E-2,3.5391368E-2,-8.1696324E-2,6.529384E-2,-7.812588E-2,6.316744E-2,7.5581506E-2,6.3596316E-2,3.0126164E-2],"split_indices":[0,3,0,4,14,11,11,9,1,10,11,0,11,20,0,0,11,4,14,14,0,0,8,20,17,0,11,10,14,9,0,0,0,0,0,0,0,0,0,0,0,0,0,0,0,0,0,0,0,0,0,0,0],"split_type":[0,0,0,0,0,0,0,0,0,0,0,0,0,0,0,0,0,0,0,0,0,0,0,0,0,0,0,0,0,0,0,0,0,0,0,0,0,0,0,0,0,0,0,0,0,0,0,0,0,0,0,0,0],"sum_hessian":[5.0137637E3,4.6492373E3,3.645265E2,3.4896035E3,1.1596337E3,8.959431E2,2.5936604E3,7.5157574E2,4.0805792E2,7.403687E2,1.5557437E2,2.3260742E2,2.361053E3,7.3742554E2,1.415016E1,2.0515527E2,2.0290266E2,5.474342E2,1.9293456E2,1.16388626E2,3.918575E1,1.1702674E1,2.2090474E2,2.2129556E2,2.1397573E3,4.6092144E1,6.9133344E2,3.7537262E1,1.6761801E2,1.9785999E2,5.0426702E0,2.1390625E2,3.3352795E2,2.4264915E1,1.6866963E2,4.851059E1,6.787804E1,2.1469637E2,6.20838E0,2.0146786E1,2.0114877E2,2.0119458E3,1.2781153E2,2.932618E1,1.6765966E1,6.8249054E2,8.842902E0,3.0826141E1,6.71112E0,7.969855E1,8.791946E1,7.6771416E1,1.2108857E2],"tree_param":{"num_deleted":"0","num_feature":"21","num_nodes":"53","size_leaf_vector":"1"}},{"base_weights":[2.1831522E-2,-1.2546612E-1,4.872948E-1,-9.900755E-2,-8.634847E-2,2.8381824E-1,8.746519E-1,-3.8955066E-1,3.941313E-2,-8.177558E-2,4.0765703E-1,1.0691081E0,5.086903E-1,-1.1318306E0,-2.3541404E-1,3.4708926E-1,-2.3375088E-1,-2.2608534E-2,8.584217E-1,1.1319193E0,-7.488254E-2,-8.6464584E-2,8.047956E-1,-8.651253E-2,-7.0276535E-3,2.1211807E-1,-6.523534E-1,4.214391E-1,-8.22634E-2,-9.0862274E-2,-1.17502145E-1,3.5958168E-1,-8.9611806E-2,-9.2237E-2,9.708572E-1,1.3270909E0,8.568184E-1,-8.887187E-2,9.689787E-1,5.0965674E-2,-7.780715E-2,2.1207929E-2,-4.4808377E-2,-9.833609E-3,-8.119651E-2,1.02354055E-2,4.6907242E-2,1.1713939E-3,-5.9364624E-2,3.6815997E-2,-4.9465705E-2,5.981664E-2,-3.0444728E-3,6.9772504E-2,3.5360154E-2,5.2565742E-2,-8.003844E-2,5.5451732E-2,-8.558398E-2],"categories":[],"categories_nodes":[],"categories_segments":[],"categories_sizes":[],"default_left":[0,0,0,0,0,0,0,0,0,0,0,0,0,0,0,0,0,0,0,0,0,0,0,0,0,0,0,0,0,0,0,0,0,0,0,0,0,0,0,0,0,0,0,0,0,0,0,0,0,0,0,0,0,0,0,0,0,0,0],"id":15,"left_children":[1,3,5,7,-1,9,11,13,15,-1,17,19,21,23,25,27,29,31,33,35,-1,-1,37,-1,39,41,43,45,-1,-1,47,49,-1,-1,51,53,55,-1,57,-1,-1,-1,-1,-1,-1,-1,-1,-1,-1,-1,-1,-1,-1,-1,-1,-1,-1,-1,-1],"loss_changes":[3.3035632E2,1.5492624E2,9.1042816E1,1.4487013E2,0E0,1.815094E2,2.7808289E1,1.3272063E2,2.0519269E2,0E0,1.3879485E2,4.3493286E1,9.426555E1,1.343396E2,1.7996756E2,1.7076793E2,2.3786246E2,2.4890115E2,1.08004395E2,1.248111E1,0E0,0E0,5.4486237E1,0E0,1.1338752E2,1.0979095E2,2.2067867E2,1.2384654E2,0E0,0E0,1.8184349E2,1.5455476E2,0E0,0E0,7.8276215E1,5.223175E0,5.3346855E1,0E0,4.6073723E1,0E0,0E0,0E0,0E0,0E0,0E0,0E0,0E0,0E0,0E0,0E0,0E0,0E0,0E0,0E0,0E0,0E0,0E0,0E0,0E0],"parents":[2147483647,0,0,1,1,2,2,3,3,5,5,6,6,7,7,8,8,10,10,11,11,12,12,13,13,14,14,15,15,16,16,17,17,18,18,19,19,22,22,24,24,25,25,26,26,27,27,30,30,31,31,34,34,35,35,36,36,38,38],"right_children":[2,4,6,8,-1,10,12,14,16,-1,18,20,22,24,26,28,30,32,34,36,-1,-1,38,-1,40,42,44,46,-1,-1,48,50,-1,-1,52,54,56,-1,58,-1,-1,-1,-1,-1,-1,-1,-1,-1,-1,-1,-1,-1,-1,-1,-1,-1,-1,-1,-1],"split_conditions":[3.4E1,1.4544812E2,4.3E1,2.7E1,-8.634847E-2,5.967023E1,6.5E1,5.9574467E1,6.8965515E1,-8.177558E-2,6.3E1,1.52E1,5E0,1.5E1,2E0,2.6E1,7.352941E1,2.2E1,2.6E1,2E0,-7.488254E-2,-8.6464584E-2,4.4E1,-8.651253E-2,1.8E1,1.0505051E2,4.7E1,9.4242424E1,-8.22634E-2,-9.0862274E-2,3.12E1,4E0,-8.9611806E-2,-9.2237E-2,9.885449E1,4.9E1,1.2068965E2,-8.887187E-2,1.10344826E2,5.0965674E-2,-7.780715E-2,2.1207929E-2,-4.4808377E-2,-9.833609E-3,-8.119651E-2,1.02354055E-2,4.6907242E-2,1.1713939E-3,-5.9364624E-2,3.6815997E-2,-4.9465705E-2,5.981664E-2,-3.0444728E-3,6.9772504E-2,3.5360154E-2,5.2565742E-2,-8.003844E-2,5.5451732E-2,-8.558398E-2],"split_indices":[3,20,3,10,0,20,18,15,15,0,10,11,10,3,1,3,15,10,14,4,0,0,3,0,3,15,18,20,0,0,8,1,0,0,20,10,15,0,15,0,0,0,0,0,0,0,0,0,0,0,0,0,0,0,0,0,0,0,0],"split_type":[0,0,0,0,0,0,0,0,0,0,0,0,0,0,0,0,0,0,0,0,0,0,0,0,0,0,0,0,0,0,0,0,0,0,0,0,0,0,0,0,0,0,0,0,0,0,0,0,0,0,0,0,0,0,0,0,0,0,0],"sum_hessian":[4.8164917E3,3.6592412E3,1.1572505E3,3.6008137E3,5.842754E1,7.598423E2,3.974083E2,1.1613473E3,2.4394663E3,4.5315037E1,7.145272E2,2.5825912E2,1.3914917E2,1.9860016E2,9.6274713E2,1.1471323E3,1.2923341E3,3.660621E2,3.4846512E2,2.5263586E2,5.6232457E0,1.5693865E1,1.2345531E2,1.2928136E2,6.93188E1,4.645752E2,4.9817197E2,1.1066244E3,4.0508015E1,8.738449E1,1.2049496E3,3.017001E2,6.4362E1,1.3300041E1,3.3516507E2,1.4555045E2,1.0708542E2,6.792858E0,1.16662445E2,4.1900387E1,2.7418417E1,3.9048392E2,7.409126E1,3.3993893E2,1.5823303E2,7.8059973E2,3.260246E2,1.0655555E3,1.3939404E2,2.361883E2,6.55118E1,2.7492422E2,6.024085E1,1.29967E2,1.5583455E1,9.976233E1,7.323094E0,1.11427025E2,5.235427E0],"tree_param":{"num_deleted":"0","num_feature":"21","num_nodes":"59","size_leaf_vector":"1"}},{"base_weights":[6.282859E-2,1.680982E-1,-6.651269E-2,5.3480476E-2,6.574368E-1,1.5366964E-1,-4.4257423E-1,6.902944E-1,-8.453916E-2,2.8759345E-1,-1.8021369E-1,-1.2067523E0,1.5062495E-1,5.69037E-1,1.1517775E0,1.1160354E-1,5.374894E-1,-1.076392E0,7.536278E-2,-1.9848199E-1,-8.3677076E-2,5.341079E-1,-8.159371E-2,-1.0138463E-1,6.110166E-1,-8.5027E-2,1.3063416E0,1.1744239E-2,-6.376965E-2,-2.8406233E-2,3.6425166E-2,-6.704591E-2,1.4446941E-2,3.3986285E-2,-1.5266719E-2,-7.4012846E-2,7.098162E-2,1.21698446E-4,6.5303035E-2,3.4301028E-2,-3.282958E-2,7.305408E-2,3.61135E-2],"categories":[],"categories_nodes":[],"categories_segments":[],"categories_sizes":[],"default_left":[0,0,0,0,0,0,0,0,0,0,0,0,0,0,0,0,0,0,0,0,0,0,0,0,0,0,0,0,0,0,0,0,0,0,0,0,0,0,0,0,0,0,0],"id":16,"left_children":[1,3,-1,5,7,9,11,13,-1,15,17,19,21,23,25,27,29,31,33,35,-1,37,-1,-1,39,-1,41,-1,-1,-1,-1,-1,-1,-1,-1,-1,-1,-1,-1,-1,-1,-1,-1],"loss_changes":[7.1969714E2,2.5584921E2,0E0,1.8383382E2,6.796454E1,1.3763882E2,2.8194632E2,4.7160767E1,0E0,9.653975E1,2.019801E2,1.2756668E2,2.4067903E2,7.522032E1,8.017915E1,2.2089285E2,1.920451E2,7.105684E1,1.5823117E2,1.8281598E2,0E0,1.18800446E2,0E0,0E0,6.40219E1,0E0,1.4155914E1,0E0,0E0,0E0,0E0,0E0,0E0,0E0,0E0,0E0,0E0,0E0,0E0,0E0,0E0,0E0,0E0],"parents":[2147483647,0,0,1,1,3,3,4,4,5,5,6,6,7,7,9,9,10,10,11,11,12,12,13,13,14,14,15,15,16,16,17,17,18,18,19,19,21,21,24,24,26,26],"right_children":[2,4,-1,6,8,10,12,14,-1,16,18,20,22,24,26,28,30,32,34,36,-1,38,-1,-1,40,-1,42,-1,-1,-1,-1,-1,-1,-1,-1,-1,-1,-1,-1,-1,-1,-1,-1],"split_conditions":[8E0,3.7E1,-6.651269E-2,1.63E2,1.6E2,8.4210526E1,8.770074E1,1.2123514E2,-8.453916E-2,8.530875E1,3.7E1,3.8E1,1.1671159E2,1.7E1,1E0,8.194006E1,8.7E0,1.17E2,2E0,3.2E1,-8.3677076E-2,5.5E1,-8.159371E-2,-1.0138463E-1,9.937754E1,-8.5027E-2,1.7608862E2,1.1744239E-2,-6.376965E-2,-2.8406233E-2,3.6425166E-2,-6.704591E-2,1.4446941E-2,3.3986285E-2,-1.5266719E-2,-7.4012846E-2,7.098162E-2,1.21698446E-4,6.5303035E-2,3.4301028E-2,-3.282958E-2,7.305408E-2,3.61135E-2],"split_indices":[0,3,0,18,15,15,20,20,0,20,9,9,20,13,0,20,11,18,1,9,0,13,0,0,20,0,20,0,0,0,0,0,0,0,0,0,0,0,0,0,0,0,0],"split_type":[0,0,0,0,0,0,0,0,0,0,0,0,0,0,0,0,0,0,0,0,0,0,0,0,0,0,0,0,0,0,0,0,0,0,0,0,0,0,0,0,0,0,0],"sum_hessian":[4.905085E3,4.5612866E3,3.4379868E2,3.6965525E3,8.647338E2,3.0759807E3,6.205718E2,8.5349725E2,1.1236588E1,2.195488E3,8.804928E2,2.7074945E2,3.4982236E2,6.776688E2,1.758284E2,1.2890897E3,9.063983E2,1.9467026E2,6.858225E2,8.613089E1,1.8461855E2,2.8846332E2,6.1359016E1,1.0028584E1,6.6764026E2,8.524049E0,1.6730435E2,1.1846265E3,1.0446321E2,1.3323601E2,7.7316235E2,1.6309023E2,3.1580048E1,2.6474695E2,4.2107556E2,4.8107864E1,3.802302E1,1.7140985E2,1.1705348E2,6.307762E2,3.6864044E1,1.3107635E2,3.622801E1],"tree_param":{"num_deleted":"0","num_feature":"21","num_nodes":"43","size_leaf_vector":"1"}},{"base_weights":[9.201876E-2,1.9316234E-1,-6.544795E-2,1.2554191E-1,9.301409E-1,1.6649535E-1,-8.3935803E-1,-8.089204E-2,9.906315E-1,5.001896E-2,4.997422E-1,-9.3271405E-2,-2.3666452E-1,8.3592826E-1,1.3992769E0,-9.2348814E-1,1.18648544E-1,2.5262934E-1,8.307726E-1,-8.833713E-2,3.138804E-1,-8.192179E-2,8.9610106E-1,4.4716623E-2,1.4890782E0,6.365377E-3,-7.0642926E-2,-8.914713E-2,7.8129275E-3,3.2141726E-2,-1.1375441E-2,5.637005E-2,2.1918392E-2,6.9507875E-2,-2.8316861E-2,6.416747E-2,2.9180223E-2,4.548433E-2,8.210231E-2],"categories":[],"categories_nodes":[],"categories_segments":[],"categories_sizes":[],"default_left":[0,0,0,0,0,0,0,0,0,0,0,0,0,0,0,0,0,0,0,0,0,0,0,0,0,0,0,0,0,0,0,0,0,0,0,0,0,0,0],"id":17,"left_children":[1,3,-1,5,7,9,11,-1,13,15,17,-1,19,21,23,25,27,29,31,-1,33,-1,35,-1,37,-1,-1,-1,-1,-1,-1,-1,-1,-1,-1,-1,-1,-1,-1],"loss_changes":[7.0018585E2,2.2951294E2,0E0,1.6696518E2,6.126541E1,1.5720328E2,1.0595734E2,0E0,2.2773773E1,2.0072237E2,8.559985E1,0E0,9.282308E1,4.2742767E1,3.3171692E0,1.0192201E2,2.009476E2,1.1294456E2,5.1644043E1,0E0,7.7901764E1,0E0,3.207982E1,0E0,6.0874634E0,0E0,0E0,0E0,0E0,0E0,0E0,0E0,0E0,0E0,0E0,0E0,0E0,0E0,0E0],"parents":[2147483647,0,0,1,1,3,3,4,4,5,5,6,6,8,8,9,9,10,10,12,12,13,13,14,14,15,15,16,16,17,17,18,18,20,20,22,22,24,24],"right_children":[2,4,-1,6,8,10,12,-1,14,16,18,-1,20,22,24,26,28,30,32,-1,34,-1,36,-1,38,-1,-1,-1,-1,-1,-1,-1,-1,-1,-1,-1,-1,-1,-1],"split_conditions":[8E0,1.04E2,-6.544795E-2,8E1,9.1E1,9.3E1,6E0,-8.089204E-2,1.1574074E2,5.3321846E1,6.3E1,-9.3271405E-2,4E0,3.9E1,9.4E1,3.674074E1,2E0,6.9565216E1,1.8E1,-8.833713E-2,1.07E1,-8.192179E-2,2E1,4.4716623E-2,1.2435897E2,6.365377E-3,-7.0642926E-2,-8.914713E-2,7.8129275E-3,3.2141726E-2,-1.1375441E-2,5.637005E-2,2.1918392E-2,6.9507875E-2,-2.8316861E-2,6.416747E-2,2.9180223E-2,4.548433E-2,8.210231E-2],"split_indices":[0,14,0,9,13,10,0,0,15,20,9,0,1,3,13,20,13,15,3,0,11,0,18,0,15,0,0,0,0,0,0,0,0,0,0,0,0,0,0],"split_type":[0,0,0,0,0,0,0,0,0,0,0,0,0,0,0,0,0,0,0,0,0,0,0,0,0,0,0,0,0,0,0,0,0,0,0,0,0,0,0],"sum_hessian":[4.938545E3,4.606818E3,3.3172708E2,4.220722E3,3.8609607E2,4.0496685E3,1.7105342E2,8.356558E0,3.777395E2,3.001674E3,1.0479945E3,6.251985E1,1.0853358E2,2.7621628E2,1.0152323E2,1.96854E2,2.80482E3,6.0106506E2,4.4692947E2,2.8134079E1,8.03995E1,5.9349875E0,2.7028128E2,1.6983826E1,8.4539406E1,6.2783222E1,1.3407079E2,5.3498306E1,2.7513218E3,3.313998E2,2.6966528E2,2.5345987E2,1.934696E2,3.591071E1,4.4488785E1,1.19316505E2,1.5096477E2,1.9108753E1,6.543066E1],"tree_param":{"num_deleted":"0","num_feature":"21","num_nodes":"39","size_leaf_vector":"1"}},{"base_weights":[5.225701E-2,1.4874555E-1,-6.445681E-2,3.1094737E-2,7.3013926E-1,-1.3908154E-1,3.1029654E-1,7.494436E-1,-8.2120635E-2,2.4273999E-1,-4.24327E-1,-9.761129E-2,6.32058E-1,-8.26326E-2,7.688952E-1,-9.884697E-2,3.8097656E-1,1.9946674E-1,-7.5198114E-1,1.4499773E-1,-8.680414E-2,6.906977E-1,-8.4317915E-2,1.1427866E0,6.416937E-1,2.3174414E-2,-8.806124E-2,-3.4012176E-2,3.2313757E-2,-1.6380094E-2,-7.742184E-2,-5.6026846E-2,2.2680892E-2,9.887573E-3,5.0583478E-2,6.602309E-2,2.5632843E-2,-8.281105E-2,3.548472E-2],"categories":[],"categories_nodes":[],"categories_segments":[],"categories_sizes":[],"default_left":[0,0,0,0,0,0,0,0,0,0,0,0,0,0,0,0,0,0,0,0,0,0,0,0,0,0,0,0,0,0,0,0,0,0,0,0,0,0,0],"id":18,"left_children":[1,3,-1,5,7,9,11,13,-1,15,17,19,21,-1,23,-1,25,27,29,31,-1,33,-1,35,37,-1,-1,-1,-1,-1,-1,-1,-1,-1,-1,-1,-1,-1,-1],"loss_changes":[6.340951E2,3.1256696E2,0E0,1.8068211E2,3.6455414E1,2.5744257E2,1.890656E2,3.694803E1,0E0,3.1096848E2,2.7664795E2,2.5301881E2,1.1062741E2,0E0,3.5322235E1,0E0,1.6918855E2,1.8386652E2,2.9934656E2,2.1719261E2,0E0,1.24163605E2,0E0,2.0725586E1,8.992287E1,0E0,0E0,0E0,0E0,0E0,0E0,0E0,0E0,0E0,0E0,0E0,0E0,0E0,0E0],"parents":[2147483647,0,0,1,1,3,3,4,4,5,5,6,6,7,7,9,9,10,10,11,11,12,12,14,14,16,16,17,17,18,18,19,19,21,21,23,23,24,24],"right_children":[2,4,-1,6,8,10,12,14,-1,16,18,20,22,-1,24,-1,26,28,30,32,-1,34,-1,36,38,-1,-1,-1,-1,-1,-1,-1,-1,-1,-1,-1,-1,-1,-1],"split_conditions":[8E0,3.9E1,-6.445681E-2,9.015001E1,1E0,2.7E1,5.1E1,1.37E1,-8.2120635E-2,7E0,1E1,4.8E1,8.3E1,-8.26326E-2,5.6E1,-9.884697E-2,7E0,5.0333332E1,1.33E1,2E0,-8.680414E-2,2.14E1,-8.4317915E-2,8.962177E1,1E0,2.3174414E-2,-8.806124E-2,-3.4012176E-2,3.2313757E-2,-1.6380094E-2,-7.742184E-2,-5.6026846E-2,2.2680892E-2,9.887573E-3,5.0583478E-2,6.602309E-2,2.5632843E-2,-8.281105E-2,3.548472E-2],"split_indices":[0,3,0,20,5,18,9,8,0,3,14,9,9,0,14,0,0,19,11,4,0,8,0,20,0,0,0,0,0,0,0,0,0,0,0,0,0,0,0],"split_type":[0,0,0,0,0,0,0,0,0,0,0,0,0,0,0,0,0,0,0,0,0,0,0,0,0,0,0,0,0,0,0,0,0,0,0,0,0,0,0],"sum_hessian":[4.896689E3,4.568928E3,3.277611E2,3.800843E3,7.6808496E2,2.3618025E3,1.4390404E3,7.6256445E2,5.5205116E0,1.0099975E3,1.3518052E3,6.348793E2,8.0416113E2,5.451037E0,7.5711346E2,5.8432903E1,9.515646E2,4.656616E2,8.8614355E2,5.537908E2,8.1088486E1,7.85008E2,1.9153128E1,1.9016513E2,5.669483E2,9.1702686E2,3.453773E1,1.566718E2,3.089898E2,5.790284E2,3.0711514E2,1.0805739E2,4.457334E2,3.1020834E2,4.7479965E2,1.4748412E2,4.2681015E1,1.5623828E1,5.5132446E2],"tree_param":{"num_deleted":"0","num_feature":"21","num_nodes":"39","size_leaf_vector":"1"}},{"base_weights":[2.0277433E-2,1.1246653E-1,-6.3545115E-2,-5.3527303E-2,5.6830853E-1,5.2556986E-1,-1.2619738E-1,3.7348604E-1,8.9835864E-1,7.815573E-1,-3.7468457E-1,-1.0826311E0,-6.641069E-2,9.2638826E-1,1.0343518E-1,9.920613E-1,3.7345695E-1,-8.7771095E-2,8.634026E-1,-9.551979E-2,7.121816E-1,-1.4054642E0,8.54198E-2,-8.855657E-2,1.6519133E0,-4.4762474E-2,1.2600429E0,-8.731247E-2,2.3044024E-1,-8.880548E-2,1.035789E0,-8.280719E-2,9.495328E-1,4.7243726E-2,-8.199409E-2,8.789983E-2,-9.119695E-2,7.979762E-2,-9.1197655E-2,-2.3504936E-3,-8.6141065E-2,6.627103E-2,9.509912E-2,-9.174972E-2,4.1700125E-2,4.5254067E-2,7.171959E-2,2.1355374E-2,-5.1032063E-2,2.1833576E-2,5.556664E-2,6.43574E-2,-7.372574E-2],"categories":[],"categories_nodes":[],"categories_segments":[],"categories_sizes":[],"default_left":[0,0,0,0,0,0,0,0,0,0,0,0,0,0,0,0,0,0,0,0,0,0,0,0,0,0,0,0,0,0,0,0,0,0,0,0,0,0,0,0,0,0,0,0,0,0,0,0,0,0,0,0,0],"id":19,"left_children":[1,3,-1,5,7,9,11,13,15,17,19,21,23,25,27,29,31,-1,33,-1,35,37,-1,39,41,43,45,-1,47,-1,49,-1,51,-1,-1,-1,-1,-1,-1,-1,-1,-1,-1,-1,-1,-1,-1,-1,-1,-1,-1,-1,-1],"loss_changes":[5.640051E2,3.3465045E2,0E0,1.3652898E2,7.557687E1,8.365833E1,1.6472409E2,1.1100406E2,2.1147552E1,6.0065887E1,1.3616617E2,1.5511491E2,1.0340405E2,7.913342E1,1.1810565E2,4.6701843E1,8.092989E1,0E0,5.739795E1,0E0,1.305763E2,1.9441461E2,0E0,1.8187904E2,3.0216217E-1,1.012244E2,9.944946E0,0E0,1.1601097E2,0E0,1.605664E1,0E0,4.56844E1,0E0,0E0,0E0,0E0,0E0,0E0,0E0,0E0,0E0,0E0,0E0,0E0,0E0,0E0,0E0,0E0,0E0,0E0,0E0,0E0],"parents":[2147483647,0,0,1,1,3,3,4,4,5,5,6,6,7,7,8,8,9,9,10,10,11,11,12,12,13,13,14,14,15,15,16,16,18,18,20,20,21,21,23,23,24,24,25,25,26,26,28,28,30,30,32,32],"right_children":[2,4,-1,6,8,10,12,14,16,18,20,22,24,26,28,30,32,-1,34,-1,36,38,-1,40,42,44,46,-1,48,-1,50,-1,52,-1,-1,-1,-1,-1,-1,-1,-1,-1,-1,-1,-1,-1,-1,-1,-1,-1,-1,-1,-1],"split_conditions":[8E0,3.4E1,-6.3545115E-2,1.93E1,4.3E1,1.164098E2,2.14E1,8.301887E1,6.26E1,6.8E0,1.8E1,7.5E1,1.31E2,6E0,8.6734695E1,2.2E1,7.5E1,-8.7771095E-2,7E0,-9.551979E-2,1.65E1,2.6E1,8.54198E-2,7.9E1,5E0,1.25E1,8.169076E1,-8.731247E-2,9.937754E1,-8.880548E-2,7.7E1,-8.280719E-2,2E0,4.7243726E-2,-8.199409E-2,8.789983E-2,-9.119695E-2,7.979762E-2,-9.1197655E-2,-2.3504936E-3,-8.6141065E-2,6.627103E-2,9.509912E-2,-9.174972E-2,4.1700125E-2,4.5254067E-2,7.171959E-2,2.1355374E-2,-5.1032063E-2,2.1833576E-2,5.556664E-2,6.43574E-2,-7.372574E-2],"split_indices":[0,3,0,8,3,20,8,15,19,19,14,14,14,0,15,14,19,0,0,0,8,9,0,14,4,11,20,0,20,0,14,0,4,0,0,0,0,0,0,0,0,0,0,0,0,0,0,0,0,0,0,0,0],"split_type":[0,0,0,0,0,0,0,0,0,0,0,0,0,0,0,0,0,0,0,0,0,0,0,0,0,0,0,0,0,0,0,0,0,0,0,0,0,0,0,0,0,0,0,0,0,0,0,0,0,0,0,0,0],"sum_hessian":[4.7360366E3,4.4212744E3,3.147622E2,3.2416995E3,1.179575E3,3.6074484E2,2.8809546E3,7.4308E2,4.364949E2,2.8097998E2,7.976484E1,1.6848698E2,2.7124675E3,2.4304308E2,5.0003693E2,3.6962195E2,6.687295E1,8.142322E0,2.7283768E2,3.274267E1,4.702217E1,1.5146387E2,1.7023115E1,2.6788904E3,3.357727E1,6.2370487E1,1.8067259E2,3.1308903E1,4.6872803E2,5.131878E0,3.6449005E2,1.4370097E1,5.2502853E1,2.648407E2,7.996957E0,3.351038E1,1.3511791E1,1.8190123E1,1.3327376E2,2.6134785E3,6.5411766E1,1.7295855E1,1.6281416E1,2.0177158E1,4.219333E1,6.1550804E1,1.1912179E2,4.0562354E2,6.3104507E1,4.1572227E1,3.2291785E2,4.6496017E1,6.006839E0],"tree_param":{"num_deleted":"0","num_feature":"21","num_nodes":"53","size_leaf_vector":"1"}},{"base_weights":[6.582612E-2,1.5404469E-1,-6.267339E-2,1.2239538E-2,6.460148E-1,-3.3345222E-1,1.3845606E-1,6.656373E-1,-7.8265525E-2,-5.2580696E-2,-1.1120945E0,2.0984E-1,-5.0567883E-1,7.401588E-1,1.9005698E-1,8.056097E-1,-3.525465E-1,-7.8252904E-2,2.6282048E-1,2.8168958E-1,-5.1876223E-1,-7.936358E-2,2.1429971E-1,7.591913E-1,-7.636223E-2,-9.021392E-2,4.5976216E-1,-8.363098E-2,5.6103777E-2,-8.4956184E-2,7.0825714E-4,6.869668E-2,-7.841006E-2,1.5342752E-2,-9.047828E-2,2.3443935E-2,-9.051443E-2,-4.331044E-2,5.6131776E-2,-7.603081E-2,3.879858E-2,3.412009E-2,-9.028275E-2],"categories":[],"categories_nodes":[],"categories_segments":[],"categories_sizes":[],"default_left":[0,0,0,0,0,0,0,0,0,0,0,0,0,0,0,0,0,0,0,0,0,0,0,0,0,0,0,0,0,0,0,0,0,0,0,0,0,0,0,0,0,0,0],"id":20,"left_children":[1,3,-1,5,7,9,11,13,-1,15,17,19,21,23,25,27,29,-1,31,33,35,-1,37,39,-1,-1,41,-1,-1,-1,-1,-1,-1,-1,-1,-1,-1,-1,-1,-1,-1,-1,-1],"loss_changes":[5.61379E2,3.153552E2,0E0,1.5319545E2,4.4928894E1,2.0531757E2,1.1836609E2,3.5414368E1,0E0,1.7821469E2,1.554206E2,1.2139104E2,2.0038123E2,3.8572876E1,7.4654E1,1.4251593E2,2.5327866E2,0E0,1.2937993E2,1.11536575E2,2.6647736E2,0E0,1.5320123E2,3.4096222E1,0E0,0E0,6.2612724E1,0E0,0E0,0E0,0E0,0E0,0E0,0E0,0E0,0E0,0E0,0E0,0E0,0E0,0E0,0E0,0E0],"parents":[2147483647,0,0,1,1,3,3,4,4,5,5,6,6,7,7,9,9,10,10,11,11,12,12,13,13,14,14,15,15,16,16,18,18,19,19,20,20,22,22,23,23,26,26],"right_children":[2,4,-1,6,8,10,12,14,-1,16,18,20,22,24,26,28,30,-1,32,34,36,-1,38,40,-1,-1,42,-1,-1,-1,-1,-1,-1,-1,-1,-1,-1,-1,-1,-1,-1,-1,-1],"split_conditions":[8E0,3.6E1,-6.267339E-2,2E0,3.51E2,9.5E1,3.21E1,1E-1,-7.8265525E-2,4.5945946E1,3.1E1,3E1,3.31E1,2.32E1,3.9E1,3E0,7.2352875E1,-7.8252904E-2,3.2E1,2.6E0,8.2608696E1,-7.936358E-2,9.015001E1,2.5E0,-7.636223E-2,-9.021392E-2,1E2,-8.363098E-2,5.6103777E-2,-8.4956184E-2,7.0825714E-4,6.869668E-2,-7.841006E-2,1.5342752E-2,-9.047828E-2,2.3443935E-2,-9.051443E-2,-4.331044E-2,5.6131776E-2,-7.603081E-2,3.879858E-2,3.412009E-2,-9.028275E-2],"split_indices":[0,3,0,4,18,18,8,12,0,15,3,3,8,11,3,1,20,0,3,12,15,0,20,11,0,0,18,0,0,0,0,0,0,0,0,0,0,0,0,0,0,0,0],"split_type":[0,0,0,0,0,0,0,0,0,0,0,0,0,0,0,0,0,0,0,0,0,0,0,0,0,0,0,0,0,0,0,0,0,0,0,0,0,0,0,0,0,0,0],"sum_hessian":[4.8207563E3,4.519434E3,3.0132236E2,3.509021E3,1.0104131E3,9.380831E2,2.570938E3,1.00221875E3,8.194341E0,6.901868E2,2.4789635E2,2.3150544E3,2.5588335E2,8.659686E2,1.3625015E2,1.7832378E2,5.1186304E2,1.8636156E2,6.15348E1,2.1078105E3,2.0724396E2,1.0177962E2,1.5410373E2,8.5941986E2,6.5487533E0,1.5553078E1,1.20697075E2,1.9707775E1,1.58616E2,1.08781265E2,4.0308176E2,3.845121E1,2.3083591E1,2.0835906E3,2.4219982E1,1.1779903E2,8.944493E1,7.0402725E1,8.3701E1,5.6246715E0,8.5379517E2,1.1053294E2,1.016413E1],"tree_param":{"num_deleted":"0","num_feature":"21","num_nodes":"43","size_leaf_vector":"1"}},{"base_weights":[2.9974205E-2,1.15150034E-1,-6.1899133E-2,6.4868655E-4,6.830679E-1,-2.394951E-1,2.6495957E-1,7.172563E-1,-1.016767E-1,5.2772623E-1,-3.4182698E-1,2.145387E-1,1.4872314E0,-7.368947E-2,7.374892E-1,7.241865E-1,-7.294174E-2,-4.2319554E-1,4.4226223E-1,6.684326E-1,3.6600076E-2,8.2645275E-2,4.8761766E-2,-8.002933E-2,7.566228E-1,4.542305E-2,-8.299302E-2,-7.012832E-2,-1.5064642E-2,3.6854368E-2,-8.405402E-2,-9.143234E-2,4.3858748E-2,2.3681246E-2,-1.6686425E-2,3.5407025E-2,7.12646E-2],"categories":[],"categories_nodes":[],"categories_segments":[],"categories_sizes":[],"default_left":[0,0,0,0,0,0,0,0,0,0,0,0,0,0,0,0,0,0,0,0,0,0,0,0,0,0,0,0,0,0,0,0,0,0,0,0,0],"id":21,"left_children":[1,3,-1,5,7,9,11,13,-1,15,17,19,21,-1,23,25,-1,27,29,31,33,-1,-1,-1,35,-1,-1,-1,-1,-1,-1,-1,-1,-1,-1,-1,-1],"loss_changes":[5.0705496E2,2.860632E2,0E0,2.3250082E2,7.0012146E1,1.5086293E2,1.0714545E2,3.34346E1,0E0,8.936E1,1.08264206E2,1.3532568E2,4.2336884E0,0E0,3.3585083E1,9.2254974E1,0E0,1.828663E2,1.0124786E2,2.4757971E2,1.9517007E2,0E0,0E0,0E0,2.2282745E1,0E0,0E0,0E0,0E0,0E0,0E0,0E0,0E0,0E0,0E0,0E0,0E0],"parents":[2147483647,0,0,1,1,3,3,4,4,5,5,6,6,7,7,9,9,10,10,11,11,12,12,14,14,15,15,17,17,18,18,19,19,20,20,24,24],"right_children":[2,4,-1,6,8,10,12,14,-1,16,18,20,22,-1,24,26,-1,28,30,32,34,-1,-1,-1,36,-1,-1,-1,-1,-1,-1,-1,-1,-1,-1,-1,-1],"split_conditions":[8E0,3.9E1,-6.1899133E-2,5.9E1,1.727221E2,3.9E0,1.01E2,2.5E0,-1.016767E-1,3.49E1,1.1E2,9E0,3.07E1,-7.368947E-2,1.37E1,7E0,-7.294174E-2,9E0,2.145E2,6.4E1,6.6E1,8.2645275E-2,4.8761766E-2,-8.002933E-2,2.17E1,4.542305E-2,-8.299302E-2,-7.012832E-2,-1.5064642E-2,3.6854368E-2,-8.405402E-2,-9.143234E-2,4.3858748E-2,2.3681246E-2,-1.6686425E-2,3.5407025E-2,7.12646E-2],"split_indices":[0,3,0,9,20,11,13,11,0,8,19,13,8,0,8,0,0,13,19,9,9,0,0,0,11,0,0,0,0,0,0,0,0,0,0,0,0],"split_type":[0,0,0,0,0,0,0,0,0,0,0,0,0,0,0,0,0,0,0,0,0,0,0,0,0,0,0,0,0,0,0,0,0,0,0,0,0],"sum_hessian":[4.692665E3,4.3981274E3,2.945379E2,3.66101E3,7.371172E2,1.9182489E3,1.7427611E3,7.286827E2,8.434485E0,2.2525665E2,1.6929923E3,1.6748463E3,6.791484E1,6.0100093E0,7.2267267E2,2.0556302E2,1.9693628E1,1.5342377E3,1.5875462E2,4.7089908E2,1.2039473E3,4.9627724E1,1.8287119E1,5.1950707E0,7.174776E2,1.9138861E2,1.4174409E1,1.6866568E2,1.3655719E3,1.399724E2,1.8782234E1,3.5729145E1,4.3516992E2,5.52116E2,6.518312E2,6.708931E2,4.6584515E1],"tree_param":{"num_deleted":"0","num_feature":"21","num_nodes":"37","size_leaf_vector":"1"}},{"base_weights":[4.590679E-2,1.2510635E-1,-6.1178442E-2,-1.8065973E-3,5.6630355E-1,2.2877996E-1,-1.9052236E-1,6.2389016E-1,-7.218804E-1,2.7979174E-1,-9.401098E-2,1.385933E0,-2.5447497E-1,4.4389817E-1,9.1688854E-1,4.1102417E-2,-8.518691E-2,4.5909733E-1,-3.693981E-1,-8.388045E-2,1.6639165E0,3.7908465E-1,-4.1328275E-1,5.580786E-1,-7.6092154E-1,1.075068E0,6.318247E-1,2.6416479E-2,-8.831828E-2,-1.3198366E-3,-9.381963E-2,6.179414E-2,8.954277E-2,-3.917221E-2,3.207403E-2,-5.8557976E-2,-1.0273292E-2,2.9789135E-2,-7.971858E-2,-8.68082E-2,3.8046267E-2,5.6696754E-2,2.3604933E-2,-9.962011E-2,4.853802E-2],"categories":[],"categories_nodes":[],"categories_segments":[],"categories_sizes":[],"default_left":[0,0,0,0,0,0,0,0,0,0,0,0,0,0,0,0,0,0,0,0,0,0,0,0,0,0,0,0,0,0,0,0,0,0,0,0,0,0,0,0,0,0,0,0,0],"id":22,"left_children":[1,3,-1,5,7,9,11,13,15,17,-1,19,21,23,25,-1,-1,27,29,-1,31,33,35,37,39,41,43,-1,-1,-1,-1,-1,-1,-1,-1,-1,-1,-1,-1,-1,-1,-1,-1,-1,-1],"loss_changes":[4.7254675E2,2.4768718E2,0E0,1.4957465E2,7.375595E1,1.6696112E2,1.9092563E2,4.9505463E1,6.620421E1,1.7609715E2,0E0,6.568173E1,1.8301402E2,8.134377E1,1.5518341E1,0E0,0E0,1.8346654E2,1.6931197E2,0E0,1.4926758E0,1.1177321E2,2.287072E2,4.4601746E1,7.752224E1,7.6142883E0,1.1811253E2,0E0,0E0,0E0,0E0,0E0,0E0,0E0,0E0,0E0,0E0,0E0,0E0,0E0,0E0,0E0,0E0,0E0,0E0],"parents":[2147483647,0,0,1,1,3,3,4,4,5,5,6,6,7,7,8,8,9,9,11,11,12,12,13,13,14,14,17,17,18,18,20,20,21,21,22,22,23,23,24,24,25,25,26,26],"right_children":[2,4,-1,6,8,10,12,14,16,18,-1,20,22,24,26,-1,-1,28,30,-1,32,34,36,38,40,42,44,-1,-1,-1,-1,-1,-1,-1,-1,-1,-1,-1,-1,-1,-1,-1,-1,-1,-1],"split_conditions":[8E0,3.6E1,-6.1178442E-2,7.027027E1,2.67E2,8.2E1,1.28E1,1.04E2,4.4E1,3E1,-9.401098E-2,2.1E1,9E0,1E2,5E1,4.1102417E-2,-8.518691E-2,2.7E1,3E1,-8.388045E-2,6E0,2E0,3.6E1,7.9E1,7.5E1,8.1E1,9.9E1,2.6416479E-2,-8.831828E-2,-1.3198366E-3,-9.381963E-2,6.179414E-2,8.954277E-2,-3.917221E-2,3.207403E-2,-5.8557976E-2,-1.0273292E-2,2.9789135E-2,-7.971858E-2,-8.68082E-2,3.8046267E-2,5.6696754E-2,2.3604933E-2,-9.962011E-2,4.853802E-2],"split_indices":[0,3,0,15,18,9,19,14,14,8,0,13,18,13,18,0,0,3,13,0,0,4,19,9,19,19,18,0,0,0,0,0,0,0,0,0,0,0,0,0,0,0,0,0,0],"split_type":[0,0,0,0,0,0,0,0,0,0,0,0,0,0,0,0,0,0,0,0,0,0,0,0,0,0,0,0,0,0,0,0,0,0,0,0,0,0,0,0,0,0,0,0,0],"sum_hessian":[4.6974756E3,4.4224697E3,2.7500586E2,3.4352856E3,9.8718396E2,1.5460265E3,1.8892592E3,9.454352E2,4.1748768E1,1.5103617E3,3.56648E1,7.284838E1,1.8164108E3,5.8721686E2,3.5821838E2,1.6292418E1,2.5456352E1,1.1837139E3,3.2664777E2,5.6414413E0,6.720694E1,3.6377057E2,1.4526403E3,5.368742E2,5.0342617E1,2.285993E2,1.2961906E2,1.1487402E3,3.4973717E1,2.6691397E2,5.9733772E1,1.7827904E1,4.9379032E1,6.662167E1,2.971489E2,3.1161008E2,1.1410302E3,5.283425E2,8.531685E0,3.0595396E1,1.974722E1,2.0746426E2,2.113504E1,1.4268225E1,1.15350845E2],"tree_param":{"num_deleted":"0","num_feature":"21","num_nodes":"45","size_leaf_vector":"1"}},{"base_weights":[9.680724E-2,2.6950993E-2,7.9493433E-1,4.3703813E-2,-8.352032E-2,8.263213E-1,-6.80962E-2,2.0652594E-2,1.1637958E0,4.6428004E-1,9.319452E-1,-3.0722743E-1,1.11275464E-1,2.1434906E-1,1.4552721E0,-6.154491E-1,1.0308384E0,1.0313652E0,2.2705415E-1,-4.1038495E-2,-1.0680546E0,1.8372811E-1,-3.6861914E-1,-8.7968566E-2,6.589496E-2,1.314608E0,8.878618E-2,-9.845395E-2,3.263238E-2,2.7002713E-2,6.190119E-2,4.8391175E-1,1.0948942E0,-7.789981E-2,7.072368E-1,-2.5924373E-2,1.6457228E-2,6.1601005E-3,-8.288271E-2,6.043238E-3,3.4334674E-2,-4.1634575E-2,2.4254648E-3,4.568731E-2,7.5587E-2,5.1935997E-2,-9.49546E-2,5.8891173E-2,3.5887275E-2,6.0552735E-2,-7.337007E-2],"categories":[],"categories_nodes":[],"categories_segments":[],"categories_sizes":[],"default_left":[0,0,0,0,0,0,0,0,0,0,0,0,0,0,0,0,0,0,0,0,0,0,0,0,0,0,0,0,0,0,0,0,0,0,0,0,0,0,0,0,0,0,0,0,0,0,0,0,0,0,0],"id":23,"left_children":[1,3,5,7,-1,9,-1,11,13,15,17,19,21,23,25,27,29,31,33,35,37,39,41,-1,-1,43,-1,-1,-1,-1,-1,45,47,-1,49,-1,-1,-1,-1,-1,-1,-1,-1,-1,-1,-1,-1,-1,-1,-1,-1],"loss_changes":[2.3501201E2,1.2467825E2,3.0799591E1,1.1203704E2,0E0,1.6112823E1,0E0,1.2642543E2,2.3903076E1,6.1632084E1,2.3169739E1,1.8655325E2,1.1596587E2,4.9638836E1,6.7555237E-1,6.1263966E1,6.019272E0,9.639465E0,3.7584415E1,1.2099163E2,1.6790363E2,9.150651E1,8.474442E1,0E0,0E0,2.590042E0,0E0,0E0,0E0,0E0,0E0,4.453788E1,7.324127E0,0E0,3.9278034E1,0E0,0E0,0E0,0E0,0E0,0E0,0E0,0E0,0E0,0E0,0E0,0E0,0E0,0E0,0E0,0E0],"parents":[2147483647,0,0,1,1,2,2,3,3,5,5,7,7,8,8,9,9,10,10,11,11,12,12,13,13,14,14,15,15,16,16,17,17,18,18,19,19,20,20,21,21,22,22,25,25,31,31,32,32,34,34],"right_children":[2,4,6,8,-1,10,-1,12,14,16,18,20,22,24,26,28,30,32,34,36,38,40,42,-1,-1,44,-1,-1,-1,-1,-1,46,48,-1,50,-1,-1,-1,-1,-1,-1,-1,-1,-1,-1,-1,-1,-1,-1,-1,-1],"split_conditions":[4.3E1,1E0,1.39E2,1.2E2,-8.352032E-2,7.5E1,-6.80962E-2,6.674374E1,2E0,2.92E1,6.26E1,2E0,3.21E1,3.01E1,1.4E2,1.2E2,2.97E1,9.473684E1,6.5666664E1,1.46E1,2.56E1,8E1,3.3E1,-8.7968566E-2,6.589496E-2,1.4E1,8.878618E-2,-9.845395E-2,3.263238E-2,2.7002713E-2,6.190119E-2,8.571429E1,3.06E1,-7.789981E-2,2.8E1,-2.5924373E-2,1.6457228E-2,6.1601005E-3,-8.288271E-2,6.043238E-3,3.4334674E-2,-4.1634575E-2,2.4254648E-3,4.568731E-2,7.5587E-2,5.1935997E-2,-9.49546E-2,5.8891173E-2,3.5887275E-2,6.0552735E-2,-7.337007E-2],"split_indices":[3,5,14,14,0,13,0,20,17,8,19,17,8,8,14,15,8,15,19,11,8,13,8,0,0,11,0,0,0,0,0,15,8,0,8,0,0,0,0,0,0,0,0,0,0,0,0,0,0,0,0],"split_type":[0,0,0,0,0,0,0,0,0,0,0,0,0,0,0,0,0,0,0,0,0,0,0,0,0,0,0,0,0,0,0,0,0,0,0,0,0,0,0,0,0,0,0,0,0,0,0,0,0,0,0],"sum_hessian":[4.818365E3,4.381028E3,4.3733737E2,4.339175E3,4.185315E1,4.3167252E2,5.664878E0,4.2526743E3,8.650054E1,9.871346E1,3.3295905E2,9.203591E2,3.3323152E3,2.0725437E1,6.57751E1,3.394185E1,6.4771614E1,2.9139645E2,4.1562603E1,6.82595E2,2.377641E2,2.8957441E3,4.3657114E2,7.2193003E0,1.3506138E1,4.9256172E1,1.651893E1,1.6149878E1,1.7791971E1,2.0297413E1,4.4474197E1,3.1194944E1,2.602015E2,8.334607E0,3.3227997E1,2.979321E2,3.8466284E2,7.8979996E1,1.587841E2,2.5751306E3,3.2061356E2,2.0618535E2,2.303858E2,1.8095247E1,3.1160925E1,2.5761333E1,5.4336104E0,2.1155975E2,4.8641743E1,2.733756E1,5.890436E0],"tree_param":{"num_deleted":"0","num_feature":"21","num_nodes":"51","size_leaf_vector":"1"}},{"base_weights":[1.602431E-2,-1.3372086E-1,3.690795E-1,-6.434055E-2,-1.0237843E0,7.882877E-2,7.5446E-1,4.6479365E-1,-1.4268011E-1,-8.087211E-2,2.484495E-1,-1.439109E-1,8.035019E-1,8.1391424E-1,-7.304539E-2,-1.5743436E-2,1.0693184E0,-8.674437E-2,-9.194891E-2,-9.611631E-2,8.871676E-1,2.185136E-1,-1.2879822E0,9.265085E-1,-9.5181815E-2,2.1302237E-1,9.816927E-1,-9.336599E-2,4.596392E-1,1.2482958E0,-8.04079E-2,-1.4089768E-1,9.487407E-1,1.2170814E0,-9.5861256E-2,-1.3671758E-2,1.3822032E0,3.3708483E-1,-1.6668873E0,1.0471389E0,2.228884E-1,-7.431316E-2,6.2153244E-1,1.5680057E0,8.386639E-1,4.5329016E-2,-3.548455E-2,5.282668E-2,8.243291E-2,-6.509499E-2,-2.9428063E-3,-7.348986E-2,6.1852377E-2,2.7484545E-2,7.9969935E-2,-8.678486E-2,7.0881336E-3,8.285682E-2,-7.2158694E-2,6.485259E-2,-8.415969E-2,-7.686153E-2,-9.434932E-2,4.6571586E-2,7.317861E-2,-7.117064E-2,7.274434E-2,6.975692E-2,-1.0001695E-2,8.456152E-2,4.934845E-2,1.28485365E-2,5.5610437E-2],"categories":[],"categories_nodes":[],"categories_segments":[],"categories_sizes":[],"default_left":[0,0,0,0,0,0,0,0,0,0,0,0,0,0,0,0,0,0,0,0,0,0,0,0,0,0,0,0,0,0,0,0,0,0,0,0,0,0,0,0,0,0,0,0,0,0,0,0,0,0,0,0,0,0,0,0,0,0,0,0,0,0,0,0,0,0,0,0,0,0,0,0,0],"id":24,"left_children":[1,3,5,7,9,11,13,15,17,-1,19,21,23,25,-1,27,29,-1,31,-1,33,35,37,39,-1,41,43,-1,45,47,-1,49,51,53,-1,55,57,59,61,63,65,-1,67,69,71,-1,-1,-1,-1,-1,-1,-1,-1,-1,-1,-1,-1,-1,-1,-1,-1,-1,-1,-1,-1,-1,-1,-1,-1,-1,-1,-1,-1],"loss_changes":[2.4166916E2,1.9815103E2,1.5222035E2,1.2354373E2,1.7565985E2,1.2563855E2,7.820572E1,1.1167763E2,2.0948407E2,0E0,1.0527165E2,2.4726932E2,6.2695137E1,5.7265533E1,0E0,1.9022258E2,8.358913E1,0E0,1.2831668E2,0E0,5.6363903E1,1.2247551E2,8.888933E1,1.4679626E1,0E0,8.818954E1,3.6034363E1,0E0,9.0527855E1,1.0552673E1,0E0,2.2892072E2,8.072805E1,1.2609055E1,0E0,1.0164288E2,6.095926E1,5.6398132E1,4.2367554E-1,5.8506927E0,5.6801537E1,0E0,6.514046E1,4.5019836E0,5.702693E1,0E0,0E0,0E0,0E0,0E0,0E0,0E0,0E0,0E0,0E0,0E0,0E0,0E0,0E0,0E0,0E0,0E0,0E0,0E0,0E0,0E0,0E0,0E0,0E0,0E0,0E0,0E0,0E0],"parents":[2147483647,0,0,1,1,2,2,3,3,4,4,5,5,6,6,7,7,8,8,10,10,11,11,12,12,13,13,15,15,16,16,18,18,20,20,21,21,22,22,23,23,25,25,26,26,28,28,29,29,31,31,32,32,33,33,35,35,36,36,37,37,38,38,39,39,40,40,42,42,43,43,44,44],"right_children":[2,4,6,8,10,12,14,16,18,-1,20,22,24,26,-1,28,30,-1,32,-1,34,36,38,40,-1,42,44,-1,46,48,-1,50,52,54,-1,56,58,60,62,64,66,-1,68,70,72,-1,-1,-1,-1,-1,-1,-1,-1,-1,-1,-1,-1,-1,-1,-1,-1,-1,-1,-1,-1,-1,-1,-1,-1,-1,-1,-1,-1],"split_conditions":[6.4E1,4.7E1,6.7E1,1.91E1,3.8E1,1.15E2,8.6E1,1E2,2.02E1,-8.087211E-2,3E0,7.7E1,4E1,2E0,-7.304539E-2,1.6E1,1.82E1,-8.674437E-2,4.5E1,-9.611631E-2,5.8E1,1.1018822E2,1E0,1.25E2,-9.5181815E-2,7.1E1,8E1,-9.336599E-2,6.8E1,1.8E1,-8.04079E-2,5.4089638E1,5E1,3.13E1,-9.5861256E-2,2.45E1,3E0,1E0,3.8E1,1.36E2,1.83E2,-7.431316E-2,7.8E1,3.2E1,3.4E1,4.5329016E-2,-3.548455E-2,5.282668E-2,8.243291E-2,-6.509499E-2,-2.9428063E-3,-7.348986E-2,6.1852377E-2,2.7484545E-2,7.9969935E-2,-8.678486E-2,7.0881336E-3,8.285682E-2,-7.2158694E-2,6.485259E-2,-8.415969E-2,-7.686153E-2,-9.434932E-2,4.6571586E-2,7.317861E-2,-7.117064E-2,7.274434E-2,6.975692E-2,-1.0001695E-2,8.456152E-2,4.934845E-2,1.28485365E-2,5.5610437E-2],"split_indices":[13,14,10,8,3,14,9,10,8,0,4,18,10,4,0,13,8,0,14,0,9,20,1,13,0,14,10,0,9,14,0,20,13,8,0,8,17,4,3,14,14,0,13,3,3,0,0,0,0,0,0,0,0,0,0,0,0,0,0,0,0,0,0,0,0,0,0,0,0,0,0,0,0],"split_type":[0,0,0,0,0,0,0,0,0,0,0,0,0,0,0,0,0,0,0,0,0,0,0,0,0,0,0,0,0,0,0,0,0,0,0,0,0,0,0,0,0,0,0,0,0,0,0,0,0,0,0,0,0,0,0,0,0,0,0,0,0,0,0,0,0,0,0,0,0,0,0,0,0],"sum_hessian":[4.56922E3,3.2088408E3,1.3603796E3,2.9777944E3,2.3104634E2,7.766485E2,5.837311E2,3.8337894E2,2.5944155E3,1.5735092E2,7.369543E1,5.94669E2,1.8197946E2,5.690909E2,1.4640199E1,2.1413603E2,1.6924289E2,7.908613E1,2.5153293E3,1.6297237E1,5.7398186E1,4.522212E2,1.4244783E2,1.7469925E2,7.280209E0,1.2471145E2,4.4437946E2,4.3148426E1,1.7098761E2,1.5913895E2,1.0103948E1,2.4031616E3,1.1216793E2,5.186294E1,5.5352435E0,3.7782404E2,7.439714E1,2.6954481E1,1.1549335E2,1.4871495E2,2.598429E1,2.3658903E1,1.0105254E2,8.519199E1,3.5918747E2,1.23867645E2,4.711997E1,1.1006155E2,4.90774E1,1.5762862E2,2.245533E3,1.1510555E1,1.0065737E2,1.977703E1,3.2085915E1,3.0438251E1,3.473858E2,6.8176476E1,6.220667E0,1.8514847E1,8.439635E0,7.770368E1,3.778967E1,1.1891168E2,2.9803274E1,1.1055552E1,1.4928738E1,5.168583E1,4.9366714E1,6.870956E1,1.6482437E1,1.1550515E2,2.4368231E2],"tree_param":{"num_deleted":"0","num_feature":"21","num_nodes":"73","size_leaf_vector":"1"}},{"base_weights":[5.5015683E-3,-3.384064E-2,8.58681E-1,3.0308865E-2,-6.4656365E-1,1.1917272E0,5.9796333E-1,4.7169574E-2,-8.161163E-2,-7.480445E-2,3.0039215E-2,1.3088621E0,2.7835531E-2,-8.6895905E-2,7.758702E-1,1.255749E-1,-2.7585047E-1,-7.129826E-1,9.4725347E-1,1.1671721E0,8.484025E-2,9.0574324E-1,-7.248871E-2,1.4969413E-1,-8.055598E-2,-8.9910287E-1,3.645363E-2,-1.0767467E0,5.6752305E-2,1.3094826E0,-7.583982E-2,3.392331E-2,6.6493705E-2,5.413277E-1,1.2838911E0,-1.0365037E-2,1.190792E-2,8.182105E-4,-6.976424E-2,3.2844093E-2,-1.6280077E-2,-8.075745E-2,1.5345831E-2,7.396617E-2,-6.547973E-2,-8.175692E-2,4.1658133E-2,4.5387443E-2,7.309249E-2],"categories":[],"categories_nodes":[],"categories_segments":[],"categories_sizes":[],"default_left":[0,0,0,0,0,0,0,0,0,0,0,0,0,0,0,0,0,0,0,0,0,0,0,0,0,0,0,0,0,0,0,0,0,0,0,0,0,0,0,0,0,0,0,0,0,0,0,0,0],"id":25,"left_children":[1,3,5,7,9,11,13,15,-1,-1,17,19,-1,-1,21,23,25,27,29,31,-1,33,-1,35,-1,37,39,41,-1,43,-1,-1,-1,45,47,-1,-1,-1,-1,-1,-1,-1,-1,-1,-1,-1,-1,-1,-1],"loss_changes":[1.5138368E2,1.6948169E2,1.654953E1,1.09504616E2,2.3493211E2,5.6894608E0,4.8522194E1,9.7934204E1,0E0,0E0,1.5637027E2,1.9831161E0,0E0,0E0,3.2002747E1,1.3056178E2,1.4704993E2,8.645176E1,9.36266E1,3.5521317E0,0E0,1.3214157E1,0E0,9.698775E1,0E0,1.1457007E2,1.134579E2,7.9793686E1,0E0,4.1993973E1,0E0,0E0,0E0,3.510878E1,1.9399185E0,0E0,0E0,0E0,0E0,0E0,0E0,0E0,0E0,0E0,0E0,0E0,0E0,0E0,0E0],"parents":[2147483647,0,0,1,1,2,2,3,3,4,4,5,5,6,6,7,7,10,10,11,11,14,14,15,15,16,16,17,17,18,18,19,19,21,21,23,23,25,25,26,26,27,27,29,29,33,33,34,34],"right_children":[2,4,6,8,10,12,14,16,-1,-1,18,20,-1,-1,22,24,26,28,30,32,-1,34,-1,36,-1,38,40,42,-1,44,-1,-1,-1,46,48,-1,-1,-1,-1,-1,-1,-1,-1,-1,-1,-1,-1,-1,-1],"split_conditions":[1.17E2,2.1E2,3E0,1E0,9.322201E1,2.8E1,1.23E2,9.5454544E1,-8.161163E-2,-7.480445E-2,9.8666664E1,5E0,2.7835531E-2,-8.6895905E-2,2.31E2,1.5287692E2,4.3E1,8E0,1.0505051E2,1.1E1,8.484025E-2,1.2435897E2,-7.248871E-2,7.6E0,-8.055598E-2,1E0,2.51E1,1E-1,5.6752305E-2,9.1E1,-7.583982E-2,3.392331E-2,6.6493705E-2,1.8E1,9.5E1,-1.0365037E-2,1.190792E-2,8.182105E-4,-6.976424E-2,3.2844093E-2,-1.6280077E-2,-8.075745E-2,1.5345831E-2,7.396617E-2,-6.547973E-2,-8.175692E-2,4.1658133E-2,4.5387443E-2,7.309249E-2],"split_indices":[14,18,1,5,20,10,14,15,0,0,15,4,0,0,18,20,18,17,15,10,0,15,0,11,0,10,8,12,0,10,0,0,0,18,13,0,0,0,0,0,0,0,0,0,0,0,0,0,0],"split_type":[0,0,0,0,0,0,0,0,0,0,0,0,0,0,0,0,0,0,0,0,0,0,0,0,0,0,0,0,0,0,0,0,0,0,0,0,0,0,0,0,0,0,0,0,0,0,0,0,0],"sum_hessian":[4.5081694E3,4.310368E3,1.9780136E2,3.9027202E3,4.0764777E2,8.528526E1,1.1251609E2,3.8645E3,3.8220295E1,1.8019203E2,2.2745572E2,7.110763E1,1.4177635E1,7.3424525E0,1.0517364E2,3.110188E3,7.543119E2,1.2578323E2,1.01672485E2,5.5020767E1,1.6086864E1,9.9935165E1,5.238475E0,3.0684868E3,4.1701366E1,2.5117447E2,5.0313742E2,1.05444916E2,2.0338318E1,8.905018E1,1.2622312E1,1.5033834E1,3.998693E1,5.2129887E1,4.7805275E1,6.091078E2,2.459379E3,8.862546E1,1.6254901E2,1.8511119E2,3.1802625E2,7.578763E1,2.9657291E1,8.4035835E1,5.0143423E0,5.6192575E0,4.651063E1,1.7312859E1,3.0492418E1],"tree_param":{"num_deleted":"0","num_feature":"21","num_nodes":"49","size_leaf_vector":"1"}},{"base_weights":[1.8202111E-2,9.395867E-2,-6.0215242E-2,5.463292E-2,7.9315E-1,6.954416E-2,-8.1240624E-2,-7.451055E-2,8.7217265E-1,3.916779E-3,3.8909987E-1,1.0905421E0,4.5469552E-1,-1.0179231E0,4.8713665E-2,5.583737E-1,-7.424723E-2,3.829982E-1,1.1911603E0,-9.247307E-2,8.8908404E-1,1.2394235E-2,-8.795734E-2,1.593726E-2,-4.850383E-3,3.768983E-2,-7.557834E-3,6.452124E-2,-8.684176E-2,4.6595022E-2,6.557099E-2,5.4556865E-2,1.4652038E-2],"categories":[],"categories_nodes":[],"categories_segments":[],"categories_sizes":[],"default_left":[0,0,0,0,0,0,0,0,0,0,0,0,0,0,0,0,0,0,0,0,0,0,0,0,0,0,0,0,0,0,0,0,0],"id":26,"left_children":[1,3,-1,5,7,9,-1,-1,11,13,15,17,19,21,23,25,-1,27,29,-1,31,-1,-1,-1,-1,-1,-1,-1,-1,-1,-1,-1,-1],"loss_changes":[4.1906696E2,1.1710892E2,0E0,1.01156494E2,4.2223785E1,8.389143E1,0E0,0E0,1.9546494E1,1.52012E2,2.170388E2,9.769165E0,7.893182E1,1.3129276E2,1.2521226E2,8.6890045E1,0E0,3.947496E1,2.683731E0,0E0,7.586052E0,0E0,0E0,0E0,0E0,0E0,0E0,0E0,0E0,0E0,0E0,0E0,0E0],"parents":[2147483647,0,0,1,1,3,3,4,4,5,5,8,8,9,9,10,10,11,11,12,12,13,13,14,14,15,15,17,17,18,18,20,20],"right_children":[2,4,-1,6,8,10,-1,-1,12,14,16,18,20,22,24,26,-1,28,30,-1,32,-1,-1,-1,-1,-1,-1,-1,-1,-1,-1,-1,-1],"split_conditions":[8E0,1.13E2,-6.0215242E-2,1E0,9.5652176E1,8.25E1,-8.1240624E-2,-7.451055E-2,6.1E1,1E0,2.06E2,4E0,1.1162791E2,2.26E1,2.3E1,9.636364E1,-7.424723E-2,2.03E1,7.516941E1,-9.247307E-2,3E0,1.2394235E-2,-8.795734E-2,1.593726E-2,-4.850383E-3,3.768983E-2,-7.557834E-3,6.452124E-2,-8.684176E-2,4.6595022E-2,6.557099E-2,5.4556865E-2,1.4652038E-2],"split_indices":[0,14,0,5,15,19,0,0,19,14,18,0,15,8,18,15,0,8,20,0,4,0,0,0,0,0,0,0,0,0,0,0,0],"split_type":[0,0,0,0,0,0,0,0,0,0,0,0,0,0,0,0,0,0,0,0,0,0,0,0,0,0,0,0,0,0,0,0,0],"sum_hessian":[4.522708E3,4.2596675E3,2.630408E2,4.0338623E3,2.2580492E2,3.9993125E3,3.4549976E1,6.955907E0,2.1884901E2,3.3187505E3,6.805619E2,1.4263095E2,7.6218056E1,1.384694E2,3.180281E3,6.2482623E2,5.573564E1,1.8356333E1,1.2427461E2,1.1572997E1,6.4645065E1,5.138441E1,8.708499E1,1.114272E3,2.066009E3,4.8984732E2,1.349789E2,1.312797E1,5.228363E0,4.215161E1,8.212301E1,4.76586E1,1.6986462E1],"tree_param":{"num_deleted":"0","num_feature":"21","num_nodes":"33","size_leaf_vector":"1"}},{"base_weights":[4.79422E-2,-2.4992006E-2,7.913934E-1,-1.02991745E-1,3.5214272E-1,9.733378E-1,4.3702528E-1,-3.6705536E-1,1.0364116E-1,4.7777373E-1,-7.154458E-2,8.3291095E-1,1.1639712E0,6.746963E-1,-7.339041E-2,-7.4379824E-2,-2.7053055E-1,4.693078E-2,9.0286916E-1,2.4210727E-3,6.9479203E-1,-7.986465E-2,9.286838E-1,1.0100399E0,6.993487E-2,-9.0667106E-2,8.0787396E-1,4.143281E-2,-6.8241805E-1,-9.114473E-2,7.579395E-2,1.1107143E0,-6.5426536E-2,4.7601566E-1,-9.5622796E-1,7.58794E-1,-7.9538E-2,4.9385762E-1,1.0663685E0,1.2843455E0,5.5954105E-1,3.7294006E-1,1.1584064E0,1.6891558E-2,-3.5401203E-2,-4.7328785E-2,8.767436E-3,1.6463678E-2,-6.371853E-3,6.5799706E-2,-6.77542E-2,2.6542135E-4,6.723296E-2,-8.112793E-2,6.131777E-2,4.0303633E-2,-8.870195E-2,6.0162533E-2,-8.209081E-2,1.9908568E-2,5.851096E-2,7.1148776E-2,4.4229165E-2,8.792798E-3,5.6869477E-2,3.8735393E-2,-9.928831E-2,3.10922E-2,6.493241E-2],"categories":[],"categories_nodes":[],"categories_segments":[],"categories_sizes":[],"default_left":[0,0,0,0,0,0,0,0,0,0,0,0,0,0,0,0,0,0,0,0,0,0,0,0,0,0,0,0,0,0,0,0,0,0,0,0,0,0,0,0,0,0,0,0,0,0,0,0,0,0,0,0,0,0,0,0,0,0,0,0,0,0,0,0,0,0,0,0,0],"id":27,"left_children":[1,3,5,7,9,11,13,15,17,19,-1,21,23,25,-1,-1,27,29,31,33,35,-1,37,39,-1,-1,41,43,45,-1,47,49,-1,51,53,55,-1,57,59,61,63,65,67,-1,-1,-1,-1,-1,-1,-1,-1,-1,-1,-1,-1,-1,-1,-1,-1,-1,-1,-1,-1,-1,-1,-1,-1,-1,-1],"loss_changes":[2.5038928E2,1.2375763E2,2.6173248E1,1.9024052E2,1.621943E2,6.305847E0,6.5172676E1,1.6513489E2,8.862876E1,6.956E1,0E0,3.8724983E1,2.6615295E0,4.3456337E1,0E0,0E0,1.812464E2,9.878269E1,6.1004845E1,9.686888E1,6.8926895E1,0E0,8.727554E0,8.14167E0,0E0,0E0,1.8012535E1,1.7871577E2,1.3790195E2,0E0,9.281885E1,6.200531E1,0E0,5.838344E1,1.04596016E2,5.5438416E1,0E0,6.1117184E1,7.620941E0,1.1682281E0,6.209075E0,5.4100178E1,4.1976395E0,0E0,0E0,0E0,0E0,0E0,0E0,0E0,0E0,0E0,0E0,0E0,0E0,0E0,0E0,0E0,0E0,0E0,0E0,0E0,0E0,0E0,0E0,0E0,0E0,0E0,0E0],"parents":[2147483647,0,0,1,1,2,2,3,3,4,4,5,5,6,6,7,7,8,8,9,9,11,11,12,12,13,13,16,16,17,17,18,18,19,19,20,20,22,22,23,23,26,26,27,27,28,28,30,30,31,31,33,33,34,34,35,35,37,37,38,38,39,39,40,40,41,41,42,42],"right_children":[2,4,6,8,10,12,14,16,18,20,-1,22,24,26,-1,-1,28,30,32,34,36,-1,38,40,-1,-1,42,44,46,-1,48,50,-1,52,54,56,-1,58,60,62,64,66,68,-1,-1,-1,-1,-1,-1,-1,-1,-1,-1,-1,-1,-1,-1,-1,-1,-1,-1,-1,-1,-1,-1,-1,-1,-1,-1],"split_conditions":[4.3E1,8.34E1,6.5E1,5.6E1,2.1E2,2.97E1,6.1E1,5.9189007E1,3.38E2,3.6E1,-7.154458E-2,2.5E1,4.7E1,2E0,-7.339041E-2,-7.4379824E-2,5.075E1,3E0,2.86E1,8.2608696E1,2.145E2,-7.986465E-2,2.5E1,2.5E1,6.993487E-2,-9.0667106E-2,5E0,8.5E1,3.7E1,-9.114473E-2,2.3E1,1.1671159E2,-6.5426536E-2,8.055556E1,4.1E1,4E0,-7.9538E-2,2E0,4.8E1,9.387755E1,5.3E1,9.2E1,9.677419E1,1.6891558E-2,-3.5401203E-2,-4.7328785E-2,8.767436E-3,1.6463678E-2,-6.371853E-3,6.5799706E-2,-6.77542E-2,2.6542135E-4,6.723296E-2,-8.112793E-2,6.131777E-2,4.0303633E-2,-8.870195E-2,6.0162533E-2,-8.209081E-2,1.9908568E-2,5.851096E-2,7.1148776E-2,4.4229165E-2,8.792798E-3,5.6869477E-2,3.8735393E-2,-9.928831E-2,3.10922E-2,6.493241E-2],"split_indices":[3,19,18,9,18,8,19,20,18,18,0,14,3,17,0,0,19,3,8,15,19,0,18,9,0,0,17,15,3,0,18,20,0,15,3,17,0,1,9,15,9,14,15,0,0,0,0,0,0,0,0,0,0,0,0,0,0,0,0,0,0,0,0,0,0,0,0,0,0],"split_type":[0,0,0,0,0,0,0,0,0,0,0,0,0,0,0,0,0,0,0,0,0,0,0,0,0,0,0,0,0,0,0,0,0,0,0,0,0,0,0,0,0,0,0,0,0,0,0,0,0,0,0,0,0,0,0,0,0,0,0,0,0,0,0,0,0,0,0,0,0],"sum_hessian":[4.616402E3,4.204862E3,4.1153986E2,3.4848462E3,7.200157E2,2.707705E2,1.4076935E2,1.5294855E3,1.9553607E3,6.733071E2,4.6708565E1,1.590086E2,1.1176191E2,1.2572777E2,1.5041584E1,1.2015965E2,1.4093258E3,1.8267965E3,1.2856425E2,2.1135986E2,4.619473E2,5.434408E0,1.535742E2,7.070033E1,4.1061577E1,5.7469373E0,1.1998083E2,8.0245E2,6.068758E2,2.6825418E1,1.7999711E3,1.1797386E2,1.0590402E1,1.4180728E2,6.955259E1,4.5001364E2,1.1933657E1,3.803658E1,1.1553762E2,4.279303E1,2.7907307E1,5.4465275E1,6.551555E1,5.75427E2,2.2702306E2,4.639074E2,1.4296835E2,8.006906E2,9.9928046E2,1.0933771E2,8.636154E0,9.262243E1,4.9184845E1,5.348156E1,1.6071032E1,4.424367E2,7.576909E0,2.8880219E1,9.156361E0,1.6191603E1,9.9346016E1,2.987381E1,1.2919218E1,1.7555183E1,1.0352122E1,4.7112045E1,7.3532276E0,1.47016115E1,5.0813942E1],"tree_param":{"num_deleted":"0","num_feature":"21","num_nodes":"69","size_leaf_vector":"1"}},{"base_weights":[7.221321E-2,1.4498995E-1,-5.9524175E-2,3.9001584E-2,3.8937315E-1,1.9343317E-1,-4.832369E-1,6.337319E-2,7.8857785E-1,1.809118E-2,4.5572743E-1,7.7163346E-2,-1.178608E0,-1.0146598E0,2.1405303E-1,-7.691955E-2,8.600947E-1,-3.0501178E-1,3.403506E-1,6.8169254E-1,-9.049981E-2,-9.026106E-1,5.496171E-1,1.3314431E0,-1.5274705E0,-8.331343E-2,7.501637E-2,2.8218916E-1,-8.486197E-2,2.2440986E-3,1.0239956E0,-2.8946681E-3,-9.037757E-2,2.308199E-2,-7.568601E-2,-8.906745E-2,3.6841165E-2,-5.806866E-2,1.71369E-2,3.034184E-2,-8.256882E-2,-8.837999E-2,3.9448123E-2,4.022843E-2,9.6544996E-2,3.058436E-2,-8.645341E-2,-8.434241E-2,1.7412072E-2,4.1360565E-2,-8.286421E-2,5.300008E-2,-7.010281E-2],"categories":[],"categories_nodes":[],"categories_segments":[],"categories_sizes":[],"default_left":[0,0,0,0,0,0,0,0,0,0,0,0,0,0,0,0,0,0,0,0,0,0,0,0,0,0,0,0,0,0,0,0,0,0,0,0,0,0,0,0,0,0,0,0,0,0,0,0,0,0,0,0,0],"id":28,"left_children":[1,3,-1,5,7,9,11,13,15,17,19,21,23,25,27,-1,29,31,33,35,37,39,41,43,45,-1,-1,47,-1,49,51,-1,-1,-1,-1,-1,-1,-1,-1,-1,-1,-1,-1,-1,-1,-1,-1,-1,-1,-1,-1,-1,-1],"loss_changes":[4.2482184E2,1.1317812E2,0E0,2.4601523E2,1.7197723E2,1.0825735E2,2.7138757E2,1.1859073E2,1.0019577E2,1.4711761E2,1.1647003E2,1.7938228E2,2.7414096E2,1.4923735E2,8.384982E1,0E0,8.1132385E1,2.618761E2,1.5976857E2,9.191885E1,1.2884877E2,1.435253E2,1.4634134E2,1.0591469E1,1.18914185E2,0E0,0E0,8.10957E1,0E0,1.2947052E2,4.3806885E1,0E0,0E0,0E0,0E0,0E0,0E0,0E0,0E0,0E0,0E0,0E0,0E0,0E0,0E0,0E0,0E0,0E0,0E0,0E0,0E0,0E0,0E0],"parents":[2147483647,0,0,1,1,3,3,4,4,5,5,6,6,7,7,8,8,9,9,10,10,11,11,12,12,13,13,14,14,16,16,17,17,18,18,19,19,20,20,21,21,22,22,23,23,24,24,27,27,29,29,30,30],"right_children":[2,4,-1,6,8,10,12,14,16,18,20,22,24,26,28,-1,30,32,34,36,38,40,42,44,46,-1,-1,48,-1,50,52,-1,-1,-1,-1,-1,-1,-1,-1,-1,-1,-1,-1,-1,-1,-1,-1,-1,-1,-1,-1,-1,-1],"split_conditions":[8E0,6.1E1,-5.9524175E-2,3.6E1,6.6E1,6.3E1,5E0,6.9E1,2E0,1.4E1,7.7E1,3E0,1.3E1,8E1,5.6E1,-7.691955E-2,2E0,5.7E1,4E0,3E0,9.3E1,1E0,2.36E1,5.5E1,2E1,-8.331343E-2,7.501637E-2,2.7E1,-8.486197E-2,5E0,8.6E1,-2.8946681E-3,-9.037757E-2,2.308199E-2,-7.568601E-2,-8.906745E-2,3.6841165E-2,-5.806866E-2,1.71369E-2,3.034184E-2,-8.256882E-2,-8.837999E-2,3.9448123E-2,4.022843E-2,9.6544996E-2,3.058436E-2,-8.645341E-2,-8.434241E-2,1.7412072E-2,4.1360565E-2,-8.286421E-2,5.300008E-2,-7.010281E-2],"split_indices":[0,13,0,13,10,9,0,13,0,3,9,4,19,9,10,0,4,9,17,3,10,0,8,13,9,0,0,3,0,0,9,0,0,0,0,0,0,0,0,0,0,0,0,0,0,0,0,0,0,0,0,0,0],"split_type":[0,0,0,0,0,0,0,0,0,0,0,0,0,0,0,0,0,0,0,0,0,0,0,0,0,0,0,0,0,0,0,0,0,0,0,0,0,0,0,0,0,0,0,0,0,0,0,0,0,0,0,0,0],"sum_hessian":[4.62003E3,4.369098E3,2.5093199E2,3.0482427E3,1.3208553E3,2.35305E3,6.9519275E2,7.2773145E2,5.931239E2,1.4109249E3,9.42125E2,3.854485E2,3.097443E2,8.85402E1,6.391912E2,1.7073895E1,5.7605E2,7.045671E2,7.0635785E2,6.662574E2,2.758676E2,1.2510188E2,2.603466E2,3.7453247E1,2.7229105E2,7.058879E1,1.795141E1,6.180119E2,2.1179302E1,9.2567795E1,4.834822E2,6.059472E2,9.861987E1,6.636916E2,4.266623E1,1.3900959E1,6.5235645E2,7.897565E1,1.9689195E2,4.1543434E1,8.355845E1,2.3775875E1,2.3657072E2,2.1179937E1,1.6273308E1,2.3275887E1,2.4901515E2,1.9262188E1,5.9874976E2,6.216602E1,3.0401777E1,4.7696643E2,6.515765E0],"tree_param":{"num_deleted":"0","num_feature":"21","num_nodes":"53","size_leaf_vector":"1"}},{"base_weights":[6.674926E-2,1.35332E-1,-5.89691E-2,4.4611946E-2,5.65811E-1,-3.130578E-1,1.6907912E-1,9.557016E-1,4.320707E-1,-6.6463727E-1,2.3782584E-1,9.4050956E-1,1.2745783E-1,1.068286E0,1.4077276E-3,-5.221213E-1,6.158744E-1,-1.038217E0,3.1170905E-1,-7.563012E-1,7.6417124E-1,-9.6903406E-2,1.1444737E0,1.7039302E-1,-8.146706E-1,2.231298E-2,1.1399498E0,-8.881399E-2,5.0028093E-2,8.1121296E-1,-1.2415249E0,6.611344E-1,-7.833194E-2,3.4633707E-3,-6.887328E-2,3.37278E-2,-7.571848E-2,-8.305686E-2,2.6467508E-2,4.8859145E-2,-7.3048614E-2,2.2721102E-3,7.15683E-2,-5.6372206E-3,1.6937805E-2,2.9029706E-2,-8.656215E-2,6.1374884E-2,1.9883864E-2,2.0737667E-2,6.4968504E-2,-9.393035E-2,-4.7967974E-3,-8.847484E-2,3.4750856E-2],"categories":[],"categories_nodes":[],"categories_segments":[],"categories_sizes":[],"default_left":[0,0,0,0,0,0,0,0,0,0,0,0,0,0,0,0,0,0,0,0,0,0,0,0,0,0,0,0,0,0,0,0,0,0,0,0,0,0,0,0,0,0,0,0,0,0,0,0,0,0,0,0,0,0,0],"id":29,"left_children":[1,3,-1,5,7,9,11,13,15,17,19,21,23,25,27,29,31,33,35,37,39,-1,41,43,45,-1,47,-1,-1,49,51,53,-1,-1,-1,-1,-1,-1,-1,-1,-1,-1,-1,-1,-1,-1,-1,-1,-1,-1,-1,-1,-1,-1,-1],"loss_changes":[3.9287378E2,1.7010251E2,0E0,1.6028018E2,3.9121536E1,1.8018234E2,8.562915E1,2.0714813E1,9.965145E1,2.0736966E2,1.9043944E2,8.239466E1,1.0268442E2,7.1795044E0,3.9697113E1,8.926981E1,4.7990173E1,1.544336E2,1.05618004E2,1.4758392E2,1.1411063E2,0E0,4.034134E1,1.1565783E2,1.4253412E2,0E0,9.520157E0,0E0,0E0,5.8192616E0,4.3729134E1,3.9639618E1,0E0,0E0,0E0,0E0,0E0,0E0,0E0,0E0,0E0,0E0,0E0,0E0,0E0,0E0,0E0,0E0,0E0,0E0,0E0,0E0,0E0,0E0,0E0],"parents":[2147483647,0,0,1,1,3,3,4,4,5,5,6,6,7,7,8,8,9,9,10,10,11,11,12,12,13,13,14,14,15,15,16,16,17,17,18,18,19,19,20,20,22,22,23,23,24,24,26,26,29,29,30,30,31,31],"right_children":[2,4,-1,6,8,10,12,14,16,18,20,22,24,26,28,30,32,34,36,38,40,-1,42,44,46,-1,48,-1,-1,50,52,54,-1,-1,-1,-1,-1,-1,-1,-1,-1,-1,-1,-1,-1,-1,-1,-1,-1,-1,-1,-1,-1,-1,-1],"split_conditions":[8E0,3.8E1,-5.89691E-2,2E0,1.1E1,1.76E1,1.28E1,4E0,7.399672E1,8.25E1,1.8E1,7E0,8E1,1E0,8E1,2.51E1,7E0,2E0,2.92E1,5.76E1,2.66E1,-9.6903406E-2,6E0,7.8716606E1,1.5E1,2.231298E-2,7.669674E1,-8.881399E-2,5.0028093E-2,4.4E1,4.6E1,1.9E1,-7.833194E-2,3.4633707E-3,-6.887328E-2,3.37278E-2,-7.571848E-2,-8.305686E-2,2.6467508E-2,4.8859145E-2,-7.3048614E-2,2.2721102E-3,7.15683E-2,-5.6372206E-3,1.6937805E-2,2.9029706E-2,-8.656215E-2,6.1374884E-2,1.9883864E-2,2.0737667E-2,6.4968504E-2,-9.393035E-2,-4.7967974E-3,-8.847484E-2,3.4750856E-2],"split_indices":[0,3,0,4,18,11,19,4,20,19,3,3,9,4,9,8,0,18,8,19,11,0,0,20,18,0,20,0,0,3,3,9,0,0,0,0,0,0,0,0,0,0,0,0,0,0,0,0,0,0,0,0,0,0,0],"split_type":[0,0,0,0,0,0,0,0,0,0,0,0,0,0,0,0,0,0,0,0,0,0,0,0,0,0,0,0,0,0,0,0,0,0,0,0,0,0,0,0,0,0,0,0,0,0,0,0,0,0,0,0,0,0,0],"sum_hessian":[4.5941323E3,4.355322E3,2.388104E2,3.5981448E3,7.5717706E2,9.2849634E2,2.6696484E3,1.9182042E2,5.653566E2,5.6664886E2,3.6184747E2,1.3555763E2,2.5340908E3,1.7147137E2,2.0349049E1,9.101643E1,4.7434018E2,4.0978812E2,1.5686075E2,1.2511032E2,2.3673714E2,8.406952E0,1.2715068E2,2.4244229E3,1.09667984E2,1.8461027E1,1.5301035E2,7.0420685E0,1.330698E1,3.1852943E1,5.9163494E1,4.6538626E2,8.953908E0,9.6279E1,3.1350912E2,1.3138481E2,2.5475931E1,7.3258934E1,5.1851387E1,2.1656624E2,2.017091E1,2.6560547E1,1.0059013E2,9.041827E2,1.5202402E3,4.3625313E1,6.604267E1,1.3628267E2,1.6727673E1,1.8598057E1,1.3254887E1,3.760875E1,2.1554745E1,5.693983E0,4.596923E2],"tree_param":{"num_deleted":"0","num_feature":"21","num_nodes":"55","size_leaf_vector":"1"}},{"base_weights":[5.9595328E-2,1.2618016E-1,-5.8406204E-2,1.3104355E-2,4.6292928E-1,4.6710417E-2,-8.3019786E-2,3.538704E-1,1.247491E0,2.4947241E-1,-1.5354396E-1,-9.103879E-2,3.897053E-1,1.4322592E0,-6.520268E-2,2.7596459E-2,5.891144E-1,1.3018738E0,-2.2185333E-1,4.2984802E-1,-6.884255E-2,9.025973E-1,1.6539254E0,8.328198E-3,-8.7962255E-2,-2.5620524E-2,3.6913164E-2,3.7223604E-2,7.675947E-2,-8.544975E-2,-5.389146E-3,3.0536387E-2,6.9713034E-3,2.0923655E-2,5.9623003E-2,8.664297E-2,6.4575024E-2],"categories":[],"categories_nodes":[],"categories_segments":[],"categories_sizes":[],"default_left":[0,0,0,0,0,0,0,0,0,0,0,0,0,0,0,0,0,0,0,0,0,0,0,0,0,0,0,0,0,0,0,0,0,0,0,0,0],"id":30,"left_children":[1,3,-1,5,7,9,-1,11,13,15,17,-1,19,21,-1,23,25,27,29,31,-1,33,35,-1,-1,-1,-1,-1,-1,-1,-1,-1,-1,-1,-1,-1,-1],"loss_changes":[3.7169067E2,1.6419073E2,0E0,1.8168489E2,9.2303696E1,1.2861351E2,0E0,7.497871E1,6.404611E1,1.1858377E2,1.587377E2,0E0,6.713927E1,1.3002396E1,0E0,2.3693327E2,1.02537964E2,8.167976E0,2.5820282E2,4.8156067E1,0E0,4.92136E0,2.175293E-1,0E0,0E0,0E0,0E0,0E0,0E0,0E0,0E0,0E0,0E0,0E0,0E0,0E0,0E0],"parents":[2147483647,0,0,1,1,3,3,4,4,5,5,7,7,8,8,9,9,10,10,12,12,13,13,15,15,16,16,17,17,18,18,19,19,21,21,22,22],"right_children":[2,4,-1,6,8,10,-1,12,14,16,18,-1,20,22,-1,24,26,28,30,32,-1,34,36,-1,-1,-1,-1,-1,-1,-1,-1,-1,-1,-1,-1,-1,-1],"split_conditions":[8E0,7.1E1,-5.8406204E-2,6.6E1,3.25E2,7.027027E1,-8.3019786E-2,7.25E1,3.98E2,9.1E1,1.28E1,-9.103879E-2,2.67E2,1E0,-6.520268E-2,8E1,4E0,2.3E1,7.5E1,5.75E1,-6.884255E-2,1.1E2,8.2E1,8.328198E-3,-8.7962255E-2,-2.5620524E-2,3.6913164E-2,3.7223604E-2,7.675947E-2,-8.544975E-2,-5.389146E-3,3.0536387E-2,6.9713034E-3,2.0923655E-2,5.9623003E-2,8.664297E-2,6.4575024E-2],"split_indices":[0,13,0,13,18,15,0,15,18,10,19,0,18,2,0,10,18,14,15,19,0,14,13,0,0,0,0,0,0,0,0,0,0,0,0,0,0],"split_type":[0,0,0,0,0,0,0,0,0,0,0,0,0,0,0,0,0,0,0,0,0,0,0,0,0,0,0,0,0,0,0,0,0,0,0,0,0],"sum_hessian":[4.544011E3,4.311098E3,2.3291331E2,3.2281633E3,1.0829347E3,3.1655667E3,6.2596622E1,9.520456E2,1.3088911E2,1.572813E3,1.5927537E3,1.4626462E1,9.374191E2,1.2245994E2,8.429176E0,9.51992E2,6.20821E2,7.05943E1,1.5221594E3,9.173306E2,2.0088491E1,3.7626034E1,8.48339E1,8.841371E2,6.785496E1,7.374541E1,5.4707556E2,2.206672E1,4.8527576E1,1.07442635E2,1.4147168E3,5.64591E2,3.5273965E2,1.5006356E1,2.261968E1,6.6556915E1,1.8276985E1],"tree_param":{"num_deleted":"0","num_feature":"21","num_nodes":"37","size_leaf_vector":"1"}}]},"name":"gbtree"},"learner_model_param":{"base_score":"5E-1","boost_from_average":"1","num_class":"0","num_feature":"21","num_target":"1"},"objective":{"name":"binary:logistic","reg_loss_param":{"scale_pos_weight":"65.1313095"}}},"version":[2,1,3]}