{"learner":{"attributes":{"best_iteration":"11","best_score":"0.04245499570509919","scikit_learn":"{\"_estimator_type\": \"classifier\"}"},"feature_names":["bowler_type_encoded","pitch_type_encoded","match_phase_encoded","over","ball","is_wide","is_noball","format_encoded","temperature","humidity","cloud_cover","wind_speed","precipitation","balls_faced_so_far","runs_scored_so_far","strike_rate_so_far","wickets_fallen_before","bowler_career_dismissals_of_kohli","bowler_career_balls_to_kohli","kohli_last5_avg","kohli_last5_sr"],"feature_types":["int","int","int","int","int","int","int","int","float","float","float","float","float","int","int","float","int","int","int","float","float"],"gradient_booster":{"model":{"gbtree_model_param":{"num_parallel_tree":"1","num_trees":"42"},"iteration_indptr":[0,1,2,3,4,5,6,7,8,9,10,11,12,13,14,15,16,17,18,19,20,21,22,23,24,25,26,27,28,29,30,31,32,33,34,35,36,37,38,39,40,41,42],"tree_info":[0,0,0,0,0,0,0,0,0,0,0,0,0,0,0,0,0,0,0,0,0,0,0,0,0,0,0,0,0,0,0,0,0,0,0,0,0,0,0,0,0,0],"trees":[{"base_weights":[4.7863226E-2,1.9753379E-1,-9.988827E-2,-5.619221E-2,8.204597E-1,1.1056349E0,-1.5263462E-1,1.1027018E0,2.5483146E-1,-4.642671E-1,1.2033474E0,-3.775635E-1,7.556158E-2,8.3227813E-1,1.5082304E0,-7.533079E-2,1.0344123E0,-9.569892E-2,7.431275E-2,1.2290719E0,-8.3333336E-2,-1.3220404E-1,-7.2586393E-1,-2.9020718E-1,2.2855651E-1,9.048101E-1,-9.241612E-1,1.5516822E0,1.013578E0,9.960377E-2,-1.3785015E0,-3.7216836E-1,1.1988888E0,7.321572E-2,4.6987288E-2,-2.5306124E-2,7.708491E-3,1.7803729E-3,-4.429776E-2,4.4471692E-2,-2.1403037E-2,1.5773898E-2,-6.186691E-2,5.7852503E-2,2.7991606E-2,-9.7333334E-2,5.0662156E-2,5.5021387E-2,7.910103E-2,7.375085E-2,-9.1304354E-2,9.502433E-3,-9.68E-2,-9.8726116E-2,4.703496E-2,5.25437E-2,-9.459459E-2,6.318677E-2,-8.62069E-2],"categories":[],"categories_nodes":[],"categories_segments":[],"categories_sizes":[],"default_left":[0,0,0,0,0,0,0,0,0,0,0,0,0,0,0,0,0,0,0,0,0,0,0,0,0,0,0,0,0,0,0,0,0,0,0,0,0,0,0,0,0,0,0,0,0,0,0,0,0,0,0,0,0,0,0,0,0,0,0],"id":0,"left_children":[1,3,-1,5,7,9,11,13,15,17,19,21,23,25,27,29,31,-1,-1,33,-1,35,37,39,41,43,45,47,49,51,53,55,57,-1,-1,-1,-1,-1,-1,-1,-1,-1,-1,-1,-1,-1,-1,-1,-1,-1,-1,-1,-1,-1,-1,-1,-1,-1,-1],"loss_changes":[4.0192266E3,1.933365E3,0E0,9.741881E2,5.6491675E2,1.0278296E2,4.1205685E2,2.577212E2,3.0375183E2,1.1529758E2,4.8385925E1,3.4539636E2,2.2310234E2,1.8161407E2,1.8707031E1,1.8929446E2,8.166873E1,0E0,0E0,4.1000916E1,0E0,2.5419398E2,2.0369348E2,1.9159903E2,3.5852344E2,1.1797717E2,1.1443106E2,1.0107422E1,1.0630628E2,1.352246E2,1.3769307E2,8.3126625E1,6.1803772E1,0E0,0E0,0E0,0E0,0E0,0E0,0E0,0E0,0E0,0E0,0E0,0E0,0E0,0E0,0E0,0E0,0E0,0E0,0E0,0E0,0E0,0E0,0E0,0E0,0E0,0E0],"parents":[2147483647,0,0,1,1,3,3,4,4,5,5,6,6,7,7,8,8,9,9,10,10,11,11,12,12,13,13,14,14,15,15,16,16,19,19,21,21,22,22,23,23,24,24,25,25,26,26,27,27,28,28,29,29,30,30,31,31,32,32],"right_children":[2,4,-1,6,8,10,12,14,16,18,20,22,24,26,28,30,32,-1,-1,34,-1,36,38,40,42,44,46,48,50,52,54,56,58,-1,-1,-1,-1,-1,-1,-1,-1,-1,-1,-1,-1,-1,-1,-1,-1,-1,-1,-1,-1,-1,-1,-1,-1,-1,-1],"split_conditions":[9E0,2E0,-9.988827E-2,1E0,3.6E1,4.1E1,3E0,1.3E1,3.6E1,6E0,4E-1,3.8E1,2E0,7E0,2E0,5E0,5.1E1,-9.569892E-2,7.431275E-2,3E0,-8.3333336E-2,4.825E1,3E0,1E0,6E0,9E0,7.46E1,7E0,1.1488993E2,4.2E1,4.3E1,1E0,1.2025E2,7.321572E-2,4.6987288E-2,-2.5306124E-2,7.708491E-3,1.7803729E-3,-4.429776E-2,4.4471692E-2,-2.1403037E-2,1.5773898E-2,-6.186691E-2,5.7852503E-2,2.7991606E-2,-9.7333334E-2,5.0662156E-2,5.5021387E-2,7.910103E-2,7.375085E-2,-9.1304354E-2,9.502433E-3,-9.68E-2,-9.8726116E-2,4.703496E-2,5.25437E-2,-9.459459E-2,6.318677E-2,-8.62069E-2],"split_indices":[0,7,0,2,18,3,1,3,13,17,12,3,4,0,17,4,18,0,0,1,0,19,18,0,17,18,19,14,20,14,14,17,19,0,0,0,0,0,0,0,0,0,0,0,0,0,0,0,0,0,0,0,0,0,0,0,0,0,0],"split_type":[0,0,0,0,0,0,0,0,0,0,0,0,0,0,0,0,0,0,0,0,0,0,0,0,0,0,0,0,0,0,0,0,0,0,0,0,0,0,0,0,0,0,0,0,0,0,0,0,0,0,0,0,0,0,0,0,0,0,0],"sum_hessian":[1.312513E4,1.223113E4,8.94E2,8.691768E3,3.5393623E3,6.653946E2,8.0263726E3,2.3605337E3,1.1788287E3,3.8768417E1,6.2662616E2,4.0417942E3,3.9845784E3,1.4180023E3,9.425313E2,8.2874725E2,3.5008148E2,2.225E1,1.6518417E1,6.2162616E2,5E0,2.3721313E3,1.669663E3,1.1748761E3,2.8097021E3,1.3622339E3,5.5768417E1,8.6445764E2,7.807367E1,7.314788E2,9.726842E1,3.6518417E1,3.1356308E2,3.4061832E2,2.8100784E2,1.0284789E3,1.3436523E3,2.9018417E2,1.3794789E3,1.223605E2,1.0525156E3,2.6531653E3,1.5653683E2,7.855235E2,5.767104E2,3.65E1,1.9268417E1,5.680525E1,8.076524E2,6.757367E1,1.05E1,7.012288E2,3.025E1,7.75E1,1.9768417E1,1.9018417E1,1.75E1,3.0731308E2,6.25E0],"tree_param":{"num_deleted":"0","num_feature":"21","num_nodes":"59","size_leaf_vector":"1"}},{"base_weights":[5.8002654E-3,1.4856407E-1,-9.514104E-2,-9.1199785E-2,7.410649E-1,9.50426E-1,-1.6832355E-1,1.0291501E0,1.2609962E-1,1.1358854E0,1.3435468E-1,-6.9299266E-2,-6.093443E-1,1.5323309E0,8.0676574E-1,-1.7149611E-1,9.387261E-1,6.9618464E-1,1.555596E0,6.9254094E-1,-9.675654E-2,-4.4498622E-1,1.4625093E-2,-8.4475154E-1,7.6644644E-2,1.6087518E0,9.007264E-1,8.561946E-1,-7.975252E-1,7.37745E-1,-3.8007456E-1,-8.826853E-2,1.0341485E0,4.9428828E-2,-9.697954E-2,5.6063224E-2,8.68369E-2,-9.459665E-2,5.7835687E-2,-9.3067875E-3,-6.5705016E-2,1.0860842E-2,-7.1303244E-3,-8.498246E-3,-6.6497505E-2,6.252853E-2,-1.5122528E-2,4.6262275E-2,8.143274E-2,-9.355979E-2,6.49499E-2,5.285844E-2,2.99436E-2,5.374079E-2,-9.752493E-2,-9.445869E-2,5.669247E-2,1.0069464E-2,-3.5787627E-2,5.5117913E-2,-8.306693E-2],"categories":[],"categories_nodes":[],"categories_segments":[],"categories_sizes":[],"default_left":[0,0,0,0,0,0,0,0,0,0,0,0,0,0,0,0,0,0,0,0,0,0,0,0,0,0,0,0,0,0,0,0,0,0,0,0,0,0,0,0,0,0,0,0,0,0,0,0,0,0,0,0,0,0,0,0,0,0,0,0,0],"id":1,"left_children":[1,3,-1,5,7,9,11,13,15,17,19,21,23,25,27,29,31,33,35,37,-1,39,41,43,45,47,49,51,53,55,57,-1,59,-1,-1,-1,-1,-1,-1,-1,-1,-1,-1,-1,-1,-1,-1,-1,-1,-1,-1,-1,-1,-1,-1,-1,-1,-1,-1,-1,-1],"loss_changes":[3.521853E3,1.7084192E3,0E0,6.879837E2,6.136492E2,8.92027E1,3.481372E2,2.627505E2,2.6771707E2,8.7672E1,1.289404E2,2.053216E2,2.3611957E2,3.3398438E1,1.3058765E2,1.5401793E2,7.838751E1,1.8432492E2,1.7347961E1,1.0743647E2,0E0,2.6726624E2,1.6961409E2,3.56115E2,1.6698903E2,7.2370605E0,9.09665E1,8.157825E1,1.0891641E2,1.5988885E2,1.289747E2,0E0,5.464142E1,0E0,0E0,0E0,0E0,0E0,0E0,0E0,0E0,0E0,0E0,0E0,0E0,0E0,0E0,0E0,0E0,0E0,0E0,0E0,0E0,0E0,0E0,0E0,0E0,0E0,0E0,0E0,0E0],"parents":[2147483647,0,0,1,1,3,3,4,4,5,5,6,6,7,7,8,8,9,9,10,10,11,11,12,12,13,13,14,14,15,15,16,16,17,17,18,18,19,19,21,21,22,22,23,23,24,24,25,25,26,26,27,27,28,28,29,29,30,30,32,32],"right_children":[2,4,-1,6,8,10,12,14,16,18,20,22,24,26,28,30,32,34,36,38,-1,40,42,44,46,48,50,52,54,56,58,-1,60,-1,-1,-1,-1,-1,-1,-1,-1,-1,-1,-1,-1,-1,-1,-1,-1,-1,-1,-1,-1,-1,-1,-1,-1,-1,-1,-1,-1],"split_conditions":[9E0,2E0,-9.514104E-2,1E0,3.7E1,6.22E1,2E2,1E0,3.7E1,1.02E2,8.770074E1,6.6E0,7.2E1,6.525E1,1.4544812E2,5.2E0,4.7E1,9.2E1,5E0,6.3960987E1,-9.675654E-2,6.2E0,5.5737705E1,4.5454544E1,4.38E1,7.1875E1,1.2727273E2,9E0,1E0,2.3E0,5E0,-8.826853E-2,1.2025E2,4.9428828E-2,-9.697954E-2,5.6063224E-2,8.68369E-2,-9.459665E-2,5.7835687E-2,-9.3067875E-3,-6.5705016E-2,1.0860842E-2,-7.1303244E-3,-8.498246E-3,-6.6497505E-2,6.252853E-2,-1.5122528E-2,4.6262275E-2,8.143274E-2,-9.355979E-2,6.49499E-2,5.285844E-2,2.99436E-2,5.374079E-2,-9.752493E-2,-9.445869E-2,5.669247E-2,1.0069464E-2,-3.5787627E-2,5.5117913E-2,-8.306693E-2],"split_indices":[0,7,0,2,18,19,18,2,13,14,20,11,14,19,20,11,18,14,0,20,0,11,15,15,19,15,15,18,18,11,3,0,19,0,0,0,0,0,0,0,0,0,0,0,0,0,0,0,0,0,0,0,0,0,0,0,0,0,0,0,0],"split_type":[0,0,0,0,0,0,0,0,0,0,0,0,0,0,0,0,0,0,0,0,0,0,0,0,0,0,0,0,0,0,0,0,0,0,0,0,0,0,0,0,0,0,0,0,0,0,0,0,0,0,0,0,0,0,0,0,0,0,0,0,0],"sum_hessian":[1.2923047E4,1.202454E4,8.985069E2,8.56104E3,3.4635E3,5.893958E2,7.971644E3,2.3581384E3,1.1053617E3,4.7993454E2,1.09461266E2,6.510885E3,1.4607595E3,7.209599E2,1.6371785E3,8.0964636E2,2.957154E2,2.3568399E2,2.4425055E2,8.673284E1,2.2728422E1,1.1880924E3,5.322792E3,1.0873783E3,3.7338132E2,6.417628E2,7.919708E1,1.5886963E3,4.8482117E1,1.5060176E2,6.5904456E2,9.483026E0,2.8623236E2,2.1271233E2,2.297167E1,7.4002235E1,1.702483E2,1.2737215E1,7.399563E1,9.163791E2,2.7171338E2,2.3257275E3,2.9970647E3,4.553933E2,6.319849E2,9.05819E1,2.8279944E2,1.9502314E1,6.222605E2,9.48492E0,6.9712166E1,8.9026953E2,6.9842676E2,1.8502789E1,2.9979328E1,1.9239334E1,1.3136243E2,2.4135968E2,4.1768488E2,2.7974445E2,6.487938E0],"tree_param":{"num_deleted":"0","num_feature":"21","num_nodes":"61","size_leaf_vector":"1"}},{"base_weights":[3.589927E-2,1.7036606E-1,-9.103706E-2,-6.401112E-2,7.3873276E-1,-3.3460873E-1,1.6633713E-1,1.0491056E0,4.400957E-1,-9.841063E-1,-1.8558918E-1,-2.77672E-2,1.061795E0,7.184703E-1,1.2916253E0,6.426017E-1,1.5233344E-2,-1.0457363E0,9.321084E-2,-7.3117E-2,-1.1154356E0,-3.4962222E-1,2.0079538E-1,1.0862252E0,-8.827957E-2,-9.24219E-2,7.677591E-1,6.566745E-1,1.3342971E0,-2.6767963E-1,8.564308E-1,-3.303253E-1,9.1837764E-1,-7.4031025E-2,-2.7007371E-2,2.2400318E-2,-1.3642417E-2,-3.5195004E-2,-9.753476E-2,4.6492048E-2,-2.4722878E-2,1.5174654E-2,-4.8092518E-2,-8.8267714E-2,5.5421274E-2,6.548437E-2,2.6057858E-2,6.760321E-2,-9.6451096E-2,6.998979E-2,5.1462825E-2,9.230166E-3,-9.969162E-2,-9.653861E-2,4.483398E-2,-3.06902E-3,-9.7879E-2,5.9616216E-2,-9.052789E-2],"categories":[],"categories_nodes":[],"categories_segments":[],"categories_sizes":[],"default_left":[0,0,0,0,0,0,0,0,0,0,0,0,0,0,0,0,0,0,0,0,0,0,0,0,0,0,0,0,0,0,0,0,0,0,0,0,0,0,0,0,0,0,0,0,0,0,0,0,0,0,0,0,0,0,0,0,0,0,0],"id":2,"left_children":[1,3,-1,5,7,9,11,13,15,17,19,21,23,25,27,29,31,33,-1,35,37,39,41,43,-1,-1,45,47,49,51,53,55,57,-1,-1,-1,-1,-1,-1,-1,-1,-1,-1,-1,-1,-1,-1,-1,-1,-1,-1,-1,-1,-1,-1,-1,-1,-1,-1],"loss_changes":[3.256319E3,1.6201873E3,0E0,5.368593E2,3.286808E2,3.8313422E2,8.0872034E2,1.3864197E2,1.5584335E2,1.3164996E2,3.369363E2,2.8143604E2,5.917218E1,9.488574E1,2.6295166E1,2.3900406E2,1.8310648E2,1.5835455E2,0E0,2.99456E2,1.1813089E2,2.9484814E2,2.674113E2,5.4020325E1,0E0,0E0,9.627878E1,1.1969908E2,1.7314575E1,1.831398E2,1.1319617E2,1.8560674E2,1.2353529E2,0E0,0E0,0E0,0E0,0E0,0E0,0E0,0E0,0E0,0E0,0E0,0E0,0E0,0E0,0E0,0E0,0E0,0E0,0E0,0E0,0E0,0E0,0E0,0E0,0E0,0E0],"parents":[2147483647,0,0,1,1,3,3,4,4,5,5,6,6,7,7,8,8,9,9,10,10,11,11,12,12,13,13,14,14,15,15,16,16,17,17,19,19,20,20,21,21,22,22,23,23,26,26,27,27,28,28,29,29,30,30,31,31,32,32],"right_children":[2,4,-1,6,8,10,12,14,16,18,20,22,24,26,28,30,32,34,-1,36,38,40,42,44,-1,-1,46,48,50,52,54,56,58,-1,-1,-1,-1,-1,-1,-1,-1,-1,-1,-1,-1,-1,-1,-1,-1,-1,-1,-1,-1,-1,-1,-1,-1,-1,-1],"split_conditions":[9E0,2E0,-9.103706E-2,1E0,1E0,6.6E0,3.9E1,1E1,6.125E1,1.79E2,1.0653082E2,5.2E1,1E0,2.4E0,6.712329E1,9.285714E1,1.19333336E2,8.2820045E1,9.321084E-2,1.12E1,5.75E1,3E0,4E0,1.37E1,-8.827957E-2,-9.24219E-2,3E0,4.3548386E1,1.75E1,3E0,1E0,9.85E1,1.3448276E2,-7.4031025E-2,-2.7007371E-2,2.2400318E-2,-1.3642417E-2,-3.5195004E-2,-9.753476E-2,4.6492048E-2,-2.4722878E-2,1.5174654E-2,-4.8092518E-2,-8.8267714E-2,5.5421274E-2,6.548437E-2,2.6057858E-2,6.760321E-2,-9.6451096E-2,6.998979E-2,5.1462825E-2,9.230166E-3,-9.969162E-2,-9.653861E-2,4.483398E-2,-3.06902E-3,-9.7879E-2,5.9616216E-2,-9.052789E-2],"split_indices":[0,7,0,7,17,11,3,3,19,3,20,9,5,11,15,15,19,20,0,11,19,11,17,8,0,0,0,15,11,1,1,19,15,0,0,0,0,0,0,0,0,0,0,0,0,0,0,0,0,0,0,0,0,0,0,0,0,0,0],"split_type":[0,0,0,0,0,0,0,0,0,0,0,0,0,0,0,0,0,0,0,0,0,0,0,0,0,0,0,0,0,0,0,0,0,0,0,0,0,0,0,0,0,0,0,0,0,0,0,0,0,0,0,0,0,0,0,0,0,0,0],"sum_hessian":[1.3040957E4,1.21611E4,8.798568E2,8.611051E3,3.5500486E3,3.9593826E3,4.6516685E3,1.739587E3,1.8104617E3,7.378556E2,3.221527E3,3.8237751E3,8.278933E2,7.3774994E2,1.0018371E3,1.2257219E3,5.847397E2,7.2284796E2,1.5007633E1,2.874868E3,3.4665903E2,1.5876143E3,2.236161E3,8.2141174E2,6.481603E0,1.3211426E1,7.245385E2,6.412045E1,9.377166E2,2.3310977E2,9.926122E2,4.23381E2,1.6135866E2,3.875591E2,3.3528888E2,7.962117E2,2.0786562E3,2.3347012E2,1.1318891E2,1.6089156E2,1.4267228E3,2.0553489E3,1.8081215E2,5.738936E0,8.156728E2,2.2524126E2,4.9929724E2,5.0906822E1,1.3213634E1,7.6900574E2,1.6871092E2,1.8541959E2,4.7690193E1,1.3461202E1,9.79151E2,3.642219E2,5.9159138E1,1.4714996E2,1.4208699E1],"tree_param":{"num_deleted":"0","num_feature":"21","num_nodes":"59","size_leaf_vector":"1"}},{"base_weights":[1.800691E-2,9.696191E-1,-1.1609478E-1,9.910297E-1,-9.1503434E-2,1.5655026E-1,-3.1272703E-1,1.1692243E0,6.744136E-1,3.9983806E-1,-5.693132E-2,-8.089235E-1,-2.0287551E-1,-8.621775E-2,1.1866982E0,7.9452497E-1,-9.983014E-2,-8.451295E-1,4.931304E-1,5.491592E-1,-1.6720971E-1,-1.1806545E0,-4.6072823E-1,-2.8439024E-1,5.5994004E-1,5.8190838E-2,1.2174971E0,-9.4976485E-2,8.647328E-1,-9.675515E-2,3.545924E-1,5.2122056E-1,-9.306377E-2,7.15212E-1,-9.374481E-2,8.227254E-2,-4.0911767E-1,-5.0914663E-1,-1.6895918E0,1.1347885E-1,-1.0756657E0,-5.3105503E-2,-5.764133E-1,8.671775E-1,-4.4244143E-1,-9.4316505E-2,8.4518366E-2,4.51337E-2,6.517435E-2,4.6236854E-2,-9.4336435E-2,-9.0228945E-2,5.388402E-2,2.7270788E-2,-9.489874E-2,4.1578133E-2,-9.159566E-2,-9.527374E-2,7.676144E-3,-1.3143397E-2,-9.6860416E-2,5.2904008E-5,-9.480872E-2,-2.1522498E-2,-9.353054E-2,2.1503476E-2,-5.2179486E-2,-6.985565E-2,3.360218E-2,2.1227698E-3,-5.715589E-2,2.5378635E-2,-3.870587E-2,6.0078144E-2,3.6200879E-3,-9.374257E-2,6.911277E-2],"categories":[],"categories_nodes":[],"categories_segments":[],"categories_sizes":[],"default_left":[0,0,0,0,0,0,0,0,0,0,0,0,0,0,0,0,0,0,0,0,0,0,0,0,0,0,0,0,0,0,0,0,0,0,0,0,0,0,0,0,0,0,0,0,0,0,0,0,0,0,0,0,0,0,0,0,0,0,0,0,0,0,0,0,0,0,0,0,0,0,0,0,0,0,0,0,0],"id":3,"left_children":[1,3,5,7,-1,9,11,13,15,17,19,21,23,-1,25,27,-1,29,31,33,35,37,39,41,43,45,47,-1,49,-1,51,53,-1,55,-1,57,59,61,63,65,67,69,71,73,75,-1,-1,-1,-1,-1,-1,-1,-1,-1,-1,-1,-1,-1,-1,-1,-1,-1,-1,-1,-1,-1,-1,-1,-1,-1,-1,-1,-1,-1,-1,-1,-1],"loss_changes":[1.643824E3,9.7184814E1,6.0533765E2,8.8331665E1,0E0,2.457636E2,3.574051E2,5.308313E1,1.8484543E2,2.5727197E2,1.6859138E2,1.533172E2,3.3420856E2,0E0,3.4822144E1,1.0517157E2,0E0,2.0276611E2,1.370744E2,1.5764642E2,1.2880447E2,1.9540497E2,2.1743031E2,3.278272E2,1.6021721E2,9.1169624E1,2.527771E1,0E0,8.993106E1,0E0,1.1811748E2,1.2011835E2,0E0,1.09441284E2,0E0,1.49175E2,2.4162279E2,1.76232E2,7.355823E1,1.1736186E2,1.6794382E2,2.8232166E2,4.6015192E2,1.05572815E2,3.2255722E2,0E0,0E0,0E0,0E0,0E0,0E0,0E0,0E0,0E0,0E0,0E0,0E0,0E0,0E0,0E0,0E0,0E0,0E0,0E0,0E0,0E0,0E0,0E0,0E0,0E0,0E0,0E0,0E0,0E0,0E0,0E0,0E0],"parents":[2147483647,0,0,1,1,2,2,3,3,5,5,6,6,7,7,8,8,9,9,10,10,11,11,12,12,14,14,15,15,17,17,18,18,19,19,20,20,21,21,22,22,23,23,24,24,25,25,26,26,28,28,30,30,31,31,33,33,35,35,36,36,37,37,38,38,39,39,40,40,41,41,42,42,43,43,44,44],"right_children":[2,4,6,8,-1,10,12,14,16,18,20,22,24,-1,26,28,-1,30,32,34,36,38,40,42,44,46,48,-1,50,-1,52,54,-1,56,-1,58,60,62,64,66,68,70,72,74,76,-1,-1,-1,-1,-1,-1,-1,-1,-1,-1,-1,-1,-1,-1,-1,-1,-1,-1,-1,-1,-1,-1,-1,-1,-1,-1,-1,-1,-1,-1,-1,-1],"split_conditions":[1E0,1E0,1.5E1,4.4E1,-9.1503434E-2,2.3E1,6.6E0,1.61E1,2.02E1,4.7E0,5.8E0,5E1,1.03E2,-8.621775E-2,2.8E0,2E1,-9.983014E-2,1.8E1,4.02E1,5E0,8E0,4E0,1.15E2,5.44E1,8.2666664E1,1.05E2,3E0,-9.4976485E-2,1.22E2,-9.675515E-2,5.775E1,1E0,-9.306377E-2,2.54E2,-9.374481E-2,1E0,1.2059499E2,2.4E1,2E1,3E0,2.11E2,1.07E2,1.1E1,1.0350786E2,2.58E2,-9.4316505E-2,8.4518366E-2,4.51337E-2,6.517435E-2,4.6236854E-2,-9.4336435E-2,-9.0228945E-2,5.388402E-2,2.7270788E-2,-9.489874E-2,4.1578133E-2,-9.159566E-2,-9.527374E-2,7.676144E-3,-1.3143397E-2,-9.6860416E-2,5.2904008E-5,-9.480872E-2,-2.1522498E-2,-9.353054E-2,2.1503476E-2,-5.2179486E-2,-6.985565E-2,3.360218E-2,2.1227698E-3,-5.715589E-2,2.5378635E-2,-3.870587E-2,6.0078144E-2,3.6200879E-3,-9.374257E-2,6.911277E-2],"split_indices":[2,5,3,18,0,18,11,8,11,11,11,14,14,0,11,13,0,14,8,4,3,11,13,19,19,14,18,0,14,0,19,5,0,18,0,1,20,10,19,1,14,13,13,20,13,0,0,0,0,0,0,0,0,0,0,0,0,0,0,0,0,0,0,0,0,0,0,0,0,0,0,0,0,0,0,0,0],"split_type":[0,0,0,0,0,0,0,0,0,0,0,0,0,0,0,0,0,0,0,0,0,0,0,0,0,0,0,0,0,0,0,0,0,0,0,0,0,0,0,0,0,0,0,0,0,0,0,0,0,0,0,0,0,0,0,0,0,0,0,0,0,0,0,0,0,0,0,0,0,0,0,0,0,0,0,0,0],"sum_hessian":[1.2879458E4,1.5900336E3,1.1289424E4,1.5786073E3,1.1426358E1,4.7304756E3,6.558948E3,1.0083853E3,5.70222E2,2.2104875E3,2.5199883E3,1.1877134E3,5.371235E3,5.4665923E0,1.0029187E3,5.463558E2,2.386621E1,1.5353494E2,2.0569526E3,3.8731628E2,2.1326719E3,5.732861E2,6.144273E2,4.8532427E3,5.17992E2,2.6721025E1,9.761977E2,1.3214791E1,5.33141E2,8.0125885E1,7.3409065E1,2.0334701E3,2.3482534E1,3.6314508E2,2.4171227E1,1.0502242E3,1.0824476E3,2.4802913E2,3.25257E2,3.1815796E2,2.9626932E2,2.7089294E3,2.1443135E3,3.9657397E2,1.2141802E2,1.2122713E1,1.4598313E1,2.1189856E2,7.6429913E2,5.2241205E2,1.0728923E1,1.8041306E1,5.536776E1,2.014101E3,1.936913E1,3.4792563E2,1.5219439E1,3.5451534E1,1.01477277E3,9.8896796E2,9.347963E1,1.8205952E2,6.59696E1,4.1307323E1,2.8394965E2,2.5030046E2,6.7857506E1,2.5041275E2,4.5856552E1,2.4914648E3,2.1746458E2,3.3052435E2,1.8137891E3,2.7877383E2,1.1780015E2,6.8005424E1,5.34126E1],"tree_param":{"num_deleted":"0","num_feature":"21","num_nodes":"77","size_leaf_vector":"1"}},{"base_weights":[-2.8019072E-2,9.897174E-2,-8.704731E-2,-1.23065256E-1,6.512039E-1,-2.0798144E-1,4.9554703E-1,9.458536E-1,3.7621063E-1,-1.6322437E-1,-1.4338198E0,1.2132275E0,5.5624254E-2,5.2570873E-1,1.100831E0,2.1427764E-1,9.9677044E-1,-1.0965872E-1,-1.0335116E0,-9.4196334E-2,-1.9189236E-1,-9.058126E-2,1.2949965E0,-9.495621E-2,3.0633163E-1,7.169216E-1,-9.851583E-2,1.1177741E0,-9.018398E-2,4.1252944E-1,-5.478298E-1,-9.9139564E-2,1.2610071E0,3.3720646E-2,-7.5318636E-3,-2.9935246E-2,-7.80322E-2,4.4855993E-2,-8.972531E-2,4.6173427E-2,7.2910786E-2,8.826249E-2,6.046292E-3,1.7365865E-2,6.758588E-2,5.675679E-2,-8.706232E-2,2.386501E-2,-9.624534E-2,2.2573173E-3,-9.4506405E-2,6.617336E-2,-8.590802E-2],"categories":[],"categories_nodes":[],"categories_segments":[],"categories_sizes":[],"default_left":[0,0,0,0,0,0,0,0,0,0,0,0,0,0,0,0,0,0,0,0,0,0,0,0,0,0,0,0,0,0,0,0,0,0,0,0,0,0,0,0,0,0,0,0,0,0,0,0,0,0,0,0,0],"id":4,"left_children":[1,3,-1,5,7,9,11,13,15,17,19,21,23,25,27,29,31,33,35,-1,37,-1,39,-1,41,43,-1,45,-1,47,49,-1,51,-1,-1,-1,-1,-1,-1,-1,-1,-1,-1,-1,-1,-1,-1,-1,-1,-1,-1,-1,-1],"loss_changes":[2.731533E3,1.4335564E3,0E0,4.3815536E2,2.7130396E2,4.021033E2,3.178108E2,1.0476465E2,1.742221E2,3.2975433E2,1.4396497E2,9.697168E1,3.069976E2,2.1039816E2,6.013379E1,2.0841351E2,2.851091E2,2.1430965E2,9.307352E1,0E0,1.23420746E2,0E0,2.1277588E1,0E0,1.4991888E2,9.512802E1,0E0,6.0287476E1,0E0,1.6655252E2,2.2683481E2,0E0,6.37406E1,0E0,0E0,0E0,0E0,0E0,0E0,0E0,0E0,0E0,0E0,0E0,0E0,0E0,0E0,0E0,0E0,0E0,0E0,0E0,0E0],"parents":[2147483647,0,0,1,1,3,3,4,4,5,5,6,6,7,7,8,8,9,9,10,10,11,11,12,12,13,13,14,14,15,15,16,16,17,17,18,18,20,20,22,22,24,24,25,25,27,27,29,29,30,30,32,32],"right_children":[2,4,-1,6,8,10,12,14,16,18,20,22,24,26,28,30,32,34,36,-1,38,-1,40,-1,42,44,-1,46,-1,48,50,-1,52,-1,-1,-1,-1,-1,-1,-1,-1,-1,-1,-1,-1,-1,-1,-1,-1,-1,-1,-1,-1],"split_conditions":[9E0,2E0,-8.704731E-2,1.03E2,1E0,7E0,1.25E2,1E1,3.8E1,1.15E2,9E0,9.1E1,1.72E2,2.6E1,7E-1,9.6E1,3.13E1,1.73E1,6.389967E1,-9.4196334E-2,6E0,-9.058126E-2,5E0,-9.495621E-2,1.04E2,8.5E1,-9.851583E-2,1E0,-9.018398E-2,3.92E1,6.9333336E1,-9.9139564E-2,8.1E1,3.3720646E-2,-7.5318636E-3,-2.9935246E-2,-7.80322E-2,4.4855993E-2,-8.972531E-2,4.6173427E-2,7.2910786E-2,8.826249E-2,6.046292E-3,1.7365865E-2,6.758588E-2,5.675679E-2,-8.706232E-2,2.386501E-2,-9.624534E-2,2.2573173E-3,-9.4506405E-2,6.617336E-2,-8.590802E-2],"split_indices":[0,7,0,14,17,17,13,13,13,13,17,13,13,18,12,18,8,8,20,0,14,0,0,0,14,10,0,5,0,8,19,0,14,0,0,0,0,0,0,0,0,0,0,0,0,0,0,0,0,0,0,0,0],"split_type":[0,0,0,0,0,0,0,0,0,0,0,0,0,0,0,0,0,0,0,0,0,0,0,0,0,0,0,0,0,0,0,0,0,0,0,0,0,0,0,0,0,0,0,0,0,0,0,0,0,0,0,0,0],"sum_hessian":[1.2555478E4,1.1689778E4,8.656997E2,8.338058E3,3.351721E3,7.332234E3,1.00582336E3,1.6168544E3,1.7348666E3,7.0750474E3,2.571867E2,3.8157404E2,6.242493E2,4.3687515E2,1.1799792E3,1.3769114E3,3.5795514E2,6.6658916E3,4.091556E2,1.883917E2,6.8795006E1,9.486542E0,3.720875E2,7.021474E1,5.540346E2,4.0645096E2,3.0424189E1,1.1737476E3,6.2317677E0,1.0930326E3,2.8387878E2,2.862888E1,3.2932626E2,3.3031345E2,6.335578E3,2.2538332E2,1.837723E2,4.122316E1,2.757185E1,1.15603226E2,2.5648425E2,6.15094E1,4.925252E2,2.578609E2,1.4859007E2,1.1672622E3,6.4853024E0,1.0643356E3,2.869711E1,1.975674E2,8.631137E1,3.2310788E2,6.218389E0],"tree_param":{"num_deleted":"0","num_feature":"21","num_nodes":"53","size_leaf_vector":"1"}},{"base_weights":[-2.6072547E-2,9.592008E-2,-8.395193E-2,9.9464285E-1,-4.0350683E-2,1.2217568E0,6.261342E-1,4.1759232E-1,-1.7637497E-1,-8.907131E-2,1.2497165E0,3.390388E-1,1.3485588E0,-5.144505E-1,5.400271E-1,-7.722001E-2,-6.3193226E-1,2.2000445E-1,1.3046576E0,-9.589692E-1,7.688447E-1,1.4937923E0,4.2456943E-1,-1.0079701E-1,-4.8234057E-2,5.664226E-1,-9.055307E-2,-1.00559525E-1,1.360676E0,-7.370422E-1,1.2801896E0,-9.937534E-2,7.3294066E-2,6.873441E-2,4.459099E-2,-1.0023435E-1,3.4730848E-2,4.3878414E-2,-8.849852E-2,8.274608E-2,5.0199397E-2,-9.0525284E-2,7.91023E-2,-9.492054E-2,1.597589E-2,-9.4666265E-2,2.9474115E-2,2.2362081E-2,-7.7821338E-3,-8.581243E-2,7.797675E-2,-3.0634815E-2,-9.1730565E-2,-8.5739575E-2,8.106336E-2],"categories":[],"categories_nodes":[],"categories_segments":[],"categories_sizes":[],"default_left":[0,0,0,0,0,0,0,0,0,0,0,0,0,0,0,0,0,0,0,0,0,0,0,0,0,0,0,0,0,0,0,0,0,0,0,0,0,0,0,0,0,0,0,0,0,0,0,0,0,0,0,0,0,0,0],"id":5,"left_children":[1,3,-1,5,7,9,11,13,15,-1,17,19,21,23,25,27,29,31,33,35,37,39,41,-1,43,45,-1,47,49,51,53,-1,-1,-1,-1,-1,-1,-1,-1,-1,-1,-1,-1,-1,-1,-1,-1,-1,-1,-1,-1,-1,-1,-1,-1],"loss_changes":[2.5381875E3,1.4356543E3,0E0,1.2840967E2,6.341863E2,8.231995E1,1.22029205E2,2.6634323E2,3.5450635E2,0E0,5.3211548E1,2.3725687E2,2.1858673E1,1.897682E2,1.2894855E2,2.1650714E2,2.8290454E2,1.379602E2,2.4723267E1,1.8452383E2,8.961934E1,9.73877E0,6.5378494E1,0E0,1.4212431E2,1.1678247E2,0E0,1.915353E2,6.572896E1,1.804527E2,7.7826584E1,0E0,0E0,0E0,0E0,0E0,0E0,0E0,0E0,0E0,0E0,0E0,0E0,0E0,0E0,0E0,0E0,0E0,0E0,0E0,0E0,0E0,0E0,0E0,0E0],"parents":[2147483647,0,0,1,1,3,3,4,4,5,5,6,6,7,7,8,8,10,10,11,11,12,12,13,13,14,14,15,15,16,16,17,17,18,18,19,19,20,20,21,21,22,22,24,24,25,25,27,27,28,28,29,29,30,30],"right_children":[2,4,-1,6,8,10,12,14,16,-1,18,20,22,24,26,28,30,32,34,36,38,40,42,-1,44,46,-1,48,50,52,54,-1,-1,-1,-1,-1,-1,-1,-1,-1,-1,-1,-1,-1,-1,-1,-1,-1,-1,-1,-1,-1,-1,-1,-1],"split_conditions":[9E0,1E0,-8.395193E-2,4E1,9E0,2.4E0,3.42E1,1E0,5.3E1,-8.907131E-2,9.3548386E1,5.4E1,1.69E1,2.1E1,1.4E2,1.06E2,2.11E2,4E0,6.525E1,9.5E1,1.22E2,3.55E1,2.34E1,-1.0079701E-1,4E0,1.81E1,-9.055307E-2,1.9E1,3.2E1,7.142857E1,1.25E2,-9.937534E-2,7.3294066E-2,6.873441E-2,4.459099E-2,-1.0023435E-1,3.4730848E-2,4.3878414E-2,-8.849852E-2,8.274608E-2,5.0199397E-2,-9.0525284E-2,7.91023E-2,-9.492054E-2,1.597589E-2,-9.4666265E-2,2.9474115E-2,2.2362081E-2,-7.7821338E-3,-8.581243E-2,7.797675E-2,-3.0634815E-2,-9.1730565E-2,-8.5739575E-2,8.106336E-2],"split_indices":[0,2,0,18,18,11,8,4,3,0,15,13,11,13,14,14,14,1,19,10,14,8,11,0,0,8,0,8,3,15,3,0,0,0,0,0,0,0,0,0,0,0,0,0,0,0,0,0,0,0,0,0,0,0,0],"split_type":[0,0,0,0,0,0,0,0,0,0,0,0,0,0,0,0,0,0,0,0,0,0,0,0,0,0,0,0,0,0,0,0,0,0,0,0,0,0,0,0,0,0,0,0,0,0,0,0,0,0,0,0,0,0,0],"sum_hessian":[1.2585316E4,1.1721206E4,8.6410956E2,1.5424246E3,1.0178782E4,9.5285754E2,5.89567E2,2.3305662E3,7.848216E3,8.210817E0,9.446467E2,4.2295264E2,1.6661436E2,2.7022894E2,2.0603372E3,6.4463057E3,1.4019103E3,4.8102783E1,8.9654395E2,1.0490619E2,3.1804645E2,1.4345006E2,2.31643E1,6.3238846E1,2.0699011E2,2.0382134E3,2.2123777E1,6.3442573E3,1.020481E2,1.3294448E3,7.2465416E1,1.713926E1,3.0963524E1,7.645259E2,1.3201802E2,6.413517E1,4.077102E1,3.0561304E2,1.2433393E1,1.0615112E2,3.729893E1,7.7107472E0,1.5453554E1,3.3630634E1,1.7335948E2,1.8177143E1,2.0200363E3,5.7899927E2,5.7652583E3,5.731692E0,9.6316414E1,1.195556E3,1.3388881E2,6.997064E0,6.546835E1],"tree_param":{"num_deleted":"0","num_feature":"21","num_nodes":"55","size_leaf_vector":"1"}},{"base_weights":[2.8660795E-2,1.4556962E-1,-8.12363E-2,-5.399377E-2,6.3523024E-1,8.591344E-1,-1.2872727E-1,2.9172327E-2,7.48259E-1,-8.5016206E-2,8.858795E-1,-1.1263891E-1,-9.058975E-2,-2.2530968E-1,1.0227516E0,7.66778E-1,-9.246148E-2,9.1156733E-1,-8.742986E-2,-3.517586E-1,-3.4272873E-3,1.8867576E-1,-1.1556107E0,1.3398738E0,-9.2591524E-2,9.76673E-1,5.803199E-1,6.0701963E-2,3.6324464E-2,-1.0352465E-2,-4.7246717E-2,2.9840532E-3,-5.8456298E-2,3.3228125E-2,-2.7175335E-2,-7.4846864E-2,3.2717627E-2,8.18958E-2,1.6713457E-2,5.26923E-2,9.190966E-3,-7.3293545E-3,3.4168504E-2],"categories":[],"categories_nodes":[],"categories_segments":[],"categories_sizes":[],"default_left":[0,0,0,0,0,0,0,0,0,0,0,0,0,0,0,0,0,0,0,0,0,0,0,0,0,0,0,0,0,0,0,0,0,0,0,0,0,0,0,0,0,0,0],"id":6,"left_children":[1,3,-1,5,7,9,11,13,15,-1,17,19,-1,21,23,25,-1,27,-1,29,31,33,35,37,-1,39,41,-1,-1,-1,-1,-1,-1,-1,-1,-1,-1,-1,-1,-1,-1,-1,-1],"loss_changes":[2.4655303E3,1.1641202E3,0E0,5.7772516E2,2.3626648E2,4.534839E1,2.1167502E2,1.375838E2,1.4125952E2,0E0,4.4533295E1,2.0243457E2,0E0,1.6708757E2,1.03618065E2,1.1243115E2,0E0,3.433191E1,0E0,2.0842505E2,3.9161447E2,1.0513828E2,8.349933E1,2.9574219E1,0E0,8.282495E1,1.1481885E2,0E0,0E0,0E0,0E0,0E0,0E0,0E0,0E0,0E0,0E0,0E0,0E0,0E0,0E0,0E0,0E0],"parents":[2147483647,0,0,1,1,3,3,4,4,5,5,6,6,7,7,8,8,10,10,11,11,13,13,14,14,15,15,17,17,19,19,20,20,21,21,22,22,23,23,25,25,26,26],"right_children":[2,4,-1,6,8,10,12,14,16,-1,18,20,-1,22,24,26,-1,28,-1,30,32,34,36,38,-1,40,42,-1,-1,-1,-1,-1,-1,-1,-1,-1,-1,-1,-1,-1,-1,-1,-1],"split_conditions":[9E0,2E0,-8.12363E-2,1E0,6E0,1.67E1,3.68E1,1E-1,1E0,-8.5016206E-2,2.02E1,2E0,-9.058975E-2,4.82E1,9.8E1,1E0,-9.246148E-2,1E0,-8.742986E-2,8.3333336E1,6E0,1E0,2.12E1,2E-1,-9.2591524E-2,5E0,9.285714E1,6.0701963E-2,3.6324464E-2,-1.0352465E-2,-4.7246717E-2,2.9840532E-3,-5.8456298E-2,3.3228125E-2,-2.7175335E-2,-7.4846864E-2,3.2717627E-2,8.18958E-2,1.6713457E-2,5.26923E-2,9.190966E-3,-7.3293545E-3,3.4168504E-2],"split_indices":[0,7,0,2,13,8,8,12,5,0,11,4,0,19,10,17,0,17,0,15,17,17,11,12,0,4,15,0,0,0,0,0,0,0,0,0,0,0,0,0,0,0,0],"split_type":[0,0,0,0,0,0,0,0,0,0,0,0,0,0,0,0,0,0,0,0,0,0,0,0,0,0,0,0,0,0,0,0,0,0,0,0,0,0,0,0,0,0,0],"sum_hessian":[1.2753013E4,1.1911667E4,8.413464E2,8.463301E3,3.4483662E3,6.394697E2,7.8238306E3,5.422249E2,2.9061414E3,5.9659357E0,6.335038E2,7.750808E3,7.302264E1,4.3227982E2,1.099451E2,2.8862683E3,1.987304E1,6.2803406E2,5.469741E0,2.4293992E3,5.3214087E3,2.9970694E2,1.3257288E2,9.950198E1,1.0443111E1,1.3558057E3,1.5304626E3,2.362966E2,3.9173743E2,1.9540453E3,4.753538E2,5.049015E3,2.723937E2,1.8170132E2,1.180056E2,1.1168419E2,2.088869E1,7.6268616E1,2.3233366E1,1.2352432E3,1.2056253E2,1.8997469E2,1.3404879E3],"tree_param":{"num_deleted":"0","num_feature":"21","num_nodes":"43","size_leaf_vector":"1"}},{"base_weights":[1.0328317E-3,1.1315522E-1,-7.8783534E-2,9.1529673E-1,-4.786201E-3,1.1556039E0,6.0271126E-1,3.135841E-1,-1.8240717E-1,-8.242752E-2,1.1764468E0,-9.204203E-2,6.74687E-1,-6.877705E-1,4.3738464E-1,-8.08783E-2,-6.079865E-1,1.3759519E0,1.0090355E0,7.296024E-1,-8.630952E-2,-9.6783094E-2,-3.790186E-1,6.275117E-1,1.6796231E-1,-1.0122875E-1,1.600618E0,-7.190357E-1,1.2057859E0,6.474842E-2,7.600443E-2,9.504863E-3,5.478228E-2,5.5271387E-2,2.5730658E-2,-4.093853E-3,-9.468121E-2,2.0689226E-3,3.557724E-2,1.3848336E-2,-4.7020372E-2,1.4769675E-2,-9.660887E-3,6.8441905E-2,9.028166E-2,-7.406178E-2,-1.7650438E-2,-8.355413E-2,7.597495E-2],"categories":[],"categories_nodes":[],"categories_segments":[],"categories_sizes":[],"default_left":[0,0,0,0,0,0,0,0,0,0,0,0,0,0,0,0,0,0,0,0,0,0,0,0,0,0,0,0,0,0,0,0,0,0,0,0,0,0,0,0,0,0,0,0,0,0,0,0,0],"id":7,"left_children":[1,3,-1,5,7,9,11,13,15,-1,17,-1,19,21,23,25,27,29,31,33,-1,-1,35,37,39,41,43,45,47,-1,-1,-1,-1,-1,-1,-1,-1,-1,-1,-1,-1,-1,-1,-1,-1,-1,-1,-1,-1],"loss_changes":[2.2318186E3,1.1150657E3,0E0,1.1279358E2,5.811885E2,5.180005E1,1.17102646E2,4.5657034E2,2.8499866E2,0E0,2.6913696E1,0E0,8.572522E1,1.5544594E2,1.6771509E2,1.8246439E2,2.567744E2,2.5123901E0,3.2737885E1,5.0093445E1,0E0,0E0,1.466521E2,9.455792E1,1.6418553E2,1.9213979E2,5.583954E-1,3.3366168E2,6.903128E1,0E0,0E0,0E0,0E0,0E0,0E0,0E0,0E0,0E0,0E0,0E0,0E0,0E0,0E0,0E0,0E0,0E0,0E0,0E0,0E0],"parents":[2147483647,0,0,1,1,3,3,4,4,5,5,6,6,7,7,8,8,10,10,12,12,13,13,14,14,15,15,16,16,17,17,18,18,19,19,22,22,23,23,24,24,25,25,26,26,27,27,28,28],"right_children":[2,4,-1,6,8,10,12,14,16,-1,18,-1,20,22,24,26,28,30,32,34,-1,-1,36,38,40,42,44,46,48,-1,-1,-1,-1,-1,-1,-1,-1,-1,-1,-1,-1,-1,-1,-1,-1,-1,-1,-1,-1],"split_conditions":[9E0,1E0,-7.8783534E-2,3.4E1,2.6E1,2.4E0,3.1E1,1E0,5.3E1,-8.242752E-2,2.7E1,-9.204203E-2,1.22E2,1E1,1.8E1,1.22E2,2.11E2,2.2E1,3.8E1,2.7E1,-8.630952E-2,-9.6783094E-2,1.77E1,4E0,2.24E1,7E0,3.6E1,8E0,2E0,6.474842E-2,7.600443E-2,9.504863E-3,5.478228E-2,5.5271387E-2,2.5730658E-2,-4.093853E-3,-9.468121E-2,2.0689226E-3,3.557724E-2,1.3848336E-2,-4.7020372E-2,1.4769675E-2,-9.660887E-3,6.8441905E-2,9.028166E-2,-7.406178E-2,-1.7650438E-2,-8.355413E-2,7.597495E-2],"split_indices":[0,2,0,18,18,11,14,4,3,0,13,0,14,14,3,14,14,13,13,9,0,0,11,13,11,3,3,11,4,0,0,0,0,0,0,0,0,0,0,0,0,0,0,0,0,0,0,0,0],"split_type":[0,0,0,0,0,0,0,0,0,0,0,0,0,0,0,0,0,0,0,0,0,0,0,0,0,0,0,0,0,0,0,0,0,0,0,0,0,0,0,0,0,0,0,0,0,0,0,0,0],"sum_hessian":[1.2622561E4,1.1785405E4,8.371545E2,1.5098531E3,1.0275553E4,8.520917E2,6.577615E2,3.679536E3,6.5960166E3,5.710594E0,8.4638104E2,1.8117086E1,6.396444E2,4.0435715E2,3.2751787E3,5.326487E3,1.2695299E3,3.8288074E2,4.635003E2,6.260215E2,1.3622892E1,7.915694E1,3.252002E2,1.9193763E3,1.3558025E3,5.2637217E3,6.276483E1,1.1968555E3,7.267452E1,2.5153783E2,1.3134293E2,4.4636448E1,4.1886386E2,2.2629338E2,3.997281E2,2.7274585E2,5.245435E1,2.4086044E2,1.6785159E3,1.235086E3,1.2071643E2,9.905645E2,4.273157E3,3.306262E1,2.9702211E1,3.8730344E2,8.09552E2,6.7202725E0,6.5954254E1],"tree_param":{"num_deleted":"0","num_feature":"21","num_nodes":"49","size_leaf_vector":"1"}},{"base_weights":[1.1264464E-2,1.1798223E-1,-7.6598935E-2,-7.717796E-2,5.9364367E-1,2.100433E-1,-2.0466566E-1,8.169068E-1,1.4114404E-1,-5.846214E-1,3.2118157E-1,-1.9208048E-2,-4.2153767E-1,6.0321456E-1,1.1527473E0,3.0608898E-1,-1.3709042E0,-1.1084392E0,7.384741E-1,4.5419452E-1,-1.1345902E-1,9.835301E-2,-6.561238E-1,-9.185214E-1,-2.3899867E-1,-1.0074003E-1,6.345153E-1,4.089613E-2,1.1869978E0,1.1765754E0,1.4368695E-1,4.425644E-1,-9.31609E-2,-9.330458E-2,-3.661474E-3,-8.3295695E-2,6.1481375E-2,2.1056004E-3,3.8251113E-2,-9.99214E-2,8.165917E-3,-8.649303E-3,2.9188579E-2,2.246452E-2,-4.6873223E-2,6.600832E-2,-5.1758986E-2,-2.6247317E-2,-1.8043629E-3,-4.4302493E-3,3.575655E-2,-9.4795994E-2,8.089573E-2,5.5378556E-2,7.271606E-2,-8.806478E-2,6.505119E-2,-4.158136E-2,1.3988147E-2,-8.69962E-2,8.699501E-2],"categories":[],"categories_nodes":[],"categories_segments":[],"categories_sizes":[],"default_left":[0,0,0,0,0,0,0,0,0,0,0,0,0,0,0,0,0,0,0,0,0,0,0,0,0,0,0,0,0,0,0,0,0,0,0,0,0,0,0,0,0,0,0,0,0,0,0,0,0,0,0,0,0,0,0,0,0,0,0,0,0],"id":8,"left_children":[1,3,-1,5,7,9,11,13,15,17,19,21,23,25,27,29,31,33,35,37,39,41,43,45,47,-1,49,51,53,55,57,59,-1,-1,-1,-1,-1,-1,-1,-1,-1,-1,-1,-1,-1,-1,-1,-1,-1,-1,-1,-1,-1,-1,-1,-1,-1,-1,-1,-1,-1],"loss_changes":[2.07857E3,1.0958674E3,0E0,3.065725E2,3.4684888E2,2.2751074E2,2.3320166E2,1.6433203E2,2.837148E2,2.1993973E2,1.3063673E2,2.3416974E2,2.4224667E2,1.16609985E2,3.3961548E1,1.4473111E2,1.0073328E2,1.7782315E2,1.0865047E2,2.2151736E2,2.7687482E2,3.4785605E2,1.5197153E2,1.8878058E2,1.1347819E2,0E0,8.118323E1,8.7750824E1,1.6784424E1,6.1162308E1,1.1502745E2,7.296703E1,0E0,0E0,0E0,0E0,0E0,0E0,0E0,0E0,0E0,0E0,0E0,0E0,0E0,0E0,0E0,0E0,0E0,0E0,0E0,0E0,0E0,0E0,0E0,0E0,0E0,0E0,0E0,0E0,0E0],"parents":[2147483647,0,0,1,1,3,3,4,4,5,5,6,6,7,7,8,8,9,9,10,10,11,11,12,12,13,13,14,14,15,15,16,16,17,17,18,18,19,19,20,20,21,21,22,22,23,23,24,24,26,26,27,27,28,28,29,29,30,30,31,31],"right_children":[2,4,-1,6,8,10,12,14,16,18,20,22,24,26,28,30,32,34,36,38,40,42,44,46,48,-1,50,52,54,56,58,60,-1,-1,-1,-1,-1,-1,-1,-1,-1,-1,-1,-1,-1,-1,-1,-1,-1,-1,-1,-1,-1,-1,-1,-1,-1,-1,-1,-1,-1],"split_conditions":[9E0,2E0,-7.6598935E-2,2.6E1,3.7E1,1E0,2.83E1,1.3E1,5E0,6.8E1,3.09E1,5.3E1,2.93E1,1.125E1,6.712329E1,6.772727E1,2.1E1,8.8002686E1,5E0,2.67E1,1.6E1,5.5E1,4.1E1,3E0,7.358069E1,-1.0074003E-1,3E0,1.8E1,4.7E1,1E0,6E0,2E1,-9.31609E-2,-9.330458E-2,-3.661474E-3,-8.3295695E-2,6.1481375E-2,2.1056004E-3,3.8251113E-2,-9.99214E-2,8.165917E-3,-8.649303E-3,2.9188579E-2,2.246452E-2,-4.6873223E-2,6.600832E-2,-5.1758986E-2,-2.6247317E-2,-1.8043629E-3,-4.4302493E-3,3.575655E-2,-9.4795994E-2,8.089573E-2,5.5378556E-2,7.271606E-2,-8.806478E-2,6.505119E-2,-4.158136E-2,1.3988147E-2,-8.69962E-2,8.699501E-2],"split_indices":[0,7,0,18,18,4,8,3,4,3,8,3,8,19,15,20,19,20,0,8,3,13,18,3,20,0,13,3,13,4,13,19,0,0,0,0,0,0,0,0,0,0,0,0,0,0,0,0,0,0,0,0,0,0,0,0,0,0,0,0,0],"split_type":[0,0,0,0,0,0,0,0,0,0,0,0,0,0,0,0,0,0,0,0,0,0,0,0,0,0,0,0,0,0,0,0,0,0,0,0,0,0,0,0,0,0,0,0,0,0,0,0,0,0,0,0,0,0,0,0,0,0,0,0,0],"sum_hessian":[1.2618896E4,1.1803583E4,8.1531335E2,8.370195E3,3.4333882E3,2.5729236E3,5.797272E3,2.2985027E3,1.1348854E3,3.1516437E2,2.257759E3,3.1255518E3,2.6717202E3,1.4064117E3,8.920909E2,1.02398E3,1.1090543E2,2.258943E2,8.927005E1,1.7286852E3,5.29074E2,2.6392483E3,4.8630334E2,7.166164E2,1.9551038E3,1.5867594E1,1.3905442E3,2.67251E1,8.653658E2,1.6001945E2,8.639605E2,2.3701294E1,8.720414E1,1.2996935E2,9.5924965E1,1.4736631E1,7.453342E1,7.437662E2,9.8491895E2,6.694312E1,4.6213086E2,1.6933461E3,9.459022E2,9.853864E1,3.877647E2,3.4982464E1,6.816339E2,8.108489E2,1.1442549E3,1.3946326E2,1.2510809E3,1.1903542E1,1.4821558E1,6.7111005E2,1.9425574E2,5.9684515E0,1.5405101E2,1.0515544E2,7.588051E2,8.709046E0,1.4992248E1],"tree_param":{"num_deleted":"0","num_feature":"21","num_nodes":"61","size_leaf_vector":"1"}},{"base_weights":[3.411162E-2,1.3558638E-1,-7.4612096E-2,-6.680827E-2,6.1829394E-1,7.679649E-1,-1.325768E-1,7.975214E-1,2.702218E-1,-6.920454E-1,8.6683476E-1,4.2952672E-1,-1.8871541E-1,3.1707984E-1,9.5420635E-1,-9.21139E-2,3.3542022E-1,-9.992955E-2,6.0879625E-2,-8.4395275E-2,8.9660496E-1,6.248222E-1,-7.140867E-1,7.68981E-2,-3.0564493E-1,7.164081E-1,-1.5180472E-1,7.513622E-1,1.1596963E0,-9.111058E-2,3.950359E-1,4.628292E-2,-8.4251784E-2,4.7991153E-2,3.2416382E-3,-5.889794E-2,9.530876E-2,-4.3798182E-2,9.952279E-3,1.3560009E-2,-1.8240767E-2,4.838344E-2,-4.688742E-2,-2.5050832E-2,6.57984E-2,3.9168954E-2,-9.6949026E-2,6.842176E-2,5.2024722E-2,2.3820728E-2,-5.0215956E-2],"categories":[],"categories_nodes":[],"categories_segments":[],"categories_sizes":[],"default_left":[0,0,0,0,0,0,0,0,0,0,0,0,0,0,0,0,0,0,0,0,0,0,0,0,0,0,0,0,0,0,0,0,0,0,0,0,0,0,0,0,0,0,0,0,0,0,0,0,0,0,0],"id":9,"left_children":[1,3,-1,5,7,9,11,13,15,17,19,21,23,25,27,-1,29,-1,-1,-1,31,33,35,37,39,41,43,45,47,-1,49,-1,-1,-1,-1,-1,-1,-1,-1,-1,-1,-1,-1,-1,-1,-1,-1,-1,-1,-1,-1],"loss_changes":[1.9707224E3,1.1655908E3,0E0,4.6164206E2,2.1966003E2,8.924631E1,2.4601196E2,1.747981E2,1.6582634E2,1.0099891E2,4.529059E1,1.5856982E2,2.2011827E2,1.07495926E2,7.221973E1,0E0,1.5049875E2,0E0,0E0,0E0,4.4284546E1,1.1348129E2,1.2833162E2,2.5237941E2,1.6805148E2,1.297153E2,1.3629208E2,7.7773834E1,2.020459E1,0E0,1.2960916E2,0E0,0E0,0E0,0E0,0E0,0E0,0E0,0E0,0E0,0E0,0E0,0E0,0E0,0E0,0E0,0E0,0E0,0E0,0E0,0E0],"parents":[2147483647,0,0,1,1,3,3,4,4,5,5,6,6,7,7,8,8,9,9,10,10,11,11,12,12,13,13,14,14,16,16,20,20,21,21,22,22,23,23,24,24,25,25,26,26,27,27,28,28,30,30],"right_children":[2,4,-1,6,8,10,12,14,16,18,20,22,24,26,28,-1,30,-1,-1,-1,32,34,36,38,40,42,44,46,48,-1,50,-1,-1,-1,-1,-1,-1,-1,-1,-1,-1,-1,-1,-1,-1,-1,-1,-1,-1,-1,-1],"split_conditions":[9E0,2E0,-7.4612096E-2,1E0,3.7E1,4.1E1,1.89E1,9E0,1E0,6E0,1.67E1,9.5E1,2.6E1,8E0,1.3E1,-9.21139E-2,1E0,-9.992955E-2,6.0879625E-2,-8.4395275E-2,2.02E1,1E-1,1.26E2,1E0,2E0,5E0,1.2025E2,6E-1,2.2E1,-9.111058E-2,9.8E1,4.628292E-2,-8.4251784E-2,4.7991153E-2,3.2416382E-3,-5.889794E-2,9.530876E-2,-4.3798182E-2,9.952279E-3,1.3560009E-2,-1.8240767E-2,4.838344E-2,-4.688742E-2,-2.5050832E-2,6.57984E-2,3.9168954E-2,-9.6949026E-2,6.842176E-2,5.2024722E-2,2.3820728E-2,-5.0215956E-2],"split_indices":[0,7,0,2,18,3,8,14,1,17,8,19,18,18,3,0,14,0,0,0,11,12,3,4,0,14,19,12,19,0,10,0,0,0,0,0,0,0,0,0,0,0,0,0,0,0,0,0,0,0,0],"split_type":[0,0,0,0,0,0,0,0,0,0,0,0,0,0,0,0,0,0,0,0,0,0,0,0,0,0,0,0,0,0,0,0,0,0,0,0,0,0,0,0,0,0,0,0,0,0,0,0,0,0,0],"sum_hessian":[1.272136E4,1.1929196E4,7.921635E2,8.405649E3,3.5235466E3,6.131033E2,7.7925464E3,2.325052E3,1.1984946E3,3.850473E1,5.745985E2,7.0698737E2,7.085559E3,5.7253046E2,1.7525215E3,3.506588E1,1.1634288E3,2.2834873E1,1.5669859E1,5.9770565E0,5.6862146E2,6.042525E2,1.0273487E2,2.1659028E3,4.9196562E3,3.089141E2,2.6361636E2,8.8428186E2,8.682396E2,3.0486437E1,1.1329424E3,5.629278E2,5.6936774E0,3.7762997E2,2.2662253E2,8.775059E1,1.4984281E1,2.4539859E2,1.9205043E3,4.573567E2,4.4623E3,2.6853897E2,4.0375137E1,2.134832E2,5.013318E1,8.745826E2,9.699296E0,3.1178372E2,5.564559E2,1.071301E3,6.164133E1],"tree_param":{"num_deleted":"0","num_feature":"21","num_nodes":"51","size_leaf_vector":"1"}},{"base_weights":[6.585189E-3,-1.499795E-1,3.9733505E-1,-2.8694788E-1,5.575397E-2,1.8053064E-1,7.779427E-1,-1.9754507E-1,-5.785348E-1,-1.22353196E-1,4.503689E-1,3.1115937E-1,-7.75193E-1,9.098397E-1,3.5194904E-1,-3.7145135E-1,3.685394E-1,-8.9052564E-1,-5.2360125E-2,-8.097691E-1,1.1994146E-1,9.105579E-1,-4.273256E-2,-6.6260207E-1,3.7666675E-1,-3.4233116E-2,-9.13983E-2,9.25681E-1,-7.981419E-2,-1.057878E0,7.2753567E-1,9.0843314E-1,-4.0535396E-1,-1.9315179E-1,8.0662256E-1,-5.0597316E-1,-8.621745E-2,4.797395E-1,-6.934676E-1,-1.3118598E0,-2.9404175E-1,2.0903492E-1,-1.3008726E0,-8.8092975E-2,9.7090054E-1,-8.727984E-2,1.638877E-1,3.997314E-1,-9.576254E-2,-2.2529176E-1,4.7158247E-1,3.1523982E-1,-9.7705014E-2,8.4753597E-1,1.4053714E0,8.563944E-2,-9.482671E-2,-9.1773756E-2,8.17966E-1,-2.928033E-4,7.025425E-2,-2.362719E-2,1.5019195E-2,-6.6215284E-2,1.1873982E-2,-9.782099E-2,4.366404E-2,-7.013898E-2,-6.3334405E-3,-8.644452E-2,3.6117595E-2,-5.3818133E-2,5.878622E-2,-7.3239595E-2,4.397315E-2,-3.2910958E-4,-8.513464E-2,-9.8580465E-2,1.3324173E-2,-9.121366E-2,8.6727135E-2,5.0933268E-2,-8.8205956E-2,-9.147215E-2,1.7975325E-2,-9.540258E-2,6.578136E-2,-3.6055785E-2,5.099688E-2,4.8141684E-2,1.6841752E-2,-9.077865E-2,3.241234E-2,4.4747785E-2,-2.3444673E-2,3.709568E-2,7.53236E-2,1.4274585E-2,5.7487246E-2],"categories":[],"categories_nodes":[],"categories_segments":[],"categories_sizes":[],"default_left":[0,0,0,0,0,0,0,0,0,0,0,0,0,0,0,0,0,0,0,0,0,0,0,0,0,0,0,0,0,0,0,0,0,0,0,0,0,0,0,0,0,0,0,0,0,0,0,0,0,0,0,0,0,0,0,0,0,0,0,0,0,0,0,0,0,0,0,0,0,0,0,0,0,0,0,0,0,0,0,0,0,0,0,0,0,0,0,0,0,0,0,0,0,0,0,0,0,0,0],"id":10,"left_children":[1,3,5,7,9,11,13,15,17,19,21,23,25,27,29,31,33,35,37,39,41,43,45,47,49,51,-1,53,-1,55,57,59,61,63,65,67,-1,69,71,73,75,77,79,-1,81,-1,83,85,-1,87,89,91,-1,93,95,-1,-1,-1,97,-1,-1,-1,-1,-1,-1,-1,-1,-1,-1,-1,-1,-1,-1,-1,-1,-1,-1,-1,-1,-1,-1,-1,-1,-1,-1,-1,-1,-1,-1,-1,-1,-1,-1,-1,-1,-1,-1,-1,-1],"loss_changes":[7.620809E2,2.5062514E2,2.9390216E2,1.3907083E2,2.4993584E2,2.8382947E2,7.2323E1,4.0256305E2,2.0554404E2,4.0823816E2,2.5098E2,1.2776912E2,2.132271E2,4.0645386E1,1.6348552E2,1.3608008E2,2.3667134E2,2.512008E2,1.5972086E2,1.6501328E2,2.2973378E2,9.396188E1,1.8845135E2,1.689299E2,1.0716229E2,1.0897157E2,0E0,3.5582825E1,0E0,1.5440335E2,5.7878708E1,3.6796944E1,1.4465427E2,2.0586505E2,1.0120264E2,1.8331444E2,0E0,1.3837764E2,1.5322278E2,1.0965552E2,1.2810254E2,2.1432031E2,1.733162E2,0E0,7.496417E1,0E0,1.869831E2,1.4879178E2,0E0,1.5872093E2,1.0683487E2,9.873547E1,0E0,5.3237915E1,7.9985046E0,0E0,0E0,0E0,4.130162E1,0E0,0E0,0E0,0E0,0E0,0E0,0E0,0E0,0E0,0E0,0E0,0E0,0E0,0E0,0E0,0E0,0E0,0E0,0E0,0E0,0E0,0E0,0E0,0E0,0E0,0E0,0E0,0E0,0E0,0E0,0E0,0E0,0E0,0E0,0E0,0E0,0E0,0E0,0E0,0E0],"parents":[2147483647,0,0,1,1,2,2,3,3,4,4,5,5,6,6,7,7,8,8,9,9,10,10,11,11,12,12,13,13,14,14,15,15,16,16,17,17,18,18,19,19,20,20,21,21,22,22,23,23,24,24,25,25,27,27,29,29,30,30,31,31,32,32,33,33,34,34,35,35,37,37,38,38,39,39,40,40,41,41,42,42,44,44,46,46,47,47,49,49,50,50,51,51,53,53,54,54,58,58],"right_children":[2,4,6,8,10,12,14,16,18,20,22,24,26,28,30,32,34,36,38,40,42,44,46,48,50,52,-1,54,-1,56,58,60,62,64,66,68,-1,70,72,74,76,78,80,-1,82,-1,84,86,-1,88,90,92,-1,94,96,-1,-1,-1,98,-1,-1,-1,-1,-1,-1,-1,-1,-1,-1,-1,-1,-1,-1,-1,-1,-1,-1,-1,-1,-1,-1,-1,-1,-1,-1,-1,-1,-1,-1,-1,-1,-1,-1,-1,-1,-1,-1,-1,-1],"split_conditions":[2E0,5.9E1,1.3E1,5.1E1,8.8002686E1,5E0,2E0,3.9E1,1.72E2,2E0,2.2E1,1.8E1,1.6E1,1E0,3E0,2.1E0,1E0,1.15E2,1.01E2,5.5E1,5E0,5E0,4E0,1E0,4E0,1.178158E2,-9.13983E-2,1.9E1,-7.981419E-2,4.267832E1,2.2E1,1.5E1,2.33E1,3.7E1,4.3E0,5.9E1,-8.621745E-2,7.5E1,1.69E2,2.2E0,6.9E1,5E0,1.93E2,-8.8092975E-2,8.4E1,-8.727984E-2,3.3E1,1.6E1,-9.576254E-2,1.97E1,5.2E0,7.8715416E1,-9.7705014E-2,1E2,1.8E1,8.563944E-2,-9.482671E-2,-9.1773756E-2,4.5E1,-2.928033E-4,7.025425E-2,-2.362719E-2,1.5019195E-2,-6.6215284E-2,1.1873982E-2,-9.782099E-2,4.366404E-2,-7.013898E-2,-6.3334405E-3,-8.644452E-2,3.6117595E-2,-5.3818133E-2,5.878622E-2,-7.3239595E-2,4.397315E-2,-3.2910958E-4,-8.513464E-2,-9.8580465E-2,1.3324173E-2,-9.121366E-2,8.6727135E-2,5.0933268E-2,-8.8205956E-2,-9.147215E-2,1.7975325E-2,-9.540258E-2,6.578136E-2,-3.6055785E-2,5.099688E-2,4.8141684E-2,1.6841752E-2,-9.077865E-2,3.241234E-2,4.4747785E-2,-2.3444673E-2,3.709568E-2,7.53236E-2,1.4274585E-2,5.7487246E-2],"split_indices":[7,9,3,3,20,4,17,3,13,4,13,9,18,5,7,11,7,13,3,13,17,10,18,10,13,20,0,3,0,20,13,3,11,9,11,13,0,3,3,12,3,3,13,0,9,0,13,13,0,11,11,20,0,10,10,0,0,0,10,0,0,0,0,0,0,0,0,0,0,0,0,0,0,0,0,0,0,0,0,0,0,0,0,0,0,0,0,0,0,0,0,0,0,0,0,0,0,0,0],"split_type":[0,0,0,0,0,0,0,0,0,0,0,0,0,0,0,0,0,0,0,0,0,0,0,0,0,0,0,0,0,0,0,0,0,0,0,0,0,0,0,0,0,0,0,0,0,0,0,0,0,0,0,0,0,0,0,0,0,0,0,0,0,0,0,0,0,0,0,0,0,0,0,0,0,0,0,0,0,0,0,0,0,0,0,0,0,0,0,0,0,0,0,0,0,0,0,0,0,0,0],"sum_hessian":[1.2454881E4,8.89248E3,3.5624006E3,5.338167E3,3.5543132E3,2.2705234E3,1.2918772E3,4.0868E3,1.2513668E3,2.4494556E3,1.1048577E3,1.9980972E3,2.7242636E2,9.855833E2,3.0629388E2,3.1266182E3,9.601817E2,7.8513513E2,4.662317E2,6.377496E2,1.811706E3,5.7106354E2,5.3379407E2,1.253699E2,1.8727273E3,1.6049777E2,1.11928604E2,9.800192E2,5.564123E0,6.405104E1,2.4224284E2,8.001754E1,3.0466006E3,4.209794E2,5.3920233E2,5.384248E2,2.4671031E2,2.5491322E2,2.1131848E2,3.2236484E2,3.1538474E2,1.7056072E3,1.060988E2,1.1987123E1,5.590764E2,5.695448E1,4.768396E2,6.8206726E1,5.716317E1,2.548823E2,1.617845E3,1.3648859E2,2.4009184E1,8.4511127E2,1.3490796E2,1.4640605E1,4.941044E1,7.5980783E0,2.3464476E2,2.8514057E1,5.1503483E1,2.7820645E3,2.6453625E2,1.1550454E2,3.0547485E2,1.2033953E1,5.271684E2,1.592365E2,3.7918832E2,2.4623768E1,2.3028946E2,1.757426E2,3.5575874E1,3.0164465E2,2.072019E1,2.627672E2,5.261752E1,4.2925163E1,1.662682E3,9.083501E1,1.5263792E1,5.50097E2,8.979433E0,4.18671E1,4.349725E2,1.907079E1,4.913594E1,1.8259695E2,7.228533E1,3.4692148E2,1.2709235E3,1.7845901E1,1.18642685E2,8.1603656E2,2.9074707E1,1.8942009E1,1.1596595E2,9.0792206E1,1.4385257E2],"tree_param":{"num_deleted":"0","num_feature":"21","num_nodes":"99","size_leaf_vector":"1"}},{"base_weights":[3.3288833E-2,1.297221E-1,-7.2555E-2,8.058688E-1,3.3194553E-2,1.0410029E0,3.9295045E-1,3.270939E-1,-1.4470051E-1,-8.7102056E-2,1.062946E0,-1.0088771E-1,4.8959348E-1,5.3588516E-1,-1.3841587E-2,5.0053465E-1,-1.9041647E-1,2.3722085E-1,1.0849434E0,-1.0468854E0,6.573445E-1,5.569254E-1,-9.1246806E-2,3.030821E-1,-4.4901457E-1,-3.702843E-2,1.0579058E0,-2.3817067E-1,3.8461214E-1,-9.796094E-2,8.643582E-2,4.625488E-2,5.9033137E-2,-1.0424497E-1,1.1396333E-2,-8.308216E-2,3.5852518E-2,3.0691652E-2,-1.8506026E-2,2.4607612E-2,-9.494068E-2,9.502992E-3,-5.3890597E-2,-1.7802006E-2,8.501267E-2,-9.324115E-2,6.424536E-2,-2.425643E-2,-4.405176E-3,3.6605392E-3,6.220543E-2],"categories":[],"categories_nodes":[],"categories_segments":[],"categories_sizes":[],"default_left":[0,0,0,0,0,0,0,0,0,0,0,0,0,0,0,0,0,0,0,0,0,0,0,0,0,0,0,0,0,0,0,0,0,0,0,0,0,0,0,0,0,0,0,0,0,0,0,0,0,0,0],"id":11,"left_children":[1,3,-1,5,7,9,11,13,15,-1,17,-1,19,21,23,25,27,29,31,33,35,37,-1,39,41,43,45,47,49,-1,-1,-1,-1,-1,-1,-1,-1,-1,-1,-1,-1,-1,-1,-1,-1,-1,-1,-1,-1,-1,-1],"loss_changes":[1.7952269E3,7.6855493E2,0E0,1.424209E2,5.3887366E2,5.9056274E1,1.2571615E2,2.7664804E2,1.894887E2,0E0,1.6635376E1,0E0,1.3356525E2,1.20739075E2,2.0384047E2,1.2740561E2,1.6475726E2,8.663883E1,1.2763916E1,6.813542E1,6.563005E1,1.26299194E2,0E0,3.5697134E2,2.5047443E2,1.21067116E2,1.4088342E2,2.0517361E2,1.23078285E2,0E0,0E0,0E0,0E0,0E0,0E0,0E0,0E0,0E0,0E0,0E0,0E0,0E0,0E0,0E0,0E0,0E0,0E0,0E0,0E0,0E0,0E0],"parents":[2147483647,0,0,1,1,3,3,4,4,5,5,6,6,7,7,8,8,10,10,12,12,13,13,14,14,15,15,16,16,17,17,18,18,19,19,20,20,21,21,23,23,24,24,25,25,26,26,27,27,28,28],"right_children":[2,4,-1,6,8,10,12,14,16,-1,18,-1,20,22,24,26,28,30,32,34,36,38,-1,40,42,44,46,48,50,-1,-1,-1,-1,-1,-1,-1,-1,-1,-1,-1,-1,-1,-1,-1,-1,-1,-1,-1,-1,-1,-1],"split_conditions":[9E0,1E0,-7.2555E-2,4.1E1,1E0,2.4E0,1E0,2.4E1,1E0,-8.7102056E-2,1.99E1,-1.0088771E-1,7.0007935E1,1E0,1.2E1,2E0,1.03E2,1.04E2,1.24E2,1.17E2,3.1E1,7E0,-9.1246806E-2,8.461539E1,5E0,1.21E2,8.3E0,3.3E1,9.45946E1,-9.796094E-2,8.643582E-2,4.625488E-2,5.9033137E-2,-1.0424497E-1,1.1396333E-2,-8.308216E-2,3.5852518E-2,3.0691652E-2,-1.8506026E-2,2.4607612E-2,-9.494068E-2,9.502992E-3,-5.3890597E-2,-1.7802006E-2,8.501267E-2,-9.324115E-2,6.424536E-2,-2.425643E-2,-4.405176E-3,3.6605392E-3,6.220543E-2],"split_indices":[0,2,0,18,17,11,0,3,0,0,8,0,20,5,18,1,14,14,15,14,14,0,0,15,0,3,11,10,15,0,0,0,0,0,0,0,0,0,0,0,0,0,0,0,0,0,0,0,0,0,0],"split_type":[0,0,0,0,0,0,0,0,0,0,0,0,0,0,0,0,0,0,0,0,0,0,0,0,0,0,0,0,0,0,0,0,0,0,0,0,0,0,0,0,0,0,0,0,0,0,0,0,0,0,0],"sum_hessian":[1.253905E4,1.1775E4,7.640499E2,1.4700924E3,1.0304907E4,9.3572687E2,5.343656E2,3.8852578E3,6.4196494E3,6.7068543E0,9.2902E2,1.9830355E1,5.145352E2,2.4092468E3,1.476011E3,4.2409027E2,5.995559E3,2.4412827E1,9.046072E2,5.0130962E1,4.6440427E2,2.388722E3,2.0524862E1,8.542149E2,6.217961E2,2.1635638E2,2.0773387E2,5.536368E3,4.5919098E2,9.746346E0,1.4666479E1,3.4280573E2,5.6180145E2,2.7281544E1,2.2849419E1,1.0983221E1,4.5342102E2,2.250887E3,1.3783492E2,7.8738135E2,6.683357E1,3.0872403E2,3.1307205E2,1.8346275E2,3.2893635E1,1.4451415E1,1.9328246E2,2.091787E3,3.4445813E3,3.3786526E2,1.2132569E2],"tree_param":{"num_deleted":"0","num_feature":"21","num_nodes":"51","size_leaf_vector":"1"}},{"base_weights":[4.6436926E-3,9.662696E-2,-7.0972666E-2,-8.8529386E-2,5.4127926E-1,6.62465E-1,-1.4510833E-1,5.624336E-1,-8.9869484E-2,7.1364075E-1,-1.0883011E-1,4.3135944E-1,-2.0784406E-1,7.1768534E-1,2.7043077E-1,1.2067225E0,4.983304E-1,4.865128E-2,1.0385375E0,-1.241148E-1,-5.746688E-1,-1.0019789E-1,7.38762E-1,3.5606727E-1,-1.0848708E0,6.557077E-2,2.286538E-2,3.1148529E-2,-9.84078E-2,-8.942417E-3,6.597293E-2,2.7306983E-2,6.3245736E-2,-1.31813185E-2,4.638213E-3,-4.6965443E-2,-1.2885061E-2,2.0850878E-2,4.1866623E-2,-8.588537E-2,2.0838857E-2,6.814654E-2,-9.7339034E-2],"categories":[],"categories_nodes":[],"categories_segments":[],"categories_sizes":[],"default_left":[0,0,0,0,0,0,0,0,0,0,0,0,0,0,0,0,0,0,0,0,0,0,0,0,0,0,0,0,0,0,0,0,0,0,0,0,0,0,0,0,0,0,0],"id":12,"left_children":[1,3,-1,5,7,9,11,13,-1,15,-1,17,19,21,23,25,27,29,31,33,35,-1,37,39,41,-1,-1,-1,-1,-1,-1,-1,-1,-1,-1,-1,-1,-1,-1,-1,-1,-1,-1],"loss_changes":[1.622942E3,9.581887E2,0E0,3.4925177E2,1.7028369E2,8.522452E1,2.7647748E2,1.5356055E2,0E0,5.9535217E1,0E0,1.7432152E2,2.1163962E2,1.2846533E2,1.3721365E2,1.2852966E1,1.2295942E2,1.336105E2,3.1642487E1,1.6986667E2,1.4777899E2,0E0,6.934082E1,1.4041194E2,1.509935E2,0E0,0E0,0E0,0E0,0E0,0E0,0E0,0E0,0E0,0E0,0E0,0E0,0E0,0E0,0E0,0E0,0E0,0E0],"parents":[2147483647,0,0,1,1,3,3,4,4,5,5,6,6,7,7,9,9,11,11,12,12,13,13,14,14,15,15,16,16,17,17,18,18,19,19,20,20,22,22,23,23,24,24],"right_children":[2,4,-1,6,8,10,12,14,-1,16,-1,18,20,22,24,26,28,30,32,34,36,-1,38,40,42,-1,-1,-1,-1,-1,-1,-1,-1,-1,-1,-1,-1,-1,-1,-1,-1,-1,-1],"split_conditions":[9E0,2E0,-7.0972666E-2,1E0,1E0,1.3490082E2,1.9E1,3.7E1,-8.9869484E-2,1.1E1,-1.0883011E-1,1.8E1,2E2,2.4E0,1.3903743E2,7.705516E1,7.46E1,2.42E1,1.525E1,5.9E1,2.96E2,-1.0019789E-1,8.75E1,2.1621622E1,1.1111111E1,6.557077E-2,2.286538E-2,3.1148529E-2,-9.84078E-2,-8.942417E-3,6.597293E-2,2.7306983E-2,6.3245736E-2,-1.31813185E-2,4.638213E-3,-4.6965443E-2,-1.2885061E-2,2.0850878E-2,4.1866623E-2,-8.588537E-2,2.0838857E-2,6.814654E-2,-9.7339034E-2],"split_indices":[0,7,0,2,5,20,8,18,0,18,0,8,18,11,20,20,19,11,19,9,18,0,15,15,15,0,0,0,0,0,0,0,0,0,0,0,0,0,0,0,0,0,0],"split_type":[0,0,0,0,0,0,0,0,0,0,0,0,0,0,0,0,0,0,0,0,0,0,0,0,0,0,0,0,0,0,0,0,0,0,0,0,0,0,0,0,0,0,0],"sum_hessian":[1.2387477E4,1.1636782E4,7.506945E2,8.21627E3,3.420512E3,5.7488525E2,7.641385E3,3.3906018E3,2.9910103E1,5.6544147E2,9.443762E0,7.4940027E2,6.8919844E3,2.212699E3,1.177903E3,1.7046207E2,3.9497943E2,4.603309E2,2.8906934E2,5.6122935E3,1.2796909E3,1.6280725E1,2.1964182E3,1.1085923E3,6.9310585E1,1.4890953E2,2.1552532E1,3.766913E2,1.8288107E1,3.9116406E2,6.916683E1,9.211674E1,1.9695262E2,3.4151912E3,2.1971023E3,5.941809E2,6.855101E2,5.16321E2,1.6800972E3,3.0754725E1,1.0778376E3,1.7898373E1,5.141221E1],"tree_param":{"num_deleted":"0","num_feature":"21","num_nodes":"43","size_leaf_vector":"1"}},{"base_weights":[2.1009238E-2,1.0855299E-1,-6.954565E-2,3.223187E-1,-1.2632886E-1,5.427972E-1,5.7197306E-2,-3.5672933E-1,2.0241918E-2,2.917431E-1,7.327661E-1,-6.315793E-1,1.2693475E-1,-5.25244E-2,-7.1838516E-1,2.0396833E-1,-2.6837128E-1,1.467684E-1,1.0106153E0,5.108105E-1,9.6126103E-1,2.52826E-1,-9.2639886E-2,3.7322727E-1,-4.5891855E-2,-7.182187E-1,2.1859847E-1,-5.1876474E-2,-1.2203938E0,4.919343E-1,-5.110774E-1,-1.1512326E0,-7.395496E-2,1.0594684E-2,-1.0180753E-1,6.092447E-2,-9.3838476E-2,-3.314204E-2,3.0713184E-2,5.4442298E-2,3.608301E-2,-1.5838735E-2,7.4103415E-2,1.023856E-2,5.4792006E-2,1.8367212E-2,-1.574643E-2,2.5694693E-2,-6.040567E-2,5.9498E-2,3.2879095E-4,-3.3473656E-2,2.0758837E-2,-7.253557E-2,-5.5337383E-4,2.7286936E-2,-9.272682E-2,-4.9131528E-2,1.4165819E-2,-9.0787314E-2,1.9241348E-2,2.365118E-2,-1.5790883E-2],"categories":[],"categories_nodes":[],"categories_segments":[],"categories_sizes":[],"default_left":[0,0,0,0,0,0,0,0,0,0,0,0,0,0,0,0,0,0,0,0,0,0,0,0,0,0,0,0,0,0,0,0,0,0,0,0,0,0,0,0,0,0,0,0,0,0,0,0,0,0,0,0,0,0,0,0,0,0,0,0,0,0,0],"id":13,"left_children":[1,3,-1,5,7,9,11,13,15,17,19,21,23,25,27,29,31,33,35,37,39,41,-1,43,45,47,49,51,53,55,57,59,61,-1,-1,-1,-1,-1,-1,-1,-1,-1,-1,-1,-1,-1,-1,-1,-1,-1,-1,-1,-1,-1,-1,-1,-1,-1,-1,-1,-1,-1,-1],"loss_changes":[1.5383116E3,5.884259E2,0E0,3.5860126E2,1.8858636E2,1.5953552E2,1.3393826E2,2.3883932E2,1.810829E2,1.5039243E2,9.61781E1,2.7737347E2,1.0776774E2,2.1319786E2,3.3181433E2,4.2990002E2,2.2791861E2,1.71486E2,1.4768742E2,1.1806325E2,2.7890747E1,1.05199036E2,0E0,1.26853165E2,1.655941E2,2.0696059E2,1.7289491E2,1.2349518E2,1.57552E2,1.8887799E2,2.24871E2,2.4532855E2,1.443101E2,0E0,0E0,0E0,0E0,0E0,0E0,0E0,0E0,0E0,0E0,0E0,0E0,0E0,0E0,0E0,0E0,0E0,0E0,0E0,0E0,0E0,0E0,0E0,0E0,0E0,0E0,0E0,0E0,0E0,0E0],"parents":[2147483647,0,0,1,1,3,3,4,4,5,5,6,6,7,7,8,8,9,9,10,10,11,11,12,12,13,13,14,14,15,15,16,16,17,17,18,18,19,19,20,20,21,21,23,23,24,24,25,25,26,26,27,27,28,28,29,29,30,30,31,31,32,32],"right_children":[2,4,-1,6,8,10,12,14,16,18,20,22,24,26,28,30,32,34,36,38,40,42,-1,44,46,48,50,52,54,56,58,60,62,-1,-1,-1,-1,-1,-1,-1,-1,-1,-1,-1,-1,-1,-1,-1,-1,-1,-1,-1,-1,-1,-1,-1,-1,-1,-1,-1,-1,-1,-1],"split_conditions":[9E0,2E1,-6.954565E-2,3.7E1,5.8E1,9E1,5.682497E1,3E1,6.15E1,8.225E1,1.3E1,2.6E1,1.02E1,9.4E0,1E0,5.6E1,7.7E1,8.488372E1,2E1,5E0,3.5E1,4E1,-9.2639886E-2,3.9E1,6.2962963E1,2E1,1.12E1,6.875E1,7.8E1,2.66E1,2E2,1.02702705E2,5.6E1,1.0594684E-2,-1.0180753E-1,6.092447E-2,-9.3838476E-2,-3.314204E-2,3.0713184E-2,5.4442298E-2,3.608301E-2,-1.5838735E-2,7.4103415E-2,1.023856E-2,5.4792006E-2,1.8367212E-2,-1.574643E-2,2.5694693E-2,-6.040567E-2,5.9498E-2,3.2879095E-4,-3.3473656E-2,2.0758837E-2,-7.253557E-2,-5.5337383E-4,2.7286936E-2,-9.272682E-2,-4.9131528E-2,1.4165819E-2,-9.0787314E-2,1.9241348E-2,2.365118E-2,-1.5790883E-2],"split_indices":[0,3,0,18,13,15,20,13,19,19,3,19,11,11,17,3,13,15,13,13,13,13,0,13,15,19,11,15,9,11,13,15,15,0,0,0,0,0,0,0,0,0,0,0,0,0,0,0,0,0,0,0,0,0,0,0,0,0,0,0,0,0,0],"split_type":[0,0,0,0,0,0,0,0,0,0,0,0,0,0,0,0,0,0,0,0,0,0,0,0,0,0,0,0,0,0,0,0,0,0,0,0,0,0,0,0,0,0,0,0,0,0,0,0,0,0,0,0,0,0,0,0,0,0,0,0,0,0,0],"sum_hessian":[1.2443163E4,1.171756E4,7.256035E2,6.1343354E3,5.5832236E3,3.348571E3,2.7857644E3,2.1702644E3,3.4129595E3,1.4434756E3,1.9050956E3,2.5538123E2,2.5303833E3,1.1793801E3,9.9088434E2,2.0855964E3,1.327363E3,1.202227E3,2.4124852E2,9.6801764E2,9.370779E2,1.4857576E2,1.06805466E2,1.0429425E3,1.4874408E3,3.408454E2,8.385347E2,4.261694E2,5.647149E2,1.4870414E3,5.98555E2,2.3866107E2,1.088702E3,1.1682756E3,3.395143E1,2.2558572E2,1.5662799E1,7.797724E1,8.900404E2,6.091614E2,3.2791653E2,1.02036736E2,4.6539017E1,8.4681555E2,1.9612694E2,5.8638995E2,9.0105084E2,9.6953354E1,2.4389206E2,1.4941083E2,6.891239E2,1.8332309E2,2.428463E2,4.7420285E2,9.0512054E1,1.4544581E3,3.2583206E1,3.754503E2,2.2310472E2,1.6646478E2,7.219629E1,3.3350848E2,7.5519354E2],"tree_param":{"num_deleted":"0","num_feature":"21","num_nodes":"63","size_leaf_vector":"1"}},{"base_weights":[6.715083E-4,8.281959E-2,-6.820584E-2,7.422064E-1,-8.849446E-3,5.8346754E-1,1.0849454E0,-1.1845004E-1,3.322378E-1,-4.5607185E-1,6.454695E-1,1.1584381E0,7.9090667E-1,-3.3709756E-1,-1.902143E-2,3.941918E-1,-8.0777395E-1,-9.644606E-2,2.9156747E-1,-8.940046E-2,6.692916E-1,9.2512643E-1,1.2756534E0,1.0157719E0,-9.693768E-2,-1.2205653E0,-2.553939E-1,3.710089E-2,-1.0476546E0,-9.8871726E-1,4.5256644E-1,-1.4709136E0,1.2428983E0,4.5656312E-2,-9.015356E-2,-8.552257E-2,3.459716E-2,5.3085238E-2,9.381839E-3,6.628859E-2,3.1358592E-2,1.4762363E-2,5.9543427E-2,-9.005227E-2,2.9335111E-2,2.3129635E-2,-1.779276E-2,-1.7246453E-2,7.1052336E-3,-8.371026E-2,-2.2055088E-3,-6.3619316E-3,-1.0038161E-1,3.4899708E-2,1.1028991E-2,-1.0223029E-1,7.777383E-2,4.624256E-2,7.669399E-2],"categories":[],"categories_nodes":[],"categories_segments":[],"categories_sizes":[],"default_left":[0,0,0,0,0,0,0,0,0,0,0,0,0,0,0,0,0,0,0,0,0,0,0,0,0,0,0,0,0,0,0,0,0,0,0,0,0,0,0,0,0,0,0,0,0,0,0,0,0,0,0,0,0,0,0,0,0,0,0],"id":14,"left_children":[1,3,-1,5,7,9,11,13,15,17,19,21,23,25,27,29,31,-1,33,-1,35,37,39,41,-1,43,45,47,49,51,53,55,57,-1,-1,-1,-1,-1,-1,-1,-1,-1,-1,-1,-1,-1,-1,-1,-1,-1,-1,-1,-1,-1,-1,-1,-1,-1,-1],"loss_changes":[1.3763635E3,6.999273E2,0E0,7.626007E1,3.8011905E2,6.269223E1,8.726257E0,1.6728873E2,1.7496423E2,6.1211422E1,5.4183502E1,8.523743E0,5.867132E1,1.7332007E2,3.0547766E2,1.8982956E2,1.7559792E2,0E0,5.0340977E1,0E0,5.001587E1,1.2118912E1,6.7587585E0,1.0498688E1,0E0,2.1439996E2,1.5907333E2,2.0134846E2,1.7206488E2,8.3422516E1,1.2804489E2,1.7162148E2,1.5212593E0,0E0,0E0,0E0,0E0,0E0,0E0,0E0,0E0,0E0,0E0,0E0,0E0,0E0,0E0,0E0,0E0,0E0,0E0,0E0,0E0,0E0,0E0,0E0,0E0,0E0,0E0],"parents":[2147483647,0,0,1,1,3,3,4,4,5,5,6,6,7,7,8,8,9,9,10,10,11,11,12,12,13,13,14,14,15,15,16,16,18,18,20,20,21,21,22,22,23,23,25,25,26,26,27,27,28,28,29,29,30,30,31,31,32,32],"right_children":[2,4,-1,6,8,10,12,14,16,18,20,22,24,26,28,30,32,-1,34,-1,36,38,40,42,-1,44,46,48,50,52,54,56,58,-1,-1,-1,-1,-1,-1,-1,-1,-1,-1,-1,-1,-1,-1,-1,-1,-1,-1,-1,-1,-1,-1,-1,-1,-1,-1],"split_conditions":[9E0,1E0,-6.820584E-2,3.35E1,2E0,1.6E1,1.296718E2,2E0,7E0,3E0,2.4E0,8.445123E1,2E0,5.2519043E1,6E0,1.6E1,1.4E1,-9.644606E-2,4E0,-8.940046E-2,1.61E1,1.86E1,4.8E1,2E0,-9.693768E-2,7.5E1,1.94E1,3.7E1,1.0021444E2,1.41E1,1E0,3.93E1,3.51E1,4.5656312E-2,-9.015356E-2,-8.552257E-2,3.459716E-2,5.3085238E-2,9.381839E-3,6.628859E-2,3.1358592E-2,1.4762363E-2,5.9543427E-2,-9.005227E-2,2.9335111E-2,2.3129635E-2,-1.779276E-2,-1.7246453E-2,7.1052336E-3,-8.371026E-2,-2.2055088E-3,-6.3619316E-3,-1.0038161E-1,3.4899708E-2,1.1028991E-2,-1.0223029E-1,7.777383E-2,4.624256E-2,7.669399E-2],"split_indices":[0,2,0,8,7,3,20,4,0,1,11,20,17,20,17,9,3,0,1,0,8,11,9,4,0,14,8,9,20,11,17,8,8,0,0,0,0,0,0,0,0,0,0,0,0,0,0,0,0,0,0,0,0,0,0,0,0,0,0],"split_type":[0,0,0,0,0,0,0,0,0,0,0,0,0,0,0,0,0,0,0,0,0,0,0,0,0,0,0,0,0,0,0,0,0,0,0,0,0,0,0,0,0,0,0,0,0,0,0,0,0,0,0,0,0,0,0,0,0,0,0],"sum_hessian":[1.2274376E4,1.1578399E4,6.95977E2,1.4123186E3,1.016608E4,9.6710724E2,4.4521127E2,7.6943345E3,2.4717458E3,5.407738E1,9.130299E2,3.5383353E2,9.137776E1,2.4044539E3,5.289881E3,2.344963E3,1.2678292E2,1.7675882E1,3.64015E1,8.133349E0,9.0489655E2,1.2129459E2,2.3253893E2,8.5003204E1,6.3745565E0,2.0236176E2,2.202092E3,5.017111E3,2.7277008E2,9.43298E1,2.250633E3,9.601622E1,3.0766695E1,2.850658E1,7.894919E0,7.8294964E0,8.97067E2,1.0197067E2,1.9323923E1,2.1488678E2,1.7652151E1,1.7143538E1,6.7859665E1,1.5316866E2,4.9193104E1,2.6985577E2,1.9322362E3,1.0811893E3,3.9359214E3,1.6751553E2,1.0525455E2,5.172332E1,4.2606483E1,1.0926583E3,1.1579749E3,8.098824E1,1.5027983E1,1.669605E1,1.4070645E1],"tree_param":{"num_deleted":"0","num_feature":"21","num_nodes":"59","size_leaf_vector":"1"}},{"base_weights":[1.3045115E-2,6.6529065E-1,-7.680629E-2,-9.432728E-2,6.964605E-1,-1.7229554E-1,2.2376183E-1,8.75138E-1,3.7331712E-1,-3.1196535E-1,3.2189418E-2,-3.9731553E-1,3.8928673E-1,2.880887E-1,9.1134626E-1,4.6338856E-1,-9.018245E-2,-1.8476656E-1,-7.711467E-1,5.746777E-1,-9.006768E-2,-7.117044E-2,-1.5093538E0,4.9183837E-1,-3.985456E-1,-9.752433E-2,7.846425E-1,1.080465E0,7.9921025E-1,-9.278356E-1,6.076793E-1,-2.716634E-1,7.178069E-1,-1.0279948E0,9.525078E-2,-9.298513E-2,7.1163005E-1,6.7413694E-1,-2.2758344E-1,5.4942024E-1,-6.441447E-1,-9.488293E-2,3.1858314E-2,5.658462E-1,-3.859895E-1,3.048163E-1,-1.42762E0,1.9538642E-3,6.5906845E-2,4.325607E-2,6.311029E-2,-1.12635374E-1,4.335709E-2,4.5255918E-2,-9.851476E-2,-8.770857E-2,3.3508904E-2,4.873074E-3,-2.0602478E-2,-3.2038894E-2,4.7517832E-2,-5.881983E-2,3.7609052E-2,-8.787271E-2,2.2454612E-2,2.8608773E-2,7.585107E-2,-1.3636616E-2,4.927495E-2,-4.8978976E-3,-3.2362394E-2,2.832389E-3,6.872912E-2,-2.5132129E-3,-9.283545E-2,3.0812223E-2,-2.5792817E-2,5.921833E-2,-6.484202E-2,-9.460733E-2,4.3858197E-2,-9.925896E-2,-8.547838E-3],"categories":[],"categories_nodes":[],"categories_segments":[],"categories_sizes":[],"default_left":[0,0,0,0,0,0,0,0,0,0,0,0,0,0,0,0,0,0,0,0,0,0,0,0,0,0,0,0,0,0,0,0,0,0,0,0,0,0,0,0,0,0,0,0,0,0,0,0,0,0,0,0,0,0,0,0,0,0,0,0,0,0,0,0,0,0,0,0,0,0,0,0,0,0,0,0,0,0,0,0,0,0,0],"id":15,"left_children":[1,3,5,-1,7,9,11,13,15,17,19,21,23,25,27,29,-1,31,33,35,37,39,41,43,45,-1,47,49,51,53,55,57,59,61,63,-1,65,67,69,71,73,-1,-1,75,77,79,81,-1,-1,-1,-1,-1,-1,-1,-1,-1,-1,-1,-1,-1,-1,-1,-1,-1,-1,-1,-1,-1,-1,-1,-1,-1,-1,-1,-1,-1,-1,-1,-1,-1,-1,-1,-1],"loss_changes":[7.1880206E2,1.1943402E2,3.0944287E2,0E0,8.442444E1,2.3368262E2,2.6739813E2,1.9812988E1,1.0365809E2,2.8379776E2,2.2033205E2,1.9846988E2,1.6606754E2,6.414647E1,1.599823E1,1.0180623E2,0E0,2.988717E2,2.3469745E2,2.0502008E2,2.850891E2,1.5126463E2,1.04659E2,1.1826303E2,1.7198872E2,0E0,1.8570345E1,1.2670654E1,1.135914E2,9.309656E1,6.8716705E1,1.8008588E2,1.06357666E2,2.15729E2,1.5942308E2,0E0,6.4180695E1,1.2224803E2,1.249787E2,8.298433E1,1.5914502E2,0E0,0E0,9.1694336E1,2.0446483E2,1.7972565E2,6.72065E1,0E0,0E0,0E0,0E0,0E0,0E0,0E0,0E0,0E0,0E0,0E0,0E0,0E0,0E0,0E0,0E0,0E0,0E0,0E0,0E0,0E0,0E0,0E0,0E0,0E0,0E0,0E0,0E0,0E0,0E0,0E0,0E0,0E0,0E0,0E0,0E0],"parents":[2147483647,0,0,1,1,2,2,4,4,5,5,6,6,7,7,8,8,9,9,10,10,11,11,12,12,13,13,14,14,15,15,17,17,18,18,19,19,20,20,21,21,22,22,23,23,24,24,26,26,27,27,28,28,29,29,30,30,31,31,32,32,33,33,34,34,36,36,37,37,38,38,39,39,40,40,43,43,44,44,45,45,46,46],"right_children":[2,4,6,-1,8,10,12,14,16,18,20,22,24,26,28,30,-1,32,34,36,38,40,42,44,46,-1,48,50,52,54,56,58,60,62,64,-1,66,68,70,72,74,-1,-1,76,78,80,82,-1,-1,-1,-1,-1,-1,-1,-1,-1,-1,-1,-1,-1,-1,-1,-1,-1,-1,-1,-1,-1,-1,-1,-1,-1,-1,-1,-1,-1,-1,-1,-1,-1,-1,-1,-1],"split_conditions":[1E0,1.71E1,2E0,-9.432728E-2,4.1E1,6.7E1,7E0,2.36E1,1.6818182E2,8.3333336E1,8.2E1,3.41E1,1.86E1,1.9E1,2.7E1,7.0007935E1,-9.018245E-2,8E1,1.0605864E2,2E0,1.87E1,8E0,2.27E1,1.26E2,1.7E1,-9.752433E-2,1.1176471E2,2E0,3.4E1,2.51E1,5.1E1,1E1,6.790225E1,1.04E2,4.4E1,-9.298513E-2,5.8E1,5.6E1,3E-1,1E-1,4.4E1,-9.488293E-2,3.1858314E-2,1.4544812E2,6.7496155E1,2.09E1,1.3025346E2,1.9538642E-3,6.5906845E-2,4.325607E-2,6.311029E-2,-1.12635374E-1,4.335709E-2,4.5255918E-2,-9.851476E-2,-8.770857E-2,3.3508904E-2,4.873074E-3,-2.0602478E-2,-3.2038894E-2,4.7517832E-2,-5.881983E-2,3.7609052E-2,-8.787271E-2,2.2454612E-2,2.8608773E-2,7.585107E-2,-1.3636616E-2,4.927495E-2,-4.8978976E-3,-3.2362394E-2,2.832389E-3,6.872912E-2,-2.5132129E-3,-9.283545E-2,3.0812223E-2,-2.5792817E-2,5.921833E-2,-6.484202E-2,-9.460733E-2,4.3858197E-2,-9.925896E-2,-8.547838E-3],"split_indices":[2,8,7,0,18,10,13,8,15,15,10,8,11,3,13,20,0,15,20,14,8,18,11,18,13,0,15,1,13,8,18,18,20,13,18,0,14,18,12,12,10,0,0,20,20,11,20,0,0,0,0,0,0,0,0,0,0,0,0,0,0,0,0,0,0,0,0,0,0,0,0,0,0,0,0,0,0,0,0,0,0,0,0],"split_type":[0,0,0,0,0,0,0,0,0,0,0,0,0,0,0,0,0,0,0,0,0,0,0,0,0,0,0,0,0,0,0,0,0,0,0,0,0,0,0,0,0,0,0,0,0,0,0,0,0,0,0,0,0,0,0,0,0,0,0,0,0,0,0,0,0,0,0,0,0,0,0,0,0,0,0,0,0,0,0,0,0,0,0],"sum_hessian":[1.2263291E4,1.4840359E3,1.0779255E4,1.718995E1,1.466846E3,8.1807056E3,2.5985496E3,9.434632E2,5.2338275E2,4.8603823E3,3.3203235E3,5.4651874E2,2.0520308E3,5.5331013E1,8.881322E2,5.0334415E2,2.0038605E1,3.8071562E3,1.053226E3,6.099789E2,2.7103445E3,4.2340424E2,1.2311448E2,1.8160167E3,2.3601405E2,9.513588E0,4.5817425E1,3.5065463E2,5.374776E2,4.6788437E1,4.5655573E2,3.4734434E3,3.3371286E2,8.122452E2,2.4098076E2,3.181823E1,5.7816064E2,4.1274265E2,2.2976018E3,2.0327615E2,2.2012808E2,1.04353E2,1.8761484E1,1.6751442E3,1.4087256E2,1.4061139E2,9.540266E1,1.9558044E1,2.6259378E1,1.6312686E2,1.8752777E2,1.100274E1,5.2647485E2,1.7010561E1,2.9777876E1,1.1072045E1,4.4548367E2,9.57126E2,2.5163174E3,4.851672E1,2.8519617E2,7.500569E2,6.218827E1,3.800753E1,2.0297324E2,4.94285E2,8.387567E1,1.0216804E2,3.1057462E2,1.7563391E3,5.4126276E2,1.2794078E2,7.533537E1,1.484586E2,7.166948E1,1.6009822E3,7.416199E1,5.1604073E1,8.9268486E1,2.8584301E1,1.120271E2,6.5681305E1,2.9721346E1],"tree_param":{"num_deleted":"0","num_feature":"21","num_nodes":"83","size_leaf_vector":"1"}},{"base_weights":[1.6202329E-2,1.01335324E-1,-1.3230913E0,-5.8658477E-2,4.0513584E-1,-1.3677862E0,-2.0544058E-1,1.9152161E-1,-2.0171875E-1,7.5375587E-1,2.6828608E-1,-8.974859E-2,-6.6817656E-2,5.7557147E-2,-6.351458E-2,2.3365597E-1,-9.393674E-2,-1.8636093E-1,-8.3345614E-2,7.867499E-1,-9.843204E-2,-1.3526218E0,3.322393E-1,4.987937E-1,4.9580605E-4,-2.1003371E-1,1.2010486E0,8.1925553E-1,-5.8238256E-1,-9.289801E-2,3.5547736E-1,3.635908E-1,-9.27268E-2,-5.650415E-2,2.9921034E-2,4.292897E-3,-6.314944E-2,-9.062202E-3,-8.222721E-2,7.106825E-2,-7.304387E-2,4.1937463E-2,-7.651663E-2,-1.08787075E-1,6.0420554E-2,8.7303154E-2,-8.430098E-2,1.9181779E-2,-8.689917E-2],"categories":[],"categories_nodes":[],"categories_segments":[],"categories_sizes":[],"default_left":[0,0,0,0,0,0,0,0,0,0,0,0,0,0,0,0,0,0,0,0,0,0,0,0,0,0,0,0,0,0,0,0,0,0,0,0,0,0,0,0,0,0,0,0,0,0,0,0,0],"id":16,"left_children":[1,3,5,7,9,11,13,15,17,19,21,-1,-1,-1,-1,23,-1,25,-1,27,-1,29,31,33,35,37,39,41,43,-1,45,47,-1,-1,-1,-1,-1,-1,-1,-1,-1,-1,-1,-1,-1,-1,-1,-1,-1],"loss_changes":[1.3927025E3,5.582437E2,3.6186768E1,2.693155E2,1.8881519E2,7.024658E0,4.371321E1,2.3923668E2,1.07408005E2,1.018161E2,2.9553848E2,0E0,0E0,0E0,0E0,1.6591612E2,0E0,1.5588281E2,0E0,4.9593445E1,0E0,9.409726E1,1.8848334E2,2.0447134E2,1.5423778E2,1.9214972E2,4.8784622E1,5.067865E1,7.732742E1,0E0,7.548596E1,1.1446933E2,0E0,0E0,0E0,0E0,0E0,0E0,0E0,0E0,0E0,0E0,0E0,0E0,0E0,0E0,0E0,0E0,0E0],"parents":[2147483647,0,0,1,1,2,2,3,3,4,4,5,5,6,6,7,7,8,8,9,9,10,10,15,15,17,17,19,19,21,21,22,22,23,23,24,24,25,25,26,26,27,27,28,28,30,30,31,31],"right_children":[2,4,6,8,10,12,14,16,18,20,22,-1,-1,-1,-1,24,-1,26,-1,28,-1,30,32,34,36,38,40,42,44,-1,46,48,-1,-1,-1,-1,-1,-1,-1,-1,-1,-1,-1,-1,-1,-1,-1,-1,-1],"split_conditions":[8E0,9.3548386E1,1.7352942E2,1E0,1E1,9E0,9E0,8.1E1,1.23E2,5E-1,6E0,-8.974859E-2,-6.6817656E-2,5.7557147E-2,-6.351458E-2,7.898911E1,-9.393674E-2,1.16E2,-8.3345614E-2,7E0,-9.843204E-2,9.7E1,8.5E1,2.5E1,9.9E1,1.01E2,1.46E1,4.9E1,4.1E1,-9.289801E-2,1E0,1E0,-9.27268E-2,-5.650415E-2,2.9921034E-2,4.292897E-3,-6.314944E-2,-9.062202E-3,-8.222721E-2,7.106825E-2,-7.304387E-2,4.1937463E-2,-7.651663E-2,-1.08787075E-1,6.0420554E-2,8.7303154E-2,-8.430098E-2,1.9181779E-2,-8.689917E-2],"split_indices":[0,15,15,17,18,0,0,9,3,12,14,0,0,0,0,20,0,3,0,0,0,10,9,15,10,3,11,3,14,0,0,5,0,0,0,0,0,0,0,0,0,0,0,0,0,0,0,0,0],"split_type":[0,0,0,0,0,0,0,0,0,0,0,0,0,0,0,0,0,0,0,0,0,0,0,0,0,0,0,0,0,0,0,0,0,0,0,0,0,0,0,0,0,0,0,0,0,0,0,0,0],"sum_hessian":[1.2212577E4,1.1483543E4,7.2903394E2,7.5226265E3,3.9609163E3,7.0078564E2,2.8248308E1,2.7365974E3,4.786029E3,1.1152777E3,2.8456387E3,4.4185684E1,6.566E2,1.2386851E1,1.5861458E1,2.6828818E3,5.3715527E1,4.737499E3,4.8530212E1,1.1026255E3,1.2652244E1,1.0724866E2,2.73839E3,1.2548229E3,1.4280591E3,4.6588555E3,7.8643486E1,1.0774467E3,2.5178885E1,8.269557E1,2.455309E1,2.7005068E3,3.788309E1,7.172898E1,1.1830939E3,1.338557E3,8.950205E1,4.568299E3,9.05564E1,7.3062454E1,5.581032E0,1.0692188E3,8.227898E0,1.3210172E1,1.1968712E1,1.4690931E1,9.862158E0,2.6758025E3,2.4704304E1],"tree_param":{"num_deleted":"0","num_feature":"21","num_nodes":"49","size_leaf_vector":"1"}},{"base_weights":[3.0864457E-2,1.07563466E-1,-6.5739684E-2,3.3352557E-1,-2.295272E-2,-4.2761204E-1,4.3110526E-1,-1.6570756E-1,1.8351108E-1,-9.5886385E-1,4.5470822E-1,4.8458225E-1,-6.527499E-1,-1.0979352E-1,-1.2903723E0,3.0720115E-1,-1.9539659E-1,-1.2616342E0,5.945015E-1,6.631856E-1,-9.2054404E-2,1.9251242E-1,6.2302136E-1,-9.56186E-2,2.576907E-1,7.3954177E-1,-1.673284E-1,8.3726965E-2,-1.5467683E0,1.2067254E0,2.4715412E-1,-6.014715E-1,4.5547354E-1,-6.981665E-2,6.1938286E-2,-8.0244325E-2,1.0005782E-1,-9.65057E-2,4.073632E-2,1.9838428E-2,-2.8756043E-2,3.3528395E-2,-2.8769776E-2,-9.255118E-2,4.4589844E-2,-8.598116E-2,4.9080852E-2,-1.2578857E-2,2.3750173E-2,6.235152E-3,-8.950835E-2,-8.63191E-2,6.9151096E-2,-8.117556E-2,1.3550847E-2,-1.7595522E-2,-9.723734E-2,3.3144932E-2,-8.677481E-2],"categories":[],"categories_nodes":[],"categories_segments":[],"categories_sizes":[],"default_left":[0,0,0,0,0,0,0,0,0,0,0,0,0,0,0,0,0,0,0,0,0,0,0,0,0,0,0,0,0,0,0,0,0,0,0,0,0,0,0,0,0,0,0,0,0,0,0,0,0,0,0,0,0,0,0,0,0,0,0],"id":17,"left_children":[1,3,-1,5,7,9,11,13,15,17,19,21,23,25,27,29,31,33,35,37,-1,39,41,-1,43,45,47,-1,49,51,53,55,57,-1,-1,-1,-1,-1,-1,-1,-1,-1,-1,-1,-1,-1,-1,-1,-1,-1,-1,-1,-1,-1,-1,-1,-1,-1,-1],"loss_changes":[1.2562278E3,3.395985E2,0E0,3.1330844E2,2.1518413E2,2.2522995E2,2.1693842E2,2.7128806E2,1.3993655E2,1.4168536E2,8.781027E1,1.4391376E2,2.0250974E2,2.011105E2,1.579235E2,1.2125566E2,1.9456496E2,8.630118E1,1.5654025E2,6.7040146E1,0E0,1.8006248E2,1.3806543E2,0E0,1.3955276E2,1.5713713E2,2.0861945E2,0E0,7.694824E1,7.507448E1,9.466728E1,1.5121262E2,1.2976141E2,0E0,0E0,0E0,0E0,0E0,0E0,0E0,0E0,0E0,0E0,0E0,0E0,0E0,0E0,0E0,0E0,0E0,0E0,0E0,0E0,0E0,0E0,0E0,0E0,0E0,0E0],"parents":[2147483647,0,0,1,1,3,3,4,4,5,5,6,6,7,7,8,8,9,9,10,10,11,11,12,12,13,13,14,14,15,15,16,16,17,17,18,18,19,19,21,21,22,22,24,24,25,25,26,26,28,28,29,29,30,30,31,31,32,32],"right_children":[2,4,-1,6,8,10,12,14,16,18,20,22,24,26,28,30,32,34,36,38,-1,40,42,-1,44,46,48,-1,50,52,54,56,58,-1,-1,-1,-1,-1,-1,-1,-1,-1,-1,-1,-1,-1,-1,-1,-1,-1,-1,-1,-1,-1,-1,-1,-1,-1,-1],"split_conditions":[9E0,2.6E1,-6.5739684E-2,1E0,8.9444275E1,1.1066032E2,2.38E1,7E0,4E0,6.8E1,1.95E1,6.6666664E1,2.77E1,4.089361E1,4E0,9.2571205E1,6.3E1,4E0,7.2E1,3E0,-9.2054404E-2,1E1,4.9E1,-9.56186E-2,5E0,1.6E1,1.06E2,8.3726965E-2,2.4E1,5E0,9.2758125E1,3.4E1,2.3E2,-6.981665E-2,6.1938286E-2,-8.0244325E-2,1.0005782E-1,-9.65057E-2,4.073632E-2,1.9838428E-2,-2.8756043E-2,3.3528395E-2,-2.8769776E-2,-9.255118E-2,4.4589844E-2,-8.598116E-2,4.9080852E-2,-1.2578857E-2,2.3750173E-2,6.235152E-3,-8.950835E-2,-8.63191E-2,6.9151096E-2,-8.117556E-2,1.3550847E-2,-1.7595522E-2,-9.723734E-2,3.3144932E-2,-8.677481E-2],"split_indices":[0,18,0,4,20,20,11,0,1,3,11,15,11,20,3,20,10,17,9,0,0,18,3,0,0,9,14,0,9,13,20,10,18,0,0,0,0,0,0,0,0,0,0,0,0,0,0,0,0,0,0,0,0,0,0,0,0,0,0],"split_type":[0,0,0,0,0,0,0,0,0,0,0,0,0,0,0,0,0,0,0,0,0,0,0,0,0,0,0,0,0,0,0,0,0,0,0,0,0,0,0,0,0,0,0,0,0,0,0,0,0,0,0,0,0,0,0,0,0,0,0],"sum_hessian":[1.2169124E4,1.1513788E4,6.5533594E2,4.2149346E3,7.2988535E3,4.7857657E2,3.7363582E3,4.315319E3,2.9835344E3,2.9866272E2,1.7991386E2,3.5612026E3,1.7515541E2,4.1119844E3,2.0333452E2,2.2494248E3,7.3410974E2,2.5010242E2,4.856029E1,1.6558821E2,1.4325656E1,1.1459476E3,2.4152551E3,7.302401E1,1.021314E2,2.60126E2,3.8518584E3,1.5743922E1,1.8759059E2,1.3956715E2,2.1098577E3,4.5211386E2,2.819959E2,2.3773688E2,1.2365539E1,1.8887558E1,2.9672735E1,8.494047E0,1.5709416E2,9.054924E2,2.4045534E2,2.3235115E3,9.174356E1,2.3167843E1,7.8963554E1,2.2764557E1,2.3736147E2,3.405764E3,4.4609433E2,2.3906576E1,1.6368402E2,7.414648E0,1.321525E2,2.573068E1,2.084127E3,3.8234222E2,6.977165E1,2.582446E2,2.375129E1],"tree_param":{"num_deleted":"0","num_feature":"21","num_nodes":"59","size_leaf_vector":"1"}},{"base_weights":[2.4644708E-2,9.59369E-2,-6.474245E-2,6.2471074E-1,2.812584E-2,8.70269E-1,1.9648314E-1,1.2216227E-1,-2.8999463E-1,5.336876E-2,8.9624876E-1,3.2016718E-1,-9.431104E-2,4.4757524E-1,1.8643945E-2,-4.357034E-1,5.6652737E-1,-9.05043E-2,7.928314E-2,7.567719E-1,1.01619E0,-5.7004098E-2,7.6783985E-1,-5.349003E-1,5.47421E-1,-3.9026838E-2,4.8773536E-1,-9.578523E-1,-2.3466362E-1,1.0241436E0,-1.245456E-1,-1.13246955E-1,4.0960558E-2,5.9649743E-2,4.4157423E-2,2.1260416E-2,-9.398698E-2,4.3507677E-2,-9.711616E-2,-8.6166285E-2,1.381834E-2,3.9342705E-2,1.6270107E-2,9.276842E-3,-1.0200339E-2,6.532573E-2,2.4253426E-3,5.6351954E-3,-7.424016E-2,5.557985E-3,-3.3376943E-2,5.6473553E-2,-7.2744116E-2,-5.0079823E-2,6.269906E-2],"categories":[],"categories_nodes":[],"categories_segments":[],"categories_sizes":[],"default_left":[0,0,0,0,0,0,0,0,0,0,0,0,0,0,0,0,0,0,0,0,0,0,0,0,0,0,0,0,0,0,0,0,0,0,0,0,0,0,0,0,0,0,0,0,0,0,0,0,0,0,0,0,0,0,0],"id":18,"left_children":[1,3,-1,5,7,9,11,13,15,17,19,21,-1,23,25,27,29,-1,-1,31,33,35,37,39,41,43,45,47,49,51,53,-1,-1,-1,-1,-1,-1,-1,-1,-1,-1,-1,-1,-1,-1,-1,-1,-1,-1,-1,-1,-1,-1,-1,-1],"loss_changes":[1.1510879E3,4.1624246E2,0E0,1.3858008E2,3.0787463E2,1.7743652E1,1.24810844E2,2.6757297E2,2.9330157E2,7.968633E1,1.2821899E1,7.70391E1,0E0,1.8834329E2,1.6307599E2,2.1048947E2,1.08226265E2,0E0,0E0,7.346364E1,9.152283E0,2.191459E2,5.9527016E1,1.7146707E2,9.227472E1,1.989285E2,2.3727786E2,3.147793E2,2.1723137E2,5.5367233E1,1.6697342E2,0E0,0E0,0E0,0E0,0E0,0E0,0E0,0E0,0E0,0E0,0E0,0E0,0E0,0E0,0E0,0E0,0E0,0E0,0E0,0E0,0E0,0E0,0E0,0E0],"parents":[2147483647,0,0,1,1,3,3,4,4,5,5,6,6,7,7,8,8,9,9,10,10,11,11,13,13,14,14,15,15,16,16,19,19,20,20,21,21,22,22,23,23,24,24,25,25,26,26,27,27,28,28,29,29,30,30],"right_children":[2,4,-1,6,8,10,12,14,16,18,20,22,-1,24,26,28,30,-1,-1,32,34,36,38,40,42,44,46,48,50,52,54,-1,-1,-1,-1,-1,-1,-1,-1,-1,-1,-1,-1,-1,-1,-1,-1,-1,-1,-1,-1,-1,-1,-1,-1],"split_conditions":[9E0,1E0,-6.474245E-2,4.1E1,4E1,1.99E1,2.02E1,9E0,1.16E2,1.04E2,2E0,3.14E1,-9.431104E-2,1E0,6.3E1,7.9E0,1.27E2,-9.05043E-2,7.928314E-2,1.2E1,1.1E1,6.26E1,1.3192119E2,9.2758125E1,3.82E1,1.1E1,2.52E1,2.76E1,5.8666668E1,3.33E2,2.11E2,-1.13246955E-1,4.0960558E-2,5.9649743E-2,4.4157423E-2,2.1260416E-2,-9.398698E-2,4.3507677E-2,-9.711616E-2,-8.6166285E-2,1.381834E-2,3.9342705E-2,1.6270107E-2,9.276842E-3,-1.0200339E-2,6.532573E-2,2.4253426E-3,5.6351954E-3,-7.424016E-2,5.557985E-3,-3.3376943E-2,5.6473553E-2,-7.2744116E-2,-5.0079823E-2,6.269906E-2],"split_indices":[0,2,0,18,3,8,11,18,3,14,1,8,0,4,14,11,3,0,0,14,18,19,20,20,19,3,8,8,19,18,14,0,0,0,0,0,0,0,0,0,0,0,0,0,0,0,0,0,0,0,0,0,0,0,0],"split_type":[0,0,0,0,0,0,0,0,0,0,0,0,0,0,0,0,0,0,0,0,0,0,0,0,0,0,0,0,0,0,0,0,0,0,0,0,0,0,0,0,0,0,0,0,0,0,0,0,0,0,0,0,0,0,0],"sum_hessian":[1.2234236E4,1.1607984E4,6.2625165E2,1.3184927E3,1.0289492E4,8.373178E2,4.811749E2,7.9423486E3,2.3471428E3,2.590243E1,8.114154E2,4.5500037E2,2.617451E1,1.9160051E3,6.0263438E3,2.0063247E3,3.408182E2,1.1606379E1,1.4296051E1,3.7853546E2,4.3287994E2,2.474188E2,2.0758159E2,1.7635233E2,1.7396528E3,5.367386E3,6.5895746E2,5.566933E2,1.4496315E3,2.0475267E2,1.3606554E2,6.949384E0,3.715861E2,1.8244884E2,2.504311E2,1.9626324E2,5.115556E1,2.0068431E2,6.8972745E0,7.108931E1,1.0526301E2,8.3577686E2,9.03876E2,2.2731484E3,3.0942375E3,2.2938306E2,4.2957443E2,1.8388919E2,3.7280408E2,8.0625714E2,6.4337427E2,1.9693001E2,7.8226657E0,8.33254E1,5.2740135E1],"tree_param":{"num_deleted":"0","num_feature":"21","num_nodes":"55","size_leaf_vector":"1"}},{"base_weights":[4.5535553E-2,1.17694005E-1,-1.2342081E0,-2.4503129E-2,4.6550196E-1,-1.3092043E0,-4.928097E-1,5.3152338E-2,-3.3466265E-1,6.674946E-1,2.8107283E-1,-8.753102E-2,-6.3863516E-2,7.335392E-2,-6.4947546E-2,4.352013E-3,8.968775E-1,-5.136921E-1,4.5563737E-1,5.2238375E-1,9.063409E-1,-3.5033423E-1,4.0098274E-1,1.1695934E-1,-2.8132606E-1,-1.0007322E-1,9.649966E-1,-1.0266196E0,-2.9635763E-1,8.214121E-1,-8.446954E-1,7.177655E-1,1.3745838E-1,9.705098E-1,-6.4089906E-1,1.3876732E-2,-9.080602E-2,-9.17511E-2,4.464753E-1,3.0568677E-3,3.2711785E-2,-6.843838E-2,-9.336021E-3,3.7983205E-2,6.831656E-2,-2.8984068E-2,-7.8191385E-2,7.393961E-3,-3.9460488E-2,4.758922E-2,-7.589704E-2,-7.973912E-2,4.6824824E-2,-1.0391255E-1,3.904117E-2,1.408347E-2,-1.1535273E-1,-6.6150795E-3,5.0740402E-2,-1.2269377E-1,6.3343585E-2,3.0339299E-2,-3.8181137E-2,2.5047535E-2,-4.760138E-2],"categories":[],"categories_nodes":[],"categories_segments":[],"categories_sizes":[],"default_left":[0,0,0,0,0,0,0,0,0,0,0,0,0,0,0,0,0,0,0,0,0,0,0,0,0,0,0,0,0,0,0,0,0,0,0,0,0,0,0,0,0,0,0,0,0,0,0,0,0,0,0,0,0,0,0,0,0,0,0,0,0,0,0,0,0],"id":19,"left_children":[1,3,5,7,9,11,13,15,17,19,21,-1,-1,-1,-1,23,25,27,29,31,33,35,37,39,41,-1,43,45,47,49,51,53,55,57,59,61,-1,-1,63,-1,-1,-1,-1,-1,-1,-1,-1,-1,-1,-1,-1,-1,-1,-1,-1,-1,-1,-1,-1,-1,-1,-1,-1,-1,-1],"loss_changes":[1.1329677E3,5.743843E2,3.576654E1,1.9858595E2,1.2536481E2,6.13855E0,9.948512E1,2.715109E2,2.3382301E2,5.5251587E1,1.3365367E2,0E0,0E0,0E0,0E0,2.0060185E2,7.311575E1,1.4979993E2,1.4597568E2,7.529797E1,6.081659E1,1.5056036E2,1.5161732E2,1.3410495E2,1.8112375E2,0E0,2.8047241E1,9.521219E1,2.0749426E2,7.430626E1,9.1745636E1,1.1882437E2,1.20075195E2,2.8592651E1,8.869687E1,1.0503813E2,0E0,0E0,1.1122589E2,0E0,0E0,0E0,0E0,0E0,0E0,0E0,0E0,0E0,0E0,0E0,0E0,0E0,0E0,0E0,0E0,0E0,0E0,0E0,0E0,0E0,0E0,0E0,0E0,0E0,0E0],"parents":[2147483647,0,0,1,1,2,2,3,3,4,4,5,5,6,6,7,7,8,8,9,9,10,10,15,15,16,16,17,17,18,18,19,19,20,20,21,21,22,22,23,23,24,24,26,26,27,27,28,28,29,29,30,30,31,31,32,32,33,33,34,34,35,35,38,38],"right_children":[2,4,6,8,10,12,14,16,18,20,22,-1,-1,-1,-1,24,26,28,30,32,34,36,38,40,42,-1,44,46,48,50,52,54,56,58,60,62,-1,-1,64,-1,-1,-1,-1,-1,-1,-1,-1,-1,-1,-1,-1,-1,-1,-1,-1,-1,-1,-1,-1,-1,-1,-1,-1,-1,-1],"split_conditions":[8E0,2E0,7.8E1,5.3E1,1E0,9E0,7.9E1,1.04E2,1.16E2,1.3E1,6E0,-8.753102E-2,-6.3863516E-2,7.335392E-2,-6.4947546E-2,8.3333336E1,2E0,7.9E0,6E0,1.0972715E2,5E0,6.712329E1,1E0,5.4E1,1E0,-1.0007322E-1,1.55E1,8.1E1,2E0,1.2025E2,7.931035E1,1.8E1,1.19333336E2,2.36E1,1.49994E2,3.13E1,-9.080602E-2,-9.17511E-2,1.4544812E2,3.0568677E-3,3.2711785E-2,-6.843838E-2,-9.336021E-3,3.7983205E-2,6.831656E-2,-2.8984068E-2,-7.8191385E-2,7.393961E-3,-3.9460488E-2,4.758922E-2,-7.589704E-2,-7.973912E-2,4.6824824E-2,-1.0391255E-1,3.904117E-2,1.408347E-2,-1.1535273E-1,-6.6150795E-3,5.0740402E-2,-1.2269377E-1,6.3343585E-2,3.0339299E-2,-3.8181137E-2,2.5047535E-2,-4.760138E-2],"split_indices":[0,7,3,3,17,0,3,14,3,3,14,0,0,0,0,15,0,11,0,20,4,15,1,14,7,0,11,3,17,19,15,9,19,8,20,8,0,0,20,0,0,0,0,0,0,0,0,0,0,0,0,0,0,0,0,0,0,0,0,0,0,0,0,0,0],"split_type":[0,0,0,0,0,0,0,0,0,0,0,0,0,0,0,0,0,0,0,0,0,0,0,0,0,0,0,0,0,0,0,0,0,0,0,0,0,0,0,0,0,0,0,0,0,0,0,0,0,0,0,0,0,0,0,0,0,0,0,0,0,0,0,0,0],"sum_hessian":[1.2266374E4,1.161251E4,6.5386426E2,8.243274E3,3.3692349E3,5.93103E2,6.0761246E1,6.593317E3,1.6499576E3,1.6067987E3,1.762436E3,3.6382156E1,5.567209E2,1.746952E1,4.3291725E1,6.2337666E3,3.595504E2,1.3455056E3,3.044521E2,1.00151587E3,6.0528284E2,2.8097745E2,1.4814586E3,4.471716E3,1.7620508E3,7.60465E0,3.5194577E2,3.9932986E2,9.461757E2,2.3790059E2,6.6551506E1,6.637451E2,3.3777075E2,5.815374E2,2.3745441E1,2.2584995E2,5.512749E1,2.87556E1,1.452703E3,4.05185E3,4.1986566E2,1.3994853E2,1.6221022E3,2.3473996E2,1.1720582E2,2.1911388E2,1.8021599E2,4.979993E2,4.4817642E2,2.2590408E2,1.1996503E1,4.690412E1,1.9647388E1,1.3934272E1,6.4981085E2,3.1978992E2,1.7980835E1,2.238063E1,5.591568E2,1.2028433E1,1.1717009E1,1.2826022E2,9.758972E1,1.3988557E3,5.3847363E1],"tree_param":{"num_deleted":"0","num_feature":"21","num_nodes":"65","size_leaf_vector":"1"}},{"base_weights":[3.241223E-2,1.0179764E-1,-1.2125999E0,-2.5279713E-1,2.6687557E-1,-1.2879007E0,-4.551193E-1,1.4656669E-1,-3.6151212E-1,6.54872E-1,1.8500929E-1,-8.494531E-2,-6.299689E-2,7.0641175E-2,-6.3346215E-2,3.3058986E-1,-1.1940813E0,1.1702369E-1,-5.2684724E-1,9.435741E-1,4.8134536E-1,5.04959E-1,7.485877E-2,-3.246554E-2,8.826922E-1,-8.802171E-2,8.497738E-2,3.3320725E-1,-1.1905239E0,-1.221772E0,-2.9620203E-1,6.9927835E-1,1.1086601E0,6.707835E-1,-7.7897084E-1,-3.8426006E-1,5.961825E-1,-6.0561832E-2,4.528103E-1,-1.2244327E-2,7.839178E-2,-8.846279E-2,4.855263E-2,2.9678011E-2,-2.0390581E-2,-8.6951196E-2,6.782753E-2,-8.8715024E-2,-4.4688072E-2,2.3405438E-2,-2.4811303E-2,2.3580514E-2,6.517853E-2,4.0861078E-2,6.88257E-2,3.5491258E-2,-9.590522E-2,-9.897318E-2,1.0259753E-2,-6.35128E-2,4.6220027E-2,-2.1447608E-2,3.3069886E-2,-6.191966E-5,-9.216835E-2,3.1341113E-2,-6.235059E-2],"categories":[],"categories_nodes":[],"categories_segments":[],"categories_sizes":[],"default_left":[0,0,0,0,0,0,0,0,0,0,0,0,0,0,0,0,0,0,0,0,0,0,0,0,0,0,0,0,0,0,0,0,0,0,0,0,0,0,0,0,0,0,0,0,0,0,0,0,0,0,0,0,0,0,0,0,0,0,0,0,0,0,0,0,0,0,0],"id":20,"left_children":[1,3,5,7,9,11,13,15,17,19,21,-1,-1,-1,-1,23,25,27,29,31,33,35,37,39,41,-1,-1,43,45,47,49,51,53,55,57,59,61,63,65,-1,-1,-1,-1,-1,-1,-1,-1,-1,-1,-1,-1,-1,-1,-1,-1,-1,-1,-1,-1,-1,-1,-1,-1,-1,-1,-1,-1],"loss_changes":[1.0445345E3,6.704658E2,3.5821655E1,1.5802867E2,2.4812012E2,4.525879E0,9.1655136E1,1.9264832E2,2.2636597E2,6.77428E1,2.2745087E2,0E0,0E0,0E0,0E0,1.3753232E2,1.5748653E2,2.0824348E2,3.403979E2,1.979309E1,2.0400679E2,1.3431345E2,2.4585503E2,1.4139577E2,6.549707E1,0E0,0E0,1.2212461E2,1.4841035E2,9.4372375E1,2.4446614E2,2.805243E1,2.2499512E1,7.630359E1,1.3253131E2,1.8020168E2,1.0053552E2,3.7406705E2,3.7556918E2,0E0,0E0,0E0,0E0,0E0,0E0,0E0,0E0,0E0,0E0,0E0,0E0,0E0,0E0,0E0,0E0,0E0,0E0,0E0,0E0,0E0,0E0,0E0,0E0,0E0,0E0,0E0,0E0],"parents":[2147483647,0,0,1,1,2,2,3,3,4,4,5,5,6,6,7,7,8,8,9,9,10,10,15,15,16,16,17,17,18,18,19,19,20,20,21,21,22,22,23,23,24,24,27,27,28,28,29,29,30,30,31,31,32,32,33,33,34,34,35,35,36,36,37,37,38,38],"right_children":[2,4,6,8,10,12,14,16,18,20,22,-1,-1,-1,-1,24,26,28,30,32,34,36,38,40,42,-1,-1,44,46,48,50,52,54,56,58,60,62,64,66,-1,-1,-1,-1,-1,-1,-1,-1,-1,-1,-1,-1,-1,-1,-1,-1,-1,-1,-1,-1,-1,-1,-1,-1,-1,-1,-1,-1],"split_conditions":[8E0,1E0,7.8E1,1.2E1,1E0,9E0,7.9E1,7.5471695E1,2.8E1,3E1,9E0,-8.494531E-2,-6.299689E-2,7.0641175E-2,-6.3346215E-2,6.7E1,1.25E2,7.0588234E1,4.6E1,1.13E1,1.04E2,1E0,7.68E1,1.08666664E2,2.6666666E1,-8.802171E-2,8.497738E-2,1E-1,7E0,4.6376812E1,5.3E1,5E0,1.3E2,7E0,4.3E1,1.2228826E2,2.3333334E1,7.225E1,2.05E2,-1.2244327E-2,7.839178E-2,-8.846279E-2,4.855263E-2,2.9678011E-2,-2.0390581E-2,-8.6951196E-2,6.782753E-2,-8.8715024E-2,-4.4688072E-2,2.3405438E-2,-2.4811303E-2,2.3580514E-2,6.517853E-2,4.0861078E-2,6.88257E-2,3.5491258E-2,-9.590522E-2,-9.897318E-2,1.0259753E-2,-6.35128E-2,4.6220027E-2,-2.1447608E-2,3.3069886E-2,-6.191966E-5,-9.216835E-2,3.1341113E-2,-6.235059E-2],"split_indices":[0,7,3,18,2,0,3,15,3,9,18,0,0,0,0,3,3,15,3,11,18,4,19,19,15,0,0,12,0,15,3,17,15,0,3,20,15,19,18,0,0,0,0,0,0,0,0,0,0,0,0,0,0,0,0,0,0,0,0,0,0,0,0,0,0,0,0],"split_type":[0,0,0,0,0,0,0,0,0,0,0,0,0,0,0,0,0,0,0,0,0,0,0,0,0,0,0,0,0,0,0,0,0,0,0,0,0,0,0,0,0,0,0,0,0,0,0,0,0,0,0,0,0,0,0,0,0,0,0,0,0,0,0,0,0,0,0],"sum_hessian":[1.2089096E4,1.1451797E4,6.372986E2,3.6375806E3,7.814217E3,5.7903656E2,5.8261993E1,7.7826843E2,2.859312E3,1.3602865E3,6.45393E3,3.3079132E1,5.4595746E2,1.7425655E1,4.0836338E1,6.849963E2,9.327215E1,7.3429767E2,2.1250144E3,5.090033E2,8.5128326E2,1.6519612E3,4.801969E3,4.1381683E2,2.7117944E2,7.833226E1,1.4939891E1,6.3075665E2,1.0354107E2,5.284671E2,1.5965472E3,2.0737051E2,3.0163278E2,7.404535E2,1.1082981E2,1.5340482E2,1.4985563E3,3.535893E3,1.266076E3,3.6607208E2,4.774475E1,8.130699E0,2.6304874E2,4.6690952E2,1.6384712E2,8.545582E1,1.8085247E1,1.9521733E2,3.3324976E2,3.3088065E2,1.2656666E3,1.5191624E2,5.545427E1,1.463967E2,1.5523607E2,7.3016797E2,1.0285466E1,4.9472088E1,6.1357723E1,9.1491875E1,6.191295E1,8.929691E1,1.4092594E3,3.4229924E3,1.1290053E2,1.1490757E3,1.1700041E2],"tree_param":{"num_deleted":"0","num_feature":"21","num_nodes":"67","size_leaf_vector":"1"}},{"base_weights":[3.6367245E-2,9.912843E-2,-6.217896E-2,6.0659635E-1,3.341556E-2,-8.22764E-2,6.2743837E-1,4.488037E-2,-8.8837765E-2,6.4772105E-1,-8.608498E-2,2.242776E-1,-5.864569E-2,7.383165E-1,3.6777607E-1,4.139586E-1,-4.6107486E-2,-1.9215848E-1,1.1949956E-1,3.2308348E-2,5.2455183E-2,-6.095481E-2,3.0924527E-2,-2.2426842E-2,2.3542464E-2,1.0485069E-3,-6.0158093E-2,-7.1884766E-3,-4.99957E-2,2.2234106E-2,-4.254868E-3],"categories":[],"categories_nodes":[],"categories_segments":[],"categories_sizes":[],"default_left":[0,0,0,0,0,0,0,0,0,0,0,0,0,0,0,0,0,0,0,0,0,0,0,0,0,0,0,0,0,0,0],"id":21,"left_children":[1,3,-1,5,7,-1,9,11,-1,13,-1,15,17,19,21,23,25,27,29,-1,-1,-1,-1,-1,-1,-1,-1,-1,-1,-1,-1],"loss_changes":[9.6793304E2,3.8299097E2,0E0,6.2837463E1,2.1113737E2,0E0,6.3311768E1,1.8771996E2,0E0,3.2569824E1,0E0,1.8970125E2,1.5246771E2,2.7311523E1,1.2750724E2,1.0687079E2,1.18441444E2,1.430694E2,1.8275687E2,0E0,0E0,0E0,0E0,0E0,0E0,0E0,0E0,0E0,0E0,0E0,0E0],"parents":[2147483647,0,0,1,1,3,3,4,4,6,6,7,7,9,9,11,11,12,12,13,13,14,14,15,15,16,16,17,17,18,18],"right_children":[2,4,-1,6,8,-1,10,12,-1,14,-1,16,18,20,22,24,26,28,30,-1,-1,-1,-1,-1,-1,-1,-1,-1,-1,-1,-1],"split_conditions":[9E0,1E0,-6.217896E-2,1.7E1,1E0,-8.22764E-2,1E0,1E0,-8.8837765E-2,6.34E1,-8.608498E-2,2.2E1,8.648367E1,4.5E1,7.225E1,3E0,7.8E1,8.35303E1,5.24E1,3.2308348E-2,5.2455183E-2,-6.095481E-2,3.0924527E-2,-2.2426842E-2,2.3542464E-2,1.0485069E-3,-6.0158093E-2,-7.1884766E-3,-4.99957E-2,2.2234106E-2,-4.254868E-3],"split_indices":[0,2,0,8,5,0,5,17,0,19,0,3,20,3,19,13,9,20,19,0,0,0,0,0,0,0,0,0,0,0,0],"split_type":[0,0,0,0,0,0,0,0,0,0,0,0,0,0,0,0,0,0,0,0,0,0,0,0,0,0,0,0,0,0,0],"sum_hessian":[1.2046781E4,1.1484567E4,5.6221436E2,1.3157158E3,1.0168852E4,1.1349678E1,1.3043661E3,1.0105821E4,6.303054E1,1.2939186E3,1.044755E1,3.6974512E3,6.4083696E3,9.763244E2,3.1759415E2,2.172714E3,1.5247372E3,3.6630103E3,2.7453594E3,7.5541907E2,2.2090538E2,4.280454E1,2.747896E2,1.3401927E2,2.0386948E3,1.4421157E3,8.262154E1,3.4570898E3,2.059205E2,1.0597843E3,1.6855752E3],"tree_param":{"num_deleted":"0","num_feature":"21","num_nodes":"31","size_leaf_vector":"1"}},{"base_weights":[-1.5926376E-2,7.679461E-2,-8.256792E-1,5.970858E-1,5.537963E-3,-1.4792334E0,-5.3314507E-1,-9.894712E-2,6.1754024E-1,1.3494226E-1,-1.9326961E-1,-1.8126128E0,-6.1074086E-2,-6.30058E-2,-6.1457038E-2,7.213013E-1,2.5417262E-1,3.8992414E-1,-3.9601233E-2,-2.946986E-1,3.3786E-1,-9.430442E-2,-7.769864E-2,2.2325492E-1,-1.1857502E0,-7.372789E-2,7.392228E-1,5.271422E-1,-9.1290385E-2,-1.5319169E-1,5.3684294E-1,-1.3130708E-2,-9.729642E-2,-3.5758466E-2,-5.4877317E-1,1.4094546E0,1.04063496E-1,-1.21847466E-1,1.2410743E0,-8.439987E-2,4.9520526E-2,4.940363E-2,3.0718172E-2,-2.021853E-2,4.939991E-2,1.4569645E-2,-6.396733E-2,-9.5052116E-2,2.7787125E-2,7.1605593E-3,-1.539432E-2,6.9706435E-3,-6.627954E-2,2.4198208E-2,-3.4990977E-2,8.0947004E-2,-7.316062E-2,-8.253032E-2,1.5697492E-2,-2.49693E-2,4.4376228E-2,7.7967444E-3,7.1388625E-2],"categories":[],"categories_nodes":[],"categories_segments":[],"categories_sizes":[],"default_left":[0,0,0,0,0,0,0,0,0,0,0,0,0,0,0,0,0,0,0,0,0,0,0,0,0,0,0,0,0,0,0,0,0,0,0,0,0,0,0,0,0,0,0,0,0,0,0,0,0,0,0,0,0,0,0,0,0,0,0,0,0,0,0],"id":22,"left_children":[1,3,5,7,9,11,13,-1,15,17,19,21,-1,23,-1,25,27,29,31,33,35,-1,-1,37,39,-1,41,43,-1,45,47,49,-1,51,53,55,57,59,61,-1,-1,-1,-1,-1,-1,-1,-1,-1,-1,-1,-1,-1,-1,-1,-1,-1,-1,-1,-1,-1,-1,-1,-1],"loss_changes":[8.7947205E2,3.8965842E2,2.2929865E2,6.7931366E1,2.3787518E2,2.9713135E1,2.7246454E2,0E0,4.720352E1,2.4927808E2,1.9649252E2,1.0858154E-1,0E0,1.6037552E2,0E0,3.954242E1,1.6034616E2,1.8169504E2,1.6779427E2,2.0139893E2,1.4642133E2,0E0,0E0,1.3987962E2,1.1246547E2,0E0,2.9527954E1,1.0726237E2,0E0,2.4338733E2,8.3606445E1,1.5124873E2,0E0,3.4301004E2,2.4137857E2,6.53741E1,1.7778012E2,1.1399852E2,2.020198E1,0E0,0E0,0E0,0E0,0E0,0E0,0E0,0E0,0E0,0E0,0E0,0E0,0E0,0E0,0E0,0E0,0E0,0E0,0E0,0E0,0E0,0E0,0E0,0E0],"parents":[2147483647,0,0,1,1,2,2,3,3,4,4,5,5,6,6,8,8,9,9,10,10,11,11,13,13,15,15,16,16,17,17,18,18,19,19,20,20,23,23,24,24,26,26,27,27,29,29,30,30,31,31,33,33,34,34,35,35,36,36,37,37,38,38],"right_children":[2,4,6,8,10,12,14,-1,16,18,20,22,-1,24,-1,26,28,30,32,34,36,-1,-1,38,40,-1,42,44,-1,46,48,50,-1,52,54,56,58,60,62,-1,-1,-1,-1,-1,-1,-1,-1,-1,-1,-1,-1,-1,-1,-1,-1,-1,-1,-1,-1,-1,-1,-1,-1],"split_conditions":[7E0,1E0,2.79E1,7.1875E1,2.7E1,9E0,9E0,-9.894712E-2,8.8E1,1E0,1.03E2,8.825E1,-6.1074086E-2,4.3E1,-6.1457038E-2,1.61E1,1.3448276E2,1.4E1,3.86E1,5.4E1,5.525114E1,-9.430442E-2,-7.769864E-2,3.5E1,2.04E2,-7.372789E-2,2.81E1,3.09E1,-9.1290385E-2,1.3E1,1.6E1,2.2E1,-9.729642E-2,1.07E2,1.92E1,1.17E2,4.575E1,8.7E1,2.6E1,-8.439987E-2,4.9520526E-2,4.940363E-2,3.0718172E-2,-2.021853E-2,4.939991E-2,1.4569645E-2,-6.396733E-2,-9.5052116E-2,2.7787125E-2,7.1605593E-3,-1.539432E-2,6.9706435E-3,-6.627954E-2,2.4198208E-2,-3.4990977E-2,8.0947004E-2,-7.316062E-2,-8.253032E-2,1.5697492E-2,-2.49693E-2,4.4376228E-2,7.7967444E-3,7.1388625E-2],"split_indices":[0,2,8,15,3,0,0,0,18,17,14,19,0,14,0,8,15,10,8,19,15,0,0,14,14,0,8,8,0,18,9,13,0,13,8,14,19,19,9,0,0,0,0,0,0,0,0,0,0,0,0,0,0,0,0,0,0,0,0,0,0,0,0],"split_type":[0,0,0,0,0,0,0,0,0,0,0,0,0,0,0,0,0,0,0,0,0,0,0,0,0,0,0,0,0,0,0,0,0,0,0,0,0,0,0,0,0,0,0,0,0,0,0,0,0,0,0,0,0,0,0,0,0,0,0,0,0,0,0],"sum_hessian":[1.1711786E4,1.0509318E4,1.2024675E3,1.2650422E3,9.244276E3,3.705532E2,8.319143E2,9.211399E0,1.2558308E3,5.5997246E3,3.644552E3,1.5894254E2,2.1161067E2,4.9717038E2,3.3474393E2,9.761128E2,2.7971802E2,2.275023E3,3.3247017E3,3.060532E3,5.840199E2,1.188786E2,4.0063927E1,3.968011E2,1.0036929E2,7.244065E0,9.688687E2,2.4792743E2,3.17906E1,4.843776E2,1.7906453E3,3.2801614E3,4.4540173E1,1.5163176E3,1.5442145E3,1.0369778E2,4.8032214E2,2.9698535E2,9.981573E1,8.17306E1,1.8638697E1,3.2139743E2,6.474713E2,8.210132E1,1.6582611E2,3.4781006E2,1.3656755E2,1.3008986E1,1.7776364E3,2.1436555E3,1.136506E3,1.3357959E3,1.8052171E2,1.9675478E2,1.3474597E3,9.705649E1,6.6412854E0,5.058258E1,4.2973956E2,2.1650905E2,8.04763E1,1.4921758E1,8.489397E1],"tree_param":{"num_deleted":"0","num_feature":"21","num_nodes":"63","size_leaf_vector":"1"}},{"base_weights":[-1.0182092E-2,-1.1890364E-1,2.658979E-1,-2.349739E-2,-3.0131456E-1,1.0189648E-1,5.6546974E-1,-2.4942961E-1,1.47777E-1,-5.793189E-1,1.362428E-1,-9.49227E-2,1.260027E-1,-8.894035E-2,6.000579E-1,-8.9407496E-2,-6.664103E-1,9.92701E-2,9.446831E-1,-2.9913355E-2,-8.753801E-1,1.0590543E0,-4.6588864E-2,6.411787E-1,3.587839E-2,6.1969453E-1,-7.816031E-2,-2.0389928E-1,6.57743E-1,-7.9094094E-1,8.516962E-2,-9.304316E-2,1.2469303E-1,1.2593949E0,-8.471176E-2,-3.9164722E-1,7.0739347E-1,-9.445867E-1,7.98142E-1,1.3588705E0,3.1599304E-1,-8.636646E-2,4.416453E-2,-9.592918E-2,7.768389E-1,2.3380975E-1,-3.7530306E-1,7.3411447E-1,2.683822E-1,-7.55483E-3,-8.477924E-2,6.1582517E-2,-1.9238887E-2,-2.765438E-2,-8.167835E-2,1.3304204E-2,-6.2482674E-3,-8.903056E-2,7.380478E-2,-4.7656223E-3,-9.034685E-2,-1.9569881E-2,5.143234E-2,-5.37236E-2,1.759567E-3,8.543261E-2,-8.2166076E-2,2.6086694E-2,7.4744575E-2,-9.222771E-2,6.0094565E-2,-4.25522E-2,1.07266E-2,4.225282E-2,-9.269288E-2,1.3768281E-2,-9.1465965E-2,8.180805E-3,-4.266735E-2,3.9406646E-2,7.807688E-3,-9.189129E-2,2.166764E-2],"categories":[],"categories_nodes":[],"categories_segments":[],"categories_sizes":[],"default_left":[0,0,0,0,0,0,0,0,0,0,0,0,0,0,0,0,0,0,0,0,0,0,0,0,0,0,0,0,0,0,0,0,0,0,0,0,0,0,0,0,0,0,0,0,0,0,0,0,0,0,0,0,0,0,0,0,0,0,0,0,0,0,0,0,0,0,0,0,0,0,0,0,0,0,0,0,0,0,0,0,0,0,0],"id":23,"left_children":[1,3,5,7,9,11,13,15,17,19,21,-1,23,-1,25,27,29,31,33,35,37,39,41,43,45,47,-1,49,51,53,-1,-1,55,57,-1,59,61,63,65,67,69,-1,71,-1,73,75,77,79,81,-1,-1,-1,-1,-1,-1,-1,-1,-1,-1,-1,-1,-1,-1,-1,-1,-1,-1,-1,-1,-1,-1,-1,-1,-1,-1,-1,-1,-1,-1,-1,-1,-1,-1],"loss_changes":[3.4985065E2,1.4552359E2,1.6173587E2,2.1254475E2,3.493949E2,1.0291762E2,9.551608E1,1.5797226E2,1.2067766E2,2.8562848E2,1.8842105E2,0E0,9.770807E1,0E0,4.976169E1,1.4664233E2,1.9513959E2,1.4704608E2,1.5091301E2,1.6457031E2,1.3292273E2,4.071083E1,1.4236127E2,1.103022E2,1.4597743E2,4.5588226E1,0E0,1.1677916E2,1.3677672E2,1.2427368E2,0E0,0E0,1.02732605E2,1.08446884E2,0E0,1.7341617E2,7.209668E1,1.395528E2,1.04752914E2,1.41679535E1,1.0632561E2,0E0,1.3531067E2,0E0,5.509703E1,1.0430243E2,1.5030536E2,2.6683228E1,9.857489E1,0E0,0E0,0E0,0E0,0E0,0E0,0E0,0E0,0E0,0E0,0E0,0E0,0E0,0E0,0E0,0E0,0E0,0E0,0E0,0E0,0E0,0E0,0E0,0E0,0E0,0E0,0E0,0E0,0E0,0E0,0E0,0E0,0E0,0E0],"parents":[2147483647,0,0,1,1,2,2,3,3,4,4,5,5,6,6,7,7,8,8,9,9,10,10,12,12,14,14,15,15,16,16,17,17,18,18,19,19,20,20,21,21,22,22,23,23,24,24,25,25,27,27,28,28,29,29,32,32,33,33,35,35,36,36,37,37,38,38,39,39,40,40,42,42,44,44,45,45,46,46,47,47,48,48],"right_children":[2,4,6,8,10,12,14,16,18,20,22,-1,24,-1,26,28,30,32,34,36,38,40,42,44,46,48,-1,50,52,54,-1,-1,56,58,-1,60,62,64,66,68,70,-1,72,-1,74,76,78,80,82,-1,-1,-1,-1,-1,-1,-1,-1,-1,-1,-1,-1,-1,-1,-1,-1,-1,-1,-1,-1,-1,-1,-1,-1,-1,-1,-1,-1,-1,-1,-1,-1,-1,-1],"split_conditions":[2E0,7.586207E1,1.3E1,2E0,7.2E1,1.6E0,7.027027E1,1.81E1,1.1E2,2.44E1,2.29E1,-9.49227E-2,5.2E0,-8.894035E-2,1E0,7.1875E1,1.64E2,3E0,7.2E1,2.36E1,1.4466667E2,8.2E1,2.9E1,2E0,8E0,6.525E1,-7.816031E-2,6.9565216E1,2.2E1,6.025641E1,8.516962E-2,-9.304316E-2,5.5737705E1,4E0,-8.471176E-2,3E0,1E0,4.1E1,1E0,1.74E1,1.06E2,-8.636646E-2,1E0,-9.592918E-2,1.5384616E2,1.2025E2,3.2E1,2.09E1,7.1333336E1,-7.55483E-3,-8.477924E-2,6.1582517E-2,-1.9238887E-2,-2.765438E-2,-8.167835E-2,1.3304204E-2,-6.2482674E-3,-8.903056E-2,7.380478E-2,-4.7656223E-3,-9.034685E-2,-1.9569881E-2,5.143234E-2,-5.37236E-2,1.759567E-3,8.543261E-2,-8.2166076E-2,2.6086694E-2,7.4744575E-2,-9.222771E-2,6.0094565E-2,-4.25522E-2,1.07266E-2,4.225282E-2,-9.269288E-2,1.3768281E-2,-9.1465965E-2,8.180805E-3,-4.266735E-2,3.9406646E-2,7.807688E-3,-9.189129E-2,2.166764E-2],"split_indices":[7,15,3,1,13,11,15,11,19,8,8,0,11,0,5,15,14,3,10,8,19,13,3,3,3,19,0,15,10,15,0,0,15,13,0,17,7,3,10,8,14,0,7,0,15,19,19,11,19,0,0,0,0,0,0,0,0,0,0,0,0,0,0,0,0,0,0,0,0,0,0,0,0,0,0,0,0,0,0,0,0,0,0],"split_type":[0,0,0,0,0,0,0,0,0,0,0,0,0,0,0,0,0,0,0,0,0,0,0,0,0,0,0,0,0,0,0,0,0,0,0,0,0,0,0,0,0,0,0,0,0,0,0,0,0,0,0,0,0,0,0,0,0,0,0,0,0,0,0,0,0,0,0,0,0,0,0,0,0,0,0,0,0,0,0,0,0,0,0],"sum_hessian":[1.1653479E4,8.361322E3,3.2921567E3,5.49067E3,2.870652E3,2.1283342E3,1.1638224E3,2.3673647E3,3.123305E3,1.755171E3,1.1154811E3,2.4417295E1,2.103917E3,1.61885E1,1.1476339E3,1.7116932E3,6.556716E2,2.9451604E3,1.7814453E2,6.150023E2,1.1401688E3,1.8366602E2,9.3181506E2,3.123458E2,1.7915713E3,1.1380173E3,9.616594E0,1.4848804E3,2.2681288E2,6.235699E2,3.210169E1,3.6785244E1,2.908375E3,1.5963014E2,1.8514393E1,4.1289743E2,2.0210489E2,1.0953091E3,4.48597E1,1.3027348E2,5.3392532E1,4.6812927E1,8.8500214E2,1.505885E1,2.9728696E2,1.2096909E3,5.818803E2,8.5761005E2,2.804073E2,1.4351792E3,4.9701183E1,1.4616672E2,8.064616E1,4.875909E2,1.3597897E2,1.8567571E3,1.051618E3,1.0141547E1,1.494886E2,3.4229477E2,7.060267E1,4.5672325E1,1.5643256E2,9.670186E2,1.2829048E2,3.28929E1,1.1966799E1,1.8884604E1,1.1138888E2,1.5211725E1,3.8180805E1,1.4085799E2,7.441441E2,2.904344E2,6.852578E0,1.1866556E3,2.3035269E1,2.738337E2,3.080466E2,7.8397327E2,7.363681E1,1.9631264E1,2.6077603E2],"tree_param":{"num_deleted":"0","num_feature":"21","num_nodes":"83","size_leaf_vector":"1"}},{"base_weights":[1.985589E-2,-2.47336E-2,4.9646887E-1,9.204527E-3,-8.7542945E-1,1.3166328E-3,7.9427195E-1,2.231077E-2,-8.332407E-2,-1.1959745E0,2.1179007E-1,-3.5755777E-1,1.0270315E0,5.9497833E-1,1.2591617E0,-7.27932E-2,2.4160947E-1,3.420423E-1,-1.3574082E0,-7.540665E-2,1.2705712E0,5.2773756E-1,-1.1408576E0,-7.127532E-2,1.25008E0,7.699952E-1,-3.333698E-1,1.0636071E0,9.104895E-2,3.6912856E-1,-1.2255931E-1,3.1837317E-1,-3.3661222E-1,1.1094457E-1,-7.28076E-2,-7.7685975E-2,-2.506471E-1,1.9036274E0,-6.898894E-2,8.590978E-1,-6.949108E-2,4.0050158E-1,-7.8366384E-2,1.13608435E-1,1.7759517E0,9.0289277E-1,-3.0212063E-1,-8.984839E-2,6.992858E-1,-7.532474E-2,1.2325714E0,2.682097E-2,-5.755582E-2,-1.9955704E-2,-9.929274E-4,8.428086E-3,3.0070636E-2,4.4653464E-2,-4.2253792E-2,1.0241357E-1,-7.574877E-2,6.985433E-2,1.07392035E-1,-1.0427099E-2,7.823716E-2,5.424859E-2,-7.988578E-2,-8.025137E-2,8.290283E-2,6.0203966E-2,9.846869E-2,1.2978668E-2,5.6153573E-2,-7.9916306E-2,9.478807E-2,7.779875E-2,-7.780648E-2,2.9717421E-2,6.693175E-2],"categories":[],"categories_nodes":[],"categories_segments":[],"categories_sizes":[],"default_left":[0,0,0,0,0,0,0,0,0,0,0,0,0,0,0,0,0,0,0,0,0,0,0,0,0,0,0,0,0,0,0,0,0,0,0,0,0,0,0,0,0,0,0,0,0,0,0,0,0,0,0,0,0,0,0,0,0,0,0,0,0,0,0,0,0,0,0,0,0,0,0,0,0,0,0,0,0,0,0],"id":24,"left_children":[1,3,5,7,9,11,13,15,-1,17,19,21,23,25,27,29,31,33,35,-1,37,39,41,-1,43,45,47,49,-1,51,53,55,57,-1,-1,-1,59,61,-1,63,-1,65,-1,67,69,71,73,-1,75,-1,77,-1,-1,-1,-1,-1,-1,-1,-1,-1,-1,-1,-1,-1,-1,-1,-1,-1,-1,-1,-1,-1,-1,-1,-1,-1,-1,-1,-1],"loss_changes":[2.505905E2,3.1132654E2,1.4874977E2,2.2779099E2,1.4442636E2,1.4019316E2,5.761194E1,2.146462E2,0E0,7.982852E1,1.74998E2,1.9625381E2,5.578183E1,7.2201004E1,1.873056E1,1.5792569E2,1.3828804E2,1.0840247E2,6.2506653E1,0E0,1.0224433E2,8.578612E1,9.923607E1,0E0,5.4193695E1,5.339891E1,1.0846713E2,6.349826E1,0E0,1.8547116E2,1.8327011E2,1.1645438E2,2.2918439E2,0E0,0E0,0E0,1.3332936E2,2.979889E0,0E0,8.631174E1,0E0,4.7287994E1,0E0,8.192286E1,4.5039825E0,4.673349E1,1.2231749E2,0E0,8.417279E1,0E0,8.257645E0,0E0,0E0,0E0,0E0,0E0,0E0,0E0,0E0,0E0,0E0,0E0,0E0,0E0,0E0,0E0,0E0,0E0,0E0,0E0,0E0,0E0,0E0,0E0,0E0,0E0,0E0,0E0,0E0],"parents":[2147483647,0,0,1,1,2,2,3,3,4,4,5,5,6,6,7,7,9,9,10,10,11,11,12,12,13,13,14,14,15,15,16,16,17,17,18,18,20,20,21,21,22,22,24,24,25,25,26,26,27,27,29,29,30,30,31,31,32,32,36,36,37,37,39,39,41,41,43,43,44,44,45,45,46,46,48,48,50,50],"right_children":[2,4,6,8,10,12,14,16,-1,18,20,22,24,26,28,30,32,34,36,-1,38,40,42,-1,44,46,48,50,-1,52,54,56,58,-1,-1,-1,60,62,-1,64,-1,66,-1,68,70,72,74,-1,76,-1,78,-1,-1,-1,-1,-1,-1,-1,-1,-1,-1,-1,-1,-1,-1,-1,-1,-1,-1,-1,-1,-1,-1,-1,-1,-1,-1,-1,-1],"split_conditions":[1.03E2,1.15E2,8.8E0,1E0,3.11E2,2.04E2,6.3E1,2E0,-8.332407E-2,2.4E1,4E0,7.280318E1,1.25E2,4E0,7.4E1,1.9E1,9.6E1,2E0,1.87E2,-7.540665E-2,6E0,1.24E2,1.2E2,-7.127532E-2,7.474591E1,2.01E1,3E0,2.08E1,9.104895E-2,4E1,6.431031E1,1.3E1,5.2E0,1.1094457E-1,-7.28076E-2,-7.7685975E-2,2.3E1,8.2E1,-6.898894E-2,1.93E2,-6.949108E-2,8.497039E1,-7.8366384E-2,1.79E2,2.1E2,1.15E2,1.19E2,-8.984839E-2,1.26E2,-7.532474E-2,1.06E2,2.682097E-2,-5.755582E-2,-1.9955704E-2,-9.929274E-4,8.428086E-3,3.0070636E-2,4.4653464E-2,-4.2253792E-2,1.0241357E-1,-7.574877E-2,6.985433E-2,1.07392035E-1,-1.0427099E-2,7.823716E-2,5.424859E-2,-7.988578E-2,-8.025137E-2,8.290283E-2,6.0203966E-2,9.846869E-2,1.2978668E-2,5.6153573E-2,-7.9916306E-2,9.478807E-2,7.779875E-2,-7.780648E-2,2.9717421E-2,6.693175E-2],"split_indices":[14,13,11,5,18,14,10,7,0,9,4,20,3,4,3,8,18,17,13,0,17,3,13,0,20,11,17,8,0,3,20,3,11,0,0,0,18,14,0,13,0,20,0,3,14,14,3,0,18,0,14,0,0,0,0,0,0,0,0,0,0,0,0,0,0,0,0,0,0,0,0,0,0,0,0,0,0,0,0],"split_type":[0,0,0,0,0,0,0,0,0,0,0,0,0,0,0,0,0,0,0,0,0,0,0,0,0,0,0,0,0,0,0,0,0,0,0,0,0,0,0,0,0,0,0,0,0,0,0,0,0,0,0,0,0,0,0,0,0,0,0,0,0,0,0,0,0,0,0,0,0,0,0,0,0,0,0,0,0,0,0],"sum_hessian":[1.1789846E4,1.0782077E4,1.00776825E3,1.0369385E4,4.1269272E2,3.7885562E2,6.289126E2,1.028989E4,7.949486E1,3.186462E2,9.4046524E1,2.8114188E2,9.771376E1,4.4179803E2,1.8711458E2,7.177757E3,3.1121328E3,3.0162466E1,2.8848373E2,3.5673225E1,5.8373302E1,1.3213147E2,1.4901039E2,7.696419E0,9.001734E1,3.718631E2,6.993494E1,1.4094746E2,4.6167126E1,7.2584607E2,6.4519106E3,2.7477903E3,3.643424E2,1.4643984E1,1.5518481E1,2.446799E2,4.3803833E1,4.7346077E1,1.1027224E1,1.13133606E2,1.8997858E1,3.2306896E1,1.1670351E2,2.8861103E1,6.1156235E1,3.309918E2,4.0871307E1,2.8624653E1,4.1310284E1,8.206282E0,1.3274118E2,6.5447363E2,7.137245E1,1.7463682E3,4.7055425E3,1.7978125E3,9.499778E2,1.0636065E2,2.5798175E2,1.53226795E1,2.8481155E1,1.7587439E1,2.9758638E1,4.5299713E1,6.783389E1,2.4404423E1,7.902472E0,1.36416645E1,1.5219438E1,1.7282848E1,4.387339E1,8.4953384E1,2.460384E2,2.5880825E1,1.4990483E1,3.0163284E1,1.1147E1,1.9857168E1,1.1288401E2],"tree_param":{"num_deleted":"0","num_feature":"21","num_nodes":"79","size_leaf_vector":"1"}},{"base_weights":[-8.85825E-3,-1.15913674E-1,2.6363632E-1,-1.6656832E-1,3.058016E-1,-6.1842877E-1,3.2772735E-1,-1.2443698E-1,-9.3892366E-1,1.548179E-1,9.270125E-1,2.7651897E-1,-1.3481383E0,4.0448198E-1,-2.5469947E-1,-2.546209E-2,-3.041228E-1,-1.8991266E-1,-1.3050249E0,5.224933E-1,-2.4945635E-1,1.2084424E0,-4.769628E-1,8.262867E-1,-9.633964E-2,-8.78537E-2,4.9623534E-2,-9.748306E-2,4.1837284E-1,-5.8620495E-1,4.1046068E-1,-6.404619E-2,6.386152E-1,-5.611557E-1,8.324677E-2,-7.203652E-2,7.876489E-1,-7.5783096E-2,3.129214E-1,3.7167484E-1,1.4451312E0,-1.2666752E0,2.695009E-1,9.601263E-1,1.6779039E0,-8.391978E-2,5.3667504E-2,1.0887684E0,-8.4744E-2,4.3407568E-1,-7.829351E-2,1.6573037E-1,-8.984413E-2,9.144074E-1,-3.6989018E-1,-8.8260224E-4,-4.7023494E-2,-7.866264E-2,4.1675836E-2,-6.825311E-2,-2.1617362E-2,-6.524926E-2,1.1526226E-2,7.213672E-2,-7.6002344E-2,9.3326785E-2,-7.470188E-2,-7.204543E-2,2.7096242E-2,6.016755E-2,9.574005E-2,-7.9688124E-2,2.7880117E-2,-9.349393E-4,6.595376E-2,3.524557E-2,6.491928E-2,6.64325E-2,9.110723E-2,6.375929E-2,1.5115405E-2,-9.433575E-2,2.2228273E-2,-1.0516385E-1,1.9536516E-2,7.124891E-2,-1.389306E-2,-1.0395708E-1,6.6037424E-2],"categories":[],"categories_nodes":[],"categories_segments":[],"categories_sizes":[],"default_left":[0,0,0,0,0,0,0,0,0,0,0,0,0,0,0,0,0,0,0,0,0,0,0,0,0,0,0,0,0,0,0,0,0,0,0,0,0,0,0,0,0,0,0,0,0,0,0,0,0,0,0,0,0,0,0,0,0,0,0,0,0,0,0,0,0,0,0,0,0,0,0,0,0,0,0,0,0,0,0,0,0,0,0,0,0,0,0,0,0],"id":25,"left_children":[1,3,5,7,9,11,13,15,17,19,21,23,25,27,29,31,33,35,37,39,41,43,45,47,-1,-1,-1,-1,49,51,53,55,57,59,61,-1,63,-1,65,67,69,71,73,75,77,-1,-1,79,-1,81,-1,83,-1,85,87,-1,-1,-1,-1,-1,-1,-1,-1,-1,-1,-1,-1,-1,-1,-1,-1,-1,-1,-1,-1,-1,-1,-1,-1,-1,-1,-1,-1,-1,-1,-1,-1,-1,-1],"loss_changes":[3.3762088E2,1.7754639E2,1.847474E2,2.4128802E2,8.3460396E1,1.450052E2,1.3617871E2,1.2512382E2,1.04938995E2,1.0689732E2,6.9360916E1,1.2309011E2,1.1867854E2,8.877783E1,7.852994E1,1.1631888E2,2.4886111E2,1.5655586E2,8.8225494E1,5.1852127E1,1.8129875E2,1.5327225E1,5.728043E1,5.5430157E1,0E0,0E0,0E0,0E0,8.4026E1,2.1638326E2,4.7010513E1,1.7440984E2,1.0877609E2,1.5497656E2,2.0427318E2,0E0,1.11028625E2,0E0,8.838121E1,1.0105555E2,3.6632538E0,7.009294E1,6.893513E1,7.490616E0,4.386902E-2,0E0,0E0,1.0455826E1,0E0,6.54664E1,0E0,7.6042244E1,0E0,4.446868E1,1.3937717E2,0E0,0E0,0E0,0E0,0E0,0E0,0E0,0E0,0E0,0E0,0E0,0E0,0E0,0E0,0E0,0E0,0E0,0E0,0E0,0E0,0E0,0E0,0E0,0E0,0E0,0E0,0E0,0E0,0E0,0E0,0E0,0E0,0E0,0E0],"parents":[2147483647,0,0,1,1,2,2,3,3,4,4,5,5,6,6,7,7,8,8,9,9,10,10,11,11,12,12,13,13,14,14,15,15,16,16,17,17,18,18,19,19,20,20,21,21,22,22,23,23,28,28,29,29,30,30,31,31,32,32,33,33,34,34,36,36,38,38,39,39,40,40,41,41,42,42,43,43,44,44,47,47,49,49,51,51,53,53,54,54],"right_children":[2,4,6,8,10,12,14,16,18,20,22,24,26,28,30,32,34,36,38,40,42,44,46,48,-1,-1,-1,-1,50,52,54,56,58,60,62,-1,64,-1,66,68,70,72,74,76,78,-1,-1,80,-1,82,-1,84,-1,86,88,-1,-1,-1,-1,-1,-1,-1,-1,-1,-1,-1,-1,-1,-1,-1,-1,-1,-1,-1,-1,-1,-1,-1,-1,-1,-1,-1,-1,-1,-1,-1,-1,-1,-1],"split_conditions":[2E0,1.03E2,3E0,1.15E2,3.19E1,5E0,5E0,7.586207E1,5.7405178E1,2.87E1,2.1E2,3.16E1,2.35E1,2.3333334E1,3.8E1,1.01E2,6.1E1,4.6654522E1,1.87E2,2.58E2,2.96E1,2.07E2,9.365557E1,1.16E1,-9.633964E-2,-8.78537E-2,4.9623534E-2,-9.748306E-2,1E0,1.6E1,4.9E1,4.7E1,2.17E1,1E0,5.93433E1,-7.203652E-2,5.5737705E1,-7.5783096E-2,2.3E1,2.4E0,2.43E2,6E0,5E0,6.3E1,6.3E1,-8.391978E-2,5.3667504E-2,1E0,-8.4744E-2,1.4E0,-7.829351E-2,9E0,-8.984413E-2,3.1E1,9.5E1,-8.8260224E-4,-4.7023494E-2,-7.866264E-2,4.1675836E-2,-6.825311E-2,-2.1617362E-2,-6.524926E-2,1.1526226E-2,7.213672E-2,-7.6002344E-2,